1 1 5 100 1
0 2 5 100 3.13197e-05
1 2 5 100 0.999969
2 3 5 100 0.999876
4 3 5 100 0.000123497
2 4 5 100 0.8
3 4 5 100 0.2
0 5 5 100 2.87075e-06
3 5 5 100 0.8
4 5 5 100 0.199979
5 5 5 100 1.85812e-05
0 6 5 100 8.36409e-06
3 6 5 100 0.4
4 6 5 100 0.2
5 6 5 100 0.399991
0 7 5 100 0.0250814
4 7 5 100 0.724919
5 7 5 100 0.25
2 8 5 100 0.333334
3 8 5 100 0.333334
5 8 5 100 0.333333
0 9 5 100 0.00394059
4 9 5 100 0.742008
5 9 5 100 0.254051
5 10 5 100 1
1 1 6 100 0.751961
2 1 6 100 0.248039
2 2 6 100 1
0 3 6 100 0.000231216
3 3 6 100 0.749769
4 3 6 100 0.25
3 4 6 100 0.74999
4 4 6 100 0.25001
3 5 6 100 0.25
4 5 6 100 0.75
0 6 6 100 0.00802785
5 6 6 100 0.991927
6 6 6 100 4.56247e-05
4 7 6 100 0.25
5 7 6 100 0.25
6 7 6 100 0.5
5 8 6 100 1
0 9 6 100 0.00146376
5 9 6 100 0.496973
6 9 6 100 0.501563
0 10 6 100 1.8014e-05
6 10 6 100 0.999982
1 1 7 100 1
2 2 7 100 1
3 3 7 100 0.874953
4 3 7 100 0.125047
0 4 7 100 0.000231907
3 4 7 100 0.374768
4 4 7 100 0.625
4 5 7 100 0.625051
5 5 7 100 0.374949
3 6 7 100 0.25
5 6 7 100 0.75
0 7 7 100 5.78013e-06
4 7 7 100 0.125
5 7 7 100 0.625
6 7 7 100 0.249972
7 7 7 100 2.26709e-05
0 8 7 100 3.12033e-06
3 8 7 100 0.375
6 8 7 100 0.374975
7 8 7 100 0.250022
0 9 7 100 5.07475e-06
4 9 7 100 0.166667
6 9 7 100 0.166647
7 9 7 100 0.666681
5 10 7 100 0.500001
7 10 7 100 0.499999
0 11 7 100 0.000350891
6 11 7 100 0.999222
7 11 7 100 0.000426999
7 12 7 100 1
1 1 8 100 1
0 2 8 100 3.12248e-06
1 2 8 100 0.181788
2 2 8 100 0.818179
7 2 8 100 3.05469e-05
0 3 8 100 0.000739966
1 3 8 100 0.181818
2 3 8 100 0.0908817
3 3 8 100 0.635646
4 3 8 100 0.0909145
0 4 8 100 0.000760078
2 4 8 100 0.363652
3 4 8 100 0.0909024
4 4 8 100 0.544686
0 5 8 100 3.67063e-05
3 5 8 100 0.454545
4 5 8 100 0.181781
5 5 8 100 0.355848
6 5 8 100 0.0077883
0 6 8 100 7.09653e-05
4 6 8 100 0.181818
5 6 8 100 0.748001
6 6 8 100 0.0701095
0 7 8 100 0.0909091
4 7 8 100 0.0909091
5 7 8 100 0.00774572
6 7 8 100 0.808819
7 7 8 100 0.00161748
4 8 8 100 0.0909091
5 8 8 100 0.181827
6 8 8 100 0.271391
7 8 8 100 0.455866
8 8 8 100 6.30879e-06
0 9 8 100 9.68068e-05
3 9 8 100 8.22186e-06
5 9 8 100 0.0909091
6 9 8 100 0.363628
7 9 8 100 0.363502
8 9 8 100 0.181855
5 10 8 100 0.222223
6 10 8 100 0.111111
7 10 8 100 0.333334
8 10 8 100 0.333332
0 11 8 100 0.00239343
6 11 8 100 0.333334
7 11 8 100 0.166667
8 11 8 100 0.497606
0 12 8 100 0.00489647
7 12 8 100 0.749975
8 12 8 100 0.245129
0 13 8 100 0.0040474
8 13 8 100 0.995953
0 14 8 100 0.0255468
8 14 8 100 0.974453
1 1 9 100 1
1 2 9 100 0.142857
2 2 9 100 0.714286
5 2 9 100 0.142857
0 3 9 100 3.12711e-05
1 3 9 100 0.000544652
2 3 9 100 0.142857
3 3 9 100 0.714284
5 3 9 100 0.142283
0 4 9 100 0.0169956
2 4 9 100 0.142857
3 4 9 100 0.142857
4 4 9 100 0.554433
5 4 9 100 0.142857
3 5 9 100 0.142857
4 5 9 100 0.713584
5 5 9 100 0.143559
4 6 9 100 0.142857
5 6 9 100 0.857143
0 7 9 100 0.000242364
6 7 9 100 0.999758
0 8 9 100 0.000937881
3 8 9 100 8.71321e-06
7 8 9 100 0.999053
0 9 9 100 8.11172e-06
5 9 9 100 0.285714
6 9 9 100 0.285714
7 9 9 100 0.142857
8 9 9 100 0.285681
9 9 9 100 2.55577e-05
0 10 9 100 0.00246873
6 10 9 100 0.285715
7 10 9 100 0.425961
8 10 9 100 0.000141904
9 10 9 100 0.285714
7 11 9 100 0.6
8 11 9 100 0.4
0 12 9 100 0.000282661
6 12 9 100 0.19996
7 12 9 100 0.2
8 12 9 100 0.396256
9 12 9 100 0.203501
7 13 9 100 0.250001
8 13 9 100 0.250001
9 13 9 100 0.499999
0 14 9 100 4.13656e-05
8 14 9 100 0.499921
9 14 9 100 0.500038
9 15 9 100 1
1 1 10 100 0.916675
2 1 10 100 0.0833247
0 2 10 100 0.00289391
1 2 10 100 0.0833302
2 2 10 100 0.913772
6 2 10 100 3.68951e-06
0 3 10 100 0.000347929
2 3 10 100 0.4166
3 3 10 100 0.499718
4 3 10 100 0.0833333
2 4 10 100 0.0833333
3 4 10 100 0.583333
4 4 10 100 0.333325
10 4 10 100 8.34857e-06
3 5 10 100 0.333333
4 5 10 100 0.416667
5 5 10 100 0.25
0 6 10 100 0.0636475
3 6 10 100 0.0199401
4 6 10 100 0.583334
5 6 10 100 0.166412
6 6 10 100 0.166667
0 7 10 100 2.06136e-05
3 7 10 100 0.0833333
4 7 10 100 0.4231
5 7 10 100 0.243546
6 7 10 100 0.0833333
7 7 10 100 0.0833333
8 7 10 100 0.0833333
0 8 10 100 8.49256e-05
4 8 10 100 0.0833333
5 8 10 100 0.583248
6 8 10 100 0.332831
8 8 10 100 0.000502519
0 9 10 100 0.0259961
2 9 10 100 8.99419e-05
5 9 10 100 0.249977
6 9 10 100 0.22429
7 9 10 100 0.332983
8 9 10 100 0.166663
0 10 10 100 0.0804221
3 10 10 100 6.04765e-06
6 10 10 100 0.25
7 10 10 100 0.00302755
8 10 10 100 0.583149
9 10 10 100 0.0833949
0 11 10 100 0.0909121
6 11 10 100 0.727273
7 11 10 100 0.0909091
9 11 10 100 0.0908982
10 11 10 100 8.0122e-06
0 12 10 100 6.72477e-05
1 12 10 100 9.51394e-07
7 12 10 100 0.809532
8 12 10 100 0.099491
10 12 10 100 0.0909088
7 13 10 100 0.0999989
8 13 10 100 0.496784
9 13 10 100 0.403202
10 13 10 100 1.50827e-05
0 14 10 100 5.325e-06
7 14 10 100 0.2
8 14 10 100 0.2
9 14 10 100 0.299979
10 14 10 100 0.300015
7 15 10 100 0.142857
8 15 10 100 0.285715
9 15 10 100 0.142857
10 15 10 100 0.428571
0 16 10 100 5.65531e-05
8 16 10 100 0.5
9 16 10 100 0.498407
10 16 10 100 0.0015362
6 17 10 100 0.25
8 17 10 100 0.25
10 17 10 100 0.499999
0 18 10 100 1.98175e-05
9 18 10 100 0.999947
10 18 10 100 3.31836e-05
0 19 10 100 0.0451071
10 19 10 100 0.954893
0 20 10 100 0.0345481
10 20 10 100 0.965452
1 1 11 100 1
0 2 11 100 0.0168639
1 2 11 100 0.111111
2 2 11 100 0.871655
3 2 11 100 0.000332476
7 2 11 100 3.46735e-05
9 2 11 100 2.92781e-06
0 3 11 100 0.00148176
2 3 11 100 0.819761
3 3 11 100 0.113265
10 3 11 100 0.0654901
11 3 11 100 1.77434e-06
0 4 11 100 3.91157e-06
3 4 11 100 0.666663
4 4 11 100 0.333333
0 5 11 100 1.21688e-05
3 5 11 100 0.111111
4 5 11 100 0.555543
5 5 11 100 0.333333
0 6 11 100 0.105821
3 6 11 100 0.111111
4 6 11 100 0.116397
5 6 11 100 0.666656
6 6 11 100 2.53014e-06
10 6 11 100 1.20573e-05
0 7 11 100 0.000849336
2 7 11 100 1.72036e-06
4 7 11 100 0.33254
5 7 11 100 0.111061
6 7 11 100 0.444437
8 7 11 100 0.111111
6 8 11 100 0.668698
7 8 11 100 0.331302
2 9 11 100 1.98344e-06
5 9 11 100 0.111111
6 9 11 100 0.333333
7 9 11 100 0.555553
7 10 11 100 0.333334
8 10 11 100 0.666666
0 11 11 100 2.30442e-05
5 11 11 100 0.111111
8 11 11 100 0.666666
9 11 11 100 0.222199
0 12 11 100 0.000850796
2 12 11 100 4.81134e-06
7 12 11 100 3.10743e-05
9 12 11 100 0.888033
10 12 11 100 0.11108
0 13 11 100 4.17825e-06
8 13 11 100 0.444445
10 13 11 100 0.555532
11 13 11 100 1.93017e-05
8 14 11 100 0.333334
9 14 11 100 0.111111
10 14 11 100 0.111111
11 14 11 100 0.444443
0 15 11 100 2.8648e-06
6 15 11 100 0.2
9 15 11 100 0.59945
10 15 11 100 0.000550089
11 15 11 100 0.199997
0 16 11 100 0.00510314
7 16 11 100 0.25
10 16 11 100 0.494897
11 16 11 100 0.25
0 17 11 100 0.0006008
9 17 11 100 0.333333
10 17 11 100 0.66601
11 17 11 100 5.56281e-05
5 18 11 100 2.58754e-05
10 18 11 100 0.666642
11 18 11 100 0.333332
10 19 11 100 0.500002
11 19 11 100 0.499998
11 20 11 100 1
1 1 12 100 0.702313
2 1 12 100 0.297687
0 2 12 100 6.206e-06
1 2 12 100 0.000175265
2 2 12 100 0.425643
3 2 12 100 0.574169
12 2 12 100 6.48353e-06
0 3 12 100 5.01453e-06
2 3 12 100 0.142857
3 3 12 100 0.285709
4 3 12 100 0.571429
3 4 12 100 0.285714
4 4 12 100 0.285714
5 4 12 100 0.428571
0 5 12 100 3.36253e-05
5 5 12 100 0.571395
6 5 12 100 0.285714
10 5 12 100 0.142857
0 6 12 100 0.142877
5 6 12 100 0.015316
6 6 12 100 0.413219
7 6 12 100 0.285714
11 6 12 100 0.142857
12 6 12 100 1.68408e-05
6 7 12 100 0.428571
7 7 12 100 0.571429
0 8 12 100 0.000169257
3 8 12 100 1.49928e-06
5 8 12 100 5.92189e-06
6 8 12 100 0.142857
7 8 12 100 0.142689
8 8 12 100 0.714277
0 9 12 100 0.000535975
8 9 12 100 0.142903
9 9 12 100 0.713704
10 9 12 100 0.142857
0 10 12 100 0.000492743
5 10 12 100 0.142857
7 10 12 100 0.428571
8 10 12 100 0.285714
9 10 12 100 0.142364
6 11 12 100 0.142875
8 11 12 100 0.857125
0 12 12 100 0.000184742
7 12 12 100 0.142857
9 12 12 100 0.564474
10 12 12 100 0.149635
12 12 12 100 0.142849
6 13 12 100 6.5862e-06
7 13 12 100 0.166667
10 13 12 100 0.66666
11 13 12 100 0.166667
0 14 12 100 7.57328e-05
8 14 12 100 0.333334
11 14 12 100 0.665704
12 14 12 100 0.000886833
9 15 12 100 0.166667
10 15 12 100 0.333334
12 15 12 100 0.499999
11 16 12 100 1
11 17 12 100 1
0 18 12 100 8.82756e-06
11 18 12 100 0.5
12 18 12 100 0.499991
0 19 12 100 0.00770577
12 19 12 100 0.992294
0 20 12 100 0.0163422
12 20 12 100 0.983658
1 1 13 100 0.75
2 1 13 100 0.25
2 2 13 100 0.714624
3 2 13 100 0.285376
0 3 13 100 0.0204492
2 3 13 100 0.25
3 3 13 100 0.479551
4 3 13 100 0.25
2 4 13 100 0.124998
3 4 13 100 0.249993
4 4 13 100 0.500009
5 4 13 100 0.125
0 5 13 100 3.75346e-06
3 5 13 100 0.125
4 5 13 100 0.25
5 5 13 100 0.624996
4 6 13 100 0.25
5 6 13 100 0.25
6 6 13 100 0.5
0 7 13 100 3.29031e-05
1 7 13 100 0.000268107
5 7 13 100 0.375
6 7 13 100 0.109851
7 7 13 100 0.124699
8 7 13 100 0.375
10 7 13 100 0.00014662
13 7 13 100 0.0150022
5 8 13 100 0.124999
6 8 13 100 0.500001
7 8 13 100 0.125
9 8 13 100 0.25
0 9 13 100 4.30338e-05
3 9 13 100 1.93717e-06
7 9 13 100 0.499955
8 9 13 100 0.5
7 10 13 100 0.375
9 10 13 100 0.625
4 11 13 100 9.80734e-06
7 11 13 100 7.17933e-05
8 11 13 100 0.50001
10 11 13 100 0.499908
0 12 13 100 0.125289
9 12 13 100 0.249725
10 12 13 100 0.499453
11 12 13 100 0.125532
0 13 13 100 7.10342e-05
6 13 13 100 0.125
8 13 13 100 0.125
10 13 13 100 0.125
11 13 13 100 0.5
12 13 13 100 0.124929
0 14 13 100 0.00819847
9 14 13 100 0.277516
10 14 13 100 0.285714
12 14 13 100 0.428571
0 15 13 100 1.62673e-05
9 15 13 100 0.285698
11 15 13 100 0.428571
12 15 13 100 0.285714
0 16 13 100 0.00272802
10 16 13 100 0.285715
12 16 13 100 0.568417
13 16 13 100 0.14314
0 17 13 100 0.00286364
4 17 13 100 6.59304e-06
10 17 13 100 0.166667
11 17 13 100 0.166667
13 17 13 100 0.663796
0 18 13 100 0.0111081
11 18 13 100 0.333333
12 18 13 100 0.333333
13 18 13 100 0.322225
4 19 13 100 1.10361e-05
12 19 13 100 0.999989
13 20 13 100 1
1 1 14 100 1
0 2 14 100 3.95732e-06
1 2 14 100 0.285714
2 2 14 100 0.571425
3 2 14 100 0.142857
0 3 14 100 0.0304513
1 3 14 100 0.142857
3 3 14 100 0.826678
5 3 14 100 1.40517e-05
0 4 14 100 7.46632e-05
2 4 14 100 0.571429
4 4 14 100 0.285714
5 4 14 100 0.142782
2 5 14 100 0.285714
3 5 14 100 0.142857
4 5 14 100 0.142857
5 5 14 100 0.428571
0 6 14 100 0.00518583
2 6 14 100 0.110686
3 6 14 100 0.142857
4 6 14 100 0.169842
5 6 14 100 0.142857
6 6 14 100 0.428572
3 7 14 100 0.142857
4 7 14 100 0.145471
5 7 14 100 0.28326
6 7 14 100 0.428405
7 7 14 100 6.78183e-06
0 8 14 100 0.142588
4 8 14 100 0.285714
7 8 14 100 0.571429
11 8 14 100 0.000268219
5 9 14 100 0.285714
6 9 14 100 0.285714
7 9 14 100 7.50111e-05
8 9 14 100 0.428496
0 10 14 100 1.98921e-05
4 10 14 100 4.36677e-05
5 10 14 100 0.142857
7 10 14 100 0.428508
9 10 14 100 0.428572
0 11 14 100 0.146241
1 11 14 100 3.0589e-06
5 11 14 100 0.143179
7 11 14 100 0.285714
9 11 14 100 0.142857
10 11 14 100 0.281774
13 11 14 100 9.15035e-05
14 11 14 100 0.000139122
5 12 14 100 2.23511e-05
6 12 14 100 0.285714
8 12 14 100 0.285714
10 12 14 100 0.428549
0 13 14 100 0.142818
7 13 14 100 0.142857
8 13 14 100 0.142857
9 13 14 100 0.428571
10 13 14 100 3.94555e-05
11 13 14 100 0.142857
8 14 14 100 0.142857
9 14 14 100 0.142857
10 14 14 100 0.571429
12 14 14 100 0.142857
0 15 14 100 6.32641e-06
9 15 14 100 0.285714
11 15 14 100 0.571429
13 15 14 100 0.142838
14 15 14 100 1.25262e-05
8 16 14 100 0.142857
10 16 14 100 0.428572
12 16 14 100 0.285714
14 16 14 100 0.142857
0 17 14 100 0.167722
9 17 14 100 0.333333
11 17 14 100 0.165618
13 17 14 100 0.333313
14 17 14 100 1.41693e-05
10 18 14 100 0.333327
11 18 14 100 0.333322
12 18 14 100 1.82572e-05
13 18 14 100 0.166667
14 18 14 100 0.166666
0 19 14 100 0.2
8 19 14 100 8.9109e-06
12 19 14 100 0.6
13 19 14 100 0.199991
0 20 14 100 3.14694e-06
11 20 14 100 0.400001
13 20 14 100 0.399984
14 20 14 100 0.200012
0 21 14 100 7.01578e-05
11 21 14 100 0.25
12 21 14 100 0.25
13 21 14 100 0.248493
14 21 14 100 0.251436
12 22 14 100 0.666667
14 22 14 100 0.333333
0 23 14 100 0.000281342
13 23 14 100 0.999685
14 23 14 100 3.34698e-05
0 24 14 100 0.000289991
14 24 14 100 0.99971
1 1 15 100 1
2 2 15 100 1
3 3 15 100 0.746916
4 3 15 100 0.253084
4 4 15 100 0.5
5 4 15 100 0.5
0 5 15 100 0.000228191
4 5 15 100 0.249754
5 5 15 100 0.500018
7 5 15 100 0.247555
8 5 15 100 0.0024451
0 6 15 100 0.00501492
2 6 15 100 6.52947e-06
5 6 15 100 0.740488
6 6 15 100 0.249993
9 6 15 100 0.00449731
5 7 15 100 0.500144
6 7 15 100 0.25
9 7 15 100 0.249856
0 8 15 100 0.0017937
3 8 15 100 7.94364e-06
6 8 15 100 0.5
7 8 15 100 0.248198
10 8 15 100 0.25
3 9 15 100 0.251047
7 9 15 100 0.498953
10 9 15 100 0.249931
11 9 15 100 6.92065e-05
3 10 15 100 0.498899
7 10 15 100 0.251101
11 10 15 100 0.249983
12 10 15 100 1.71875e-05
4 11 15 100 0.249999
8 11 15 100 0.500004
12 11 15 100 0.249997
7 12 15 100 0.25
8 12 15 100 0.25
9 12 15 100 0.25
13 12 15 100 0.25
0 13 15 100 6.7515e-05
7 13 15 100 0.249933
9 13 15 100 0.5
14 13 15 100 0.25
0 14 15 100 0.000391715
8 14 15 100 0.25
10 14 15 100 0.25
11 14 15 100 0.25
14 14 15 100 0.249556
15 14 15 100 5.27511e-05
9 15 15 100 0.250001
11 15 15 100 0.25
12 15 15 100 0.179311
13 15 15 100 0.0706896
15 15 15 100 0.249999
10 16 15 100 0.333333
11 16 15 100 0.333333
14 16 15 100 0.333312
15 16 15 100 2.09082e-05
1 17 15 100 0.000462218
6 17 15 100 0.00536022
11 17 15 100 0.614375
13 17 15 100 0.0464705
15 17 15 100 0.333333
12 18 15 100 1
13 19 15 100 1
0 20 15 100 2.46103e-05
14 20 15 100 0.999939
15 20 15 100 3.61384e-05
0 21 15 100 5.15268e-06
15 21 15 100 0.999995
1 1 16 100 0.5
2 1 16 100 0.5
2 2 16 100 0.5
3 2 16 100 0.5
0 3 16 100 0.000470457
3 3 16 100 0.99953
3 4 16 100 2.45024e-05
4 4 16 100 0.5
9 4 16 100 0.499976
4 5 16 100 0.5
5 5 16 100 0.5
4 6 16 100 0.5
6 6 16 100 0.5
5 7 16 100 0.5
7 7 16 100 0.5
6 8 16 100 0.5
8 8 16 100 0.5
6 9 16 100 0.5
9 9 16 100 0.5
7 10 16 100 0.5
10 10 16 100 0.5
8 11 16 100 0.5
11 11 16 100 0.5
8 12 16 100 0.5
11 12 16 100 0.5
9 13 16 100 0.500002
12 13 16 100 0.499998
4 14 16 100 4.53544e-05
12 14 16 100 0.999955
10 15 16 100 0.5
13 15 16 100 0.5
0 16 16 100 4.08018e-05
11 16 16 100 0.5
14 16 16 100 0.499915
15 16 16 100 4.37824e-05
12 17 16 100 0.500001
15 17 16 100 0.499999
12 18 16 100 1
8 19 16 100 0.00309808
14 19 16 100 0.996902
13 20 16 100 1
4 21 16 100 1.71021e-05
14 21 16 100 0.999983
0 22 16 100 6.95518e-05
15 22 16 100 0.999844
16 22 16 100 8.6543e-05
16 23 16 100 1
1 1 17 100 0.5
2 1 17 100 0.5
2 2 17 100 0.5
3 2 17 100 0.5
3 3 17 100 0.496927
4 3 17 100 0.503073
4 4 17 100 0.5
5 4 17 100 0.5
5 5 17 100 0.75
7 5 17 100 0.237021
8 5 17 100 0.0129792
6 6 17 100 0.75
8 6 17 100 0.000117166
9 6 17 100 0.249883
7 7 17 100 0.5
12 7 17 100 0.5
0 8 17 100 2.30006e-05
7 8 17 100 0.25
8 8 17 100 0.499977
10 8 17 100 0.25
7 9 17 100 0.244632
8 9 17 100 0.00536827
9 9 17 100 0.5
10 9 17 100 0.249886
11 9 17 100 0.000113319
0 10 17 100 1.19514e-05
8 10 17 100 0.249988
10 10 17 100 0.5
11 10 17 100 0.25
9 11 17 100 0.25
11 11 17 100 0.5
12 11 17 100 0.25
10 12 17 100 0.5
11 12 17 100 0.25
13 12 17 100 0.25
12 13 17 100 0.5
14 13 17 100 0.25
17 13 17 100 0.25
13 14 17 100 0.25
14 14 17 100 0.75
13 15 17 100 0.250003
14 15 17 100 0.249997
15 15 17 100 0.5
13 16 17 100 0.499999
15 16 17 100 0.500001
11 17 17 100 0.500001
14 17 17 100 0.25
16 17 17 100 0.249978
17 17 17 100 2.04338e-05
0 18 17 100 4.48037e-05
3 18 17 100 0.500001
16 18 17 100 0.249934
17 18 17 100 0.250021
3 19 17 100 0.333335
16 19 17 100 0.333333
17 19 17 100 0.333333
16 20 17 100 1
1 1 20 100 1
2 2 20 100 1
12 3 20 100 0.00184871
14 3 20 100 0.998151
3 4 20 100 1
5 5 20 100 1
8 6 20 100 1
4 7 20 100 1
6 8 20 100 1
6 9 20 100 1
7 10 20 100 1
8 11 20 100 1
9 12 20 100 1
10 13 20 100 1
11 14 20 100 0.987303
12 14 20 100 0.012697
13 15 20 100 1
15 16 20 100 0.980684
16 16 20 100 0.0193156
16 17 20 100 1
17 18 20 100 1
18 19 20 100 1
0 20 20 100 5.72963e-05
19 20 20 100 0.999859
20 20 20 100 8.41354e-05
20 21 20 100 1
1 1 21 100 0.0304835
2 1 21 100 0.969517
1 2 21 100 0.161717
2 2 21 100 0.611482
3 2 21 100 6.73376e-05
21 2 21 100 0.226733
0 3 21 100 0.361335
1 3 21 100 0.00232899
2 3 21 100 0.302387
4 3 21 100 0.33395
0 4 21 100 0.000340009
3 4 21 100 0.99966
4 5 21 100 0.666667
5 5 21 100 0.333333
0 6 21 100 0.000571235
1 6 21 100 0.000124832
4 6 21 100 0.336535
6 6 21 100 0.333334
21 6 21 100 0.329435
5 7 21 100 0.666667
7 7 21 100 0.333333
6 8 21 100 0.333333
7 8 21 100 0.666667
0 9 21 100 5.45186e-05
7 9 21 100 0.333333
8 9 21 100 0.333333
9 9 21 100 0.333279
10 10 21 100 0.666667
19 10 21 100 0.333333
6 11 21 100 0.333333
8 11 21 100 0.666667
7 12 21 100 0.333333
9 12 21 100 0.666667
10 13 21 100 0.66669
21 13 21 100 0.33331
11 14 21 100 1
0 15 21 100 0.00259548
3 15 21 100 2.21011e-05
10 15 21 100 0.333333
11 15 21 100 0.333333
13 15 21 100 0.0938894
14 15 21 100 0.236826
11 16 21 100 0.666666
15 16 21 100 0.332211
17 16 21 100 0.00112289
12 17 21 100 0.666667
17 17 21 100 0.333333
13 18 21 100 0.666667
18 18 21 100 0.333333
13 19 21 100 0.666667
19 19 21 100 0.333333
0 20 21 100 0.000127576
14 20 21 100 0.666667
19 20 21 100 0.332027
20 20 21 100 0.00117841
15 21 21 100 0.666667
20 21 21 100 0.333333
16 22 21 100 1
17 23 21 100 1
18 24 21 100 1
19 25 21 100 1
0 26 21 100 0.000348104
19 26 21 100 0.442681
20 26 21 100 0.556971
20 27 21 100 1
11 1 22 100 1
2 2 22 100 1
3 3 22 100 0.998221
4 3 22 100 0.0017792
5 4 22 100 1
6 5 22 100 1
7 6 22 100 1
8 7 22 100 1
9 8 22 100 1
10 9 22 100 1
11 10 22 100 1
0 11 22 100 0.0339587
1 11 22 100 0.000465161
22 11 22 100 0.965576
12 12 22 100 1
13 13 22 100 1
14 14 22 100 1
15 15 22 100 1
16 16 22 100 1
17 17 22 100 1
18 18 22 100 1
19 19 22 100 1
20 20 22 100 1
10 21 22 100 1
21 22 22 100 1
1 1 24 100 1
2 2 24 100 1
3 3 24 100 1
1 4 24 100 1
3 5 24 100 1
4 6 24 100 1
5 7 24 100 1
5 8 24 100 1
6 9 24 100 1
7 10 24 100 1
8 11 24 100 1
8 12 24 100 1
9 13 24 100 1
2 14 24 100 0.000283405
9 14 24 100 0.999717
10 15 24 100 1
10 16 24 100 1
11 17 24 100 1
12 18 24 100 1
13 19 24 100 1
14 20 24 100 1
15 21 24 100 1
16 22 24 100 1
17 23 24 100 1
19 24 24 100 1
21 25 24 100 1
20 26 24 100 1
21 27 24 100 1
22 28 24 100 1
0 29 24 100 8.62781e-05
23 29 24 100 0.999827
24 29 24 100 8.64575e-05
24 30 24 100 1
4 1 27 100 1
3 2 27 100 1
4 3 27 100 1
0 4 27 100 0.006783
1 4 27 100 0.200273
2 4 27 100 0.494972
3 4 27 100 1.53748e-05
27 4 27 100 0.297956
2 5 27 100 0.499992
5 5 27 100 0.5
26 5 27 100 7.94268e-06
0 6 27 100 6.60379e-05
5 6 27 100 0.5
24 6 27 100 0.499923
27 6 27 100 1.04141e-05
6 7 27 100 1
7 8 27 100 1
0 9 27 100 5.61858e-05
9 9 27 100 0.999901
27 9 27 100 4.30704e-05
7 10 27 100 0.5
8 10 27 100 0.5
8 11 27 100 0.5
9 11 27 100 0.5
10 12 27 100 1
10 13 27 100 0.5
11 13 27 100 0.5
12 14 27 100 0.500145
14 14 27 100 0.499855
11 15 27 100 1
12 16 27 100 0.5
13 16 27 100 0.5
13 17 27 100 0.5
15 17 27 100 0.5
0 18 27 100 0.0002034
13 18 27 100 0.499764
16 18 27 100 0.5
27 18 27 100 3.21622e-05
1 19 27 100 1.51261e-05
12 19 27 100 0.000142481
14 19 27 100 0.5
16 19 27 100 0.499842
14 20 27 100 0.5
25 20 27 100 0.5
16 21 27 100 1
17 22 27 100 1
18 23 27 100 1
1 24 27 100 0.00667222
2 24 27 100 1.9651e-05
16 24 27 100 5.95403e-06
18 24 27 100 0.488621
19 24 27 100 0.5
27 24 27 100 0.00468132
19 25 27 100 1
18 26 27 100 0.499916
21 26 27 100 0.500001
27 26 27 100 8.29421e-05
19 27 27 100 0.5
22 27 27 100 0.5
0 28 27 100 0.000369596
23 28 27 100 0.99963
20 29 27 100 0.5
24 29 27 100 0.5
20 30 27 100 1
0 31 27 100 0.499977
14 31 27 100 2.2785e-05
21 31 27 100 0.5
22 32 27 100 1
25 33 27 100 1
25 34 27 100 1
25 35 27 100 1
0 36 27 100 3.62104e-05
26 36 27 100 0.999964
2 1 28 100 1
1 2 28 100 1
0 3 28 100 0.00369685
8 3 28 100 0.996303
2 4 28 100 1
0 5 28 100 0.0044022
3 5 28 100 0.995598
4 6 28 100 1
5 7 28 100 1
0 8 28 100 2.74055e-05
5 8 28 100 0.999973
6 9 28 100 1
7 10 28 100 1
0 11 28 100 0.000515465
8 11 28 100 0.999485
9 12 28 100 1
7 13 28 100 1
0 14 28 100 0.00367227
8 14 28 100 0.996328
9 15 28 100 1
10 16 28 100 1
11 17 28 100 1
12 18 28 100 1
13 19 28 100 1
14 20 28 100 1
16 21 28 100 1
17 22 28 100 1
0 23 28 100 0.994663
8 23 28 100 0.0043149
18 23 28 100 0.00102255
18 24 28 100 1
0 25 28 100 0.0259912
3 25 28 100 2.92031e-05
28 25 28 100 0.97398
19 26 28 100 1
15 27 28 100 1
20 28 28 100 1
21 29 28 100 1
22 30 28 100 1
23 31 28 100 1
23 32 28 100 1
24 33 28 100 1
25 34 28 100 1
26 35 28 100 1
27 36 28 100 1
1 1 29 100 1
2 2 29 100 1
0 3 29 100 0.014069
8 3 29 100 0.985931
3 4 29 100 1
3 5 29 100 1
0 6 29 100 0.0736677
3 6 29 100 0.926332
4 7 29 100 1
5 8 29 100 1
7 9 29 100 1
0 10 29 100 7.96767e-05
8 10 29 100 0.99992
8 11 29 100 1
15 12 29 100 1
6 13 29 100 1
9 14 29 100 1
11 15 29 100 1
12 16 29 100 1
0 17 29 100 0.00385271
13 17 29 100 0.996147
12 18 29 100 1
13 19 29 100 0.999967
15 19 29 100 3.32427e-05
13 20 29 100 1
14 21 29 100 1
15 22 29 100 1
16 23 29 100 1
0 24 29 100 0.988865
8 24 29 100 0.0101013
13 24 29 100 0.00103369
17 25 29 100 1
18 26 29 100 1
19 27 29 100 1
20 28 29 100 1
21 29 29 100 1
10 30 29 100 1
22 31 29 100 1
23 32 29 100 1
24 33 29 100 1
25 34 29 100 1
26 35 29 100 1
27 36 29 100 1
0 37 29 100 4.61069e-05
28 37 29 100 0.999876
29 37 29 100 7.82908e-05
29 38 29 100 1
2 1 30 100 1
3 2 30 100 1
0 3 30 100 0.00046477
8 3 30 100 0.999535
4 4 30 100 1
5 5 30 100 1
6 6 30 100 1
7 7 30 100 1
9 8 30 100 1
9 9 30 100 1
10 10 30 100 1
11 11 30 100 1
27 12 30 100 1
12 13 30 100 1
12 14 30 100 1
15 15 30 100 1
13 16 30 100 1
16 17 30 100 1
17 18 30 100 1
22 19 30 100 1
23 20 30 100 1
14 21 30 100 1
19 22 30 100 1
20 23 30 100 1
20 24 30 100 1
21 25 30 100 1
22 26 30 100 1
23 27 30 100 1
24 28 30 100 1
1 29 30 100 0.497649
5 29 30 100 0.000415891
17 29 30 100 0.00030223
25 29 30 100 0.00349607
30 29 30 100 0.498137
25 30 30 100 1
26 31 30 100 1
28 32 30 100 1
28 33 30 100 1
28 34 30 100 1
29 35 30 100 1
3 1 33 100 1
5 2 33 100 1
2 3 33 100 1
6 4 33 100 1
6 5 33 100 1
7 6 33 100 1
9 7 33 100 1
10 8 33 100 1
11 9 33 100 1
0 10 33 100 0.000614875
1 10 33 100 0.999385
12 11 33 100 1
13 12 33 100 1
14 13 33 100 1
31 14 33 100 1
22 15 33 100 1
23 16 33 100 1
24 17 33 100 1
16 18 33 100 1
17 19 33 100 1
0 20 33 100 4.41032e-05
4 20 33 100 0.999956
18 21 33 100 1
19 22 33 100 1
20 23 33 100 1
0 24 33 100 0.00268378
4 24 33 100 0.997316
29 25 33 100 1
29 26 33 100 1
30 27 33 100 1
31 28 33 100 1
22 29 33 100 1
23 30 33 100 1
24 31 33 100 1
25 32 33 100 1
26 33 33 100 1
0 34 33 100 0.12555
4 34 33 100 0.87445
27 35 33 100 1
28 36 33 100 1
29 37 33 100 1
33 38 33 100 1
30 39 33 100 1
15 40 33 100 1
8 41 33 100 1
30 42 33 100 1
0 43 33 100 0.058383
24 43 33 100 0.000102525
31 43 33 100 0.898129
32 43 33 100 0.0433853
32 44 33 100 1
