1 0 100 6 0.999363
5 0 100 6 0.000637283
1 1 100 6 1.14689e-05
6 1 100 6 0.999989
1 2 100 6 0.000407252
2 2 100 6 0.704802
5 2 100 6 0.29479
2 3 100 6 0.0111806
4 3 100 6 0.640936
5 3 100 6 0.347884
1 4 100 6 2.82123e-05
3 4 100 6 0.95634
5 4 100 6 0.0436321
1 5 100 6 1
1 6 100 6 1
6 0 100 7 1
1 1 100 7 0.667536
2 1 100 7 0.332464
1 2 100 7 0.198743
2 2 100 7 0.400628
3 2 100 7 0.200314
4 2 100 7 0.200314
3 3 100 7 0.333333
4 3 100 7 0.333333
5 3 100 7 0.333333
3 4 100 7 0.2
4 4 100 7 0.199999
5 4 100 7 0.4
6 4 100 7 0.2
6 5 100 7 0.666642
7 5 100 7 0.333358
6 6 100 7 9.12413e-05
7 6 100 7 0.999909
2 0 100 8 0.640066
6 0 100 8 0.170933
7 0 100 8 0.189001
1 1 100 8 0.666684
2 1 100 8 0.333316
2 2 100 8 0.285717
3 2 100 8 0.285708
4 2 100 8 0.285717
8 2 100 8 0.142858
3 3 100 8 0.4
5 3 100 8 0.4
6 3 100 8 0.2
3 4 100 8 1.16626e-05
4 4 100 8 0.399995
5 4 100 8 0.199998
7 4 100 8 0.399995
5 5 100 8 0.200002
6 5 100 8 0.599997
8 5 100 8 0.200001
7 6 100 8 1
7 7 100 8 9.06758e-05
8 7 100 8 0.999909
4 0 100 9 0.997563
8 0 100 9 0.0024375
1 1 100 9 1
2 2 100 9 1
3 3 100 9 0.545547
4 3 100 9 0.272603
6 3 100 9 0.0909253
8 3 100 9 0.090925
3 4 100 9 0.111214
4 4 100 9 0.443908
5 4 100 9 0.444878
5 5 100 9 0.210818
6 5 100 9 0.36749
7 5 100 9 0.35141
8 5 100 9 0.070282
6 6 100 9 0.0994294
7 6 100 9 0.257855
8 6 100 9 0.513789
9 6 100 9 0.128927
8 7 100 9 0.202362
9 7 100 9 0.797638
8 8 100 9 3.46973e-05
9 8 100 9 0.999965
3 0 100 10 0.00646469
5 0 100 10 0.0028223
6 0 100 10 0.229628
7 0 100 10 0.701262
9 0 100 10 0.0563345
10 0 100 10 0.00348801
1 1 100 10 0.88889
2 1 100 10 0.11111
1 2 100 10 0.0833314
2 2 100 10 0.58338
3 2 100 10 0.249948
4 2 100 10 0.08334
3 3 100 10 0.399962
4 3 100 10 0.266681
5 3 100 10 0.133343
6 3 100 10 0.0666715
8 3 100 10 0.133343
3 4 100 10 8.85167e-05
4 4 100 10 0.37586
5 4 100 10 0.375824
7 4 100 10 0.178504
9 4 100 10 0.0697232
2 5 100 10 0.065724
5 5 100 10 0.197172
6 5 100 10 0.457909
7 5 100 10 0.065724
8 5 100 10 0.065724
9 5 100 10 0.0820232
10 5 100 10 0.0657237
6 6 100 10 0.100148
7 6 100 10 0.498959
8 6 100 10 0.200296
9 6 100 10 0.10045
10 6 100 10 0.100146
7 7 100 10 0.112882
8 7 100 10 0.443636
9 7 100 10 0.332573
10 7 100 10 0.110909
9 8 100 10 0.500013
10 8 100 10 0.499987
9 9 100 10 5.96407e-05
10 9 100 10 0.99994
4 10 100 10 1
3 0 100 11 1
1 1 100 11 0.666741
2 1 100 11 0.333259
2 2 100 11 0.499958
4 2 100 11 0.500042
3 3 100 11 0.49898
5 3 100 11 0.50102
4 4 100 11 0.333296
6 4 100 11 0.333352
7 4 100 11 0.333352
6 5 100 11 0.333333
8 5 100 11 0.666667
7 6 100 11 0.333333
9 6 100 11 0.666667
2 7 100 11 0.00016798
10 7 100 11 0.999832
11 8 100 11 1
11 0 100 12 0.428915
12 0 100 12 0.571085
1 1 100 12 1
2 2 100 12 0.8
3 2 100 12 0.2
2 3 100 12 0.142857
3 3 100 12 0.428571
4 3 100 12 0.142857
6 3 100 12 0.142857
8 3 100 12 0.142857
3 4 100 12 0.142957
4 4 100 12 0.428872
5 4 100 12 0.142255
7 4 100 12 0.142957
9 4 100 12 0.142957
4 5 100 12 0.124931
5 5 100 12 0.364702
6 5 100 12 0.374792
7 5 100 12 0.0106445
10 5 100 12 0.124931
5 6 100 12 0.0122496
7 6 100 12 0.559754
8 6 100 12 0.142122
9 6 100 12 0.142984
11 6 100 12 0.142891
8 7 100 12 0.249987
9 7 100 12 0.249987
10 7 100 12 0.37498
11 7 100 12 5.33721e-05
12 7 100 12 0.124993
8 8 100 12 0.168459
10 8 100 12 0.167449
11 8 100 12 0.499921
12 8 100 12 0.164171
9 9 100 12 0.333347
11 9 100 12 0.333307
12 9 100 12 0.333346
5 10 100 12 0.499979
11 10 100 12 4.40652e-05
12 10 100 12 0.499977
6 11 100 12 1
12 12 100 12 1
3 0 100 13 0.000213371
7 0 100 13 0.974752
8 0 100 13 0.00639941
10 0 100 13 0.0168448
12 0 100 13 0.00119363
13 0 100 13 0.000596836
1 1 100 13 0.571118
2 1 100 13 0.285559
3 1 100 13 0.143324
1 2 100 13 0.166667
2 2 100 13 0.333333
4 2 100 13 0.5
2 3 100 13 0.199994
3 3 100 13 0.199992
5 3 100 13 0.599983
8 3 100 13 1.21982e-05
9 3 100 13 1.80876e-05
3 4 100 13 0.333333
4 4 100 13 0.166667
5 4 100 13 0.166667
6 4 100 13 0.333333
3 5 100 13 0.142363
4 5 100 13 0.142937
5 5 100 13 0.142937
6 5 100 13 0.285875
8 5 100 13 1.35916e-05
10 5 100 13 0.285875
6 6 100 13 0.0919226
7 6 100 13 0.35655
8 6 100 13 0.0919225
9 6 100 13 0.275759
11 6 100 13 0.183845
8 7 100 13 0.400333
9 7 100 13 0.100252
10 7 100 13 0.198671
11 7 100 13 0.100252
12 7 100 13 0.200493
9 8 100 13 0.167159
10 8 100 13 0.000166044
11 8 100 13 0.167159
12 8 100 13 0.331204
13 8 100 13 0.334311
10 9 100 13 0.3314
12 9 100 13 0.0058025
13 9 100 13 0.662797
7 10 100 13 0.00117159
11 10 100 13 0.998828
12 11 100 13 1
13 12 100 13 1
7 13 100 13 1
2 0 100 14 0.000681867
3 0 100 14 0.138798
4 0 100 14 0.000698877
6 0 100 14 0.0618972
7 0 100 14 0.00898591
8 0 100 14 0.0202315
10 0 100 14 0.0206266
13 0 100 14 0.240922
14 0 100 14 0.507159
1 1 100 14 0.9
3 1 100 14 0.1
2 2 100 14 0.563446
3 2 100 14 0.373924
4 2 100 14 0.0626284
9 2 100 14 1.11797e-06
2 3 100 14 0.00037285
3 3 100 14 0.252008
4 3 100 14 0.623014
5 3 100 14 0.124604
10 3 100 14 1.69868e-06
4 4 100 14 0.25
5 4 100 14 0.5
6 4 100 14 0.0833333
7 4 100 14 0.0833333
8 4 100 14 0.0833333
5 5 100 14 0.142904
6 5 100 14 0.49994
7 5 100 14 0.142872
8 5 100 14 0.0713794
9 5 100 14 0.142904
6 6 100 14 0.0624136
7 6 100 14 0.249649
8 6 100 14 0.313202
9 6 100 14 0.0626746
10 6 100 14 0.124824
11 6 100 14 0.187237
2 7 100 14 2.23255e-05
8 7 100 14 0.141776
9 7 100 14 0.357408
10 7 100 14 0.071542
11 7 100 14 0.143084
12 7 100 14 0.286168
7 8 100 14 0.125313
9 8 100 14 0.0626564
10 8 100 14 0.375795
11 8 100 14 0.187969
12 8 100 14 0.0626564
13 8 100 14 0.124555
14 8 100 14 0.0610557
10 9 100 14 0.000135515
11 9 100 14 0.111098
12 9 100 14 0.444392
13 9 100 14 0.333277
14 9 100 14 0.111098
13 10 100 14 0.571426
14 10 100 14 0.428574
13 11 100 14 4.3427e-05
14 11 100 14 0.999957
2 0 100 15 0.00196761
3 0 100 15 0.00203814
4 0 100 15 0.106238
6 0 100 15 0.017913
7 0 100 15 0.001515
8 0 100 15 5.63083e-05
9 0 100 15 0.00335033
10 0 100 15 0.863514
11 0 100 15 0.000185203
12 0 100 15 0.00128347
14 0 100 15 0.00192639
15 0 100 15 1.27912e-05
1 1 100 15 0.999999
12 1 100 15 1.32201e-06
1 2 100 15 0.119341
2 2 100 15 0.770547
4 2 100 15 0.110112
2 3 100 15 0.166867
3 3 100 15 0.415956
4 3 100 15 0.250306
5 3 100 15 0.0834354
7 3 100 15 0.0834354
3 4 100 15 0.311194
4 4 100 15 0.145891
5 4 100 15 0.232678
6 4 100 15 0.232678
7 4 100 15 0.0775592
4 5 100 15 0.214861
5 5 100 15 0.143241
6 5 100 15 0.212136
7 5 100 15 0.0716615
8 5 100 15 0.214861
9 5 100 15 0.143241
5 6 100 15 0.142877
6 6 100 15 0.0714383
7 6 100 15 0.214194
8 6 100 15 0.0714383
9 6 100 15 0.142877
10 6 100 15 0.142877
11 6 100 15 0.142876
12 6 100 15 0.0714239
5 7 100 15 0.0663134
6 7 100 15 0.133937
7 7 100 15 0.133937
8 7 100 15 0.133937
9 7 100 15 0.0669684
10 7 100 15 0.0694014
11 7 100 15 0.133937
12 7 100 15 0.194601
13 7 100 15 0.0669684
5 8 100 15 0.000810155
8 8 100 15 0.165664
9 8 100 15 2.65476e-05
10 8 100 15 0.248514
11 8 100 15 0.248505
12 8 100 15 0.00781963
13 8 100 15 0.245839
14 8 100 15 0.0828214
6 9 100 15 0.00149997
7 9 100 15 0.0833338
9 9 100 15 0.249806
10 9 100 15 0.0830941
11 9 100 15 0.0833644
12 9 100 15 0.162704
13 9 100 15 0.00268274
14 9 100 15 0.250133
15 9 100 15 0.0833814
8 10 100 15 0.090522
9 10 100 15 0.0904969
12 10 100 15 0.185313
13 10 100 15 0.271566
14 10 100 15 0.0905369
15 10 100 15 0.271565
3 11 100 15 2.66398e-06
9 11 100 15 4.61805e-05
10 11 100 15 0.16681
13 11 100 15 0.166822
14 11 100 15 0.4995
15 11 100 15 0.166819
10 12 100 15 1.71645e-05
11 12 100 15 0.249662
14 12 100 15 0.00132847
15 12 100 15 0.748993
12 13 100 15 1
13 14 100 15 0.500445
14 14 100 15 0.499555
14 15 100 15 0.000210961
15 15 100 15 0.999789
3 0 100 16 0.636202
5 0 100 16 0.00754296
6 0 100 16 0.0345121
8 0 100 16 0.281782
12 0 100 16 0.0288369
15 0 100 16 0.0111243
1 1 100 16 0.74977
2 1 100 16 0.25023
1 2 100 16 0.243629
2 2 100 16 0.656944
3 2 100 16 0.0994231
7 2 100 16 3.77217e-06
2 3 100 16 0.0915266
3 3 100 16 0.605643
6 3 100 16 0.302827
8 3 100 16 3.17815e-06
3 4 100 16 0.200001
4 4 100 16 0.600002
7 4 100 16 0.199998
4 5 100 16 0.195801
5 5 100 16 0.783199
6 5 100 16 0.0209922
8 5 100 16 8.1166e-06
6 6 100 16 0.490881
7 6 100 16 0.339413
8 6 100 16 0.169706
8 7 100 16 0.333174
9 7 100 16 0.166772
10 7 100 16 0.333369
13 7 100 16 0.166685
7 8 100 16 0.0909134
9 8 100 16 0.272693
10 8 100 16 0.0909134
11 8 100 16 0.27274
13 8 100 16 0.0909134
14 8 100 16 0.181827
8 9 100 16 0.2
10 9 100 16 0.2
12 9 100 16 0.4
15 9 100 16 0.2
3 10 100 16 0.128432
11 10 100 16 0.217898
12 10 100 16 0.435772
15 10 100 16 0.217898
13 11 100 16 0.500001
16 11 100 16 0.499999
2 12 100 16 1.51274e-05
6 12 100 16 3.9293e-05
14 12 100 16 0.66663
15 12 100 16 0.333315
15 13 100 16 0.499968
16 13 100 16 0.500032
15 14 100 16 8.76764e-05
16 14 100 16 0.999912
2 0 100 17 0.0212859
3 0 100 17 0.106966
5 0 100 17 0.000597273
7 0 100 17 0.000161864
9 0 100 17 0.203924
11 0 100 17 0.654357
16 0 100 17 0.0126971
17 0 100 17 1.0559e-05
1 1 100 17 1
1 2 100 17 0.111501
2 2 100 17 0.665376
3 2 100 17 0.223003
9 2 100 17 0.000120344
2 3 100 17 0.101663
3 3 100 17 0.491694
4 3 100 17 0.30498
5 3 100 17 0.101663
4 4 100 17 0.361136
5 4 100 17 0.36104
6 4 100 17 0.180565
7 4 100 17 0.0972524
11 4 100 17 7.08343e-06
5 5 100 17 0.183113
6 5 100 17 0.27466
7 5 100 17 0.267569
8 5 100 17 0.274659
2 6 100 17 5.0964e-06
6 6 100 17 0.23022
8 6 100 17 0.345331
9 6 100 17 0.194223
10 6 100 17 0.11511
11 6 100 17 0.11511
7 7 100 17 0.111104
9 7 100 17 0.333312
10 7 100 17 0.111104
11 7 100 17 6.38123e-05
12 7 100 17 0.222208
13 7 100 17 0.111103
14 7 100 17 0.111104
7 8 100 17 0.199998
8 8 100 17 0.0999991
9 8 100 17 0.0999991
10 8 100 17 0.0999991
11 8 100 17 0.200006
13 8 100 17 0.1
14 8 100 17 0.0999991
15 8 100 17 0.0999991
9 9 100 17 0.100064
10 9 100 17 0.300191
12 9 100 17 0.200128
13 9 100 17 0.100064
15 9 100 17 0.100064
16 9 100 17 0.19949
10 10 100 17 0.0999886
11 10 100 17 0.199904
12 10 100 17 0.199551
13 10 100 17 0.0999886
14 10 100 17 0.199977
16 10 100 17 0.000614408
17 10 100 17 0.199976
11 11 100 17 0.14277
12 11 100 17 0.143378
13 11 100 17 0.285541
14 11 100 17 0.14277
15 11 100 17 0.285541
13 12 100 17 0.129934
14 12 100 17 0.25987
15 12 100 17 0.22313
16 12 100 17 0.387066
15 13 100 17 0.29938
16 13 100 17 0.000463892
17 13 100 17 0.700156
16 14 100 17 1
16 15 100 17 7.51394e-05
17 15 100 17 0.999925
2 0 100 18 0.579293
5 0 100 18 0.00123155
7 0 100 18 0.00137726
11 0 100 18 0.1442
17 0 100 18 0.0994442
18 0 100 18 0.174454
1 1 100 18 0.999459
7 1 100 18 0.000535924
11 1 100 18 5.35018e-06
1 2 100 18 0.1698
2 2 100 18 0.4906
3 2 100 18 0.1698
4 2 100 18 0.1698
2 3 100 18 0.286216
3 3 100 18 0.570675
4 3 100 18 0.143109
3 4 100 18 0.00306339
4 4 100 18 0.498455
5 4 100 18 0.249228
7 4 100 18 0.249244
17 4 100 18 9.85899e-06
4 5 100 18 0.200009
5 5 100 18 0.599981
6 5 100 18 0.200009
6 6 100 18 0.600008
7 6 100 18 0.19999
9 6 100 18 0.200003
5 7 100 18 0.159458
7 7 100 18 0.335974
8 7 100 18 0.336379
10 7 100 18 0.168189
5 8 100 18 0.00644738
6 8 100 18 5.82019e-05
8 8 100 18 0.124187
9 8 100 18 0.248374
10 8 100 18 0.124187
11 8 100 18 0.248374
13 8 100 18 0.124187
14 8 100 18 0.124187
6 9 100 18 0.111099
8 9 100 18 0.111151
9 9 100 18 0.111151
10 9 100 18 0.222302
12 9 100 18 0.222302
13 9 100 18 0.111151
15 9 100 18 0.110845
8 10 100 18 0.0911349
9 10 100 18 0.0910935
11 10 100 18 0.179756
12 10 100 18 0.18227
13 10 100 18 0.0911349
14 10 100 18 0.0911349
15 10 100 18 0.0913856
16 10 100 18 0.0911349
17 10 100 18 0.0909554
9 11 100 18 5.66553e-05
10 11 100 18 0.12499
13 11 100 18 0.12499
14 11 100 18 0.12499
15 11 100 18 0.249981
16 11 100 18 0.12499
17 11 100 18 0.125011
18 11 100 18 0.124989
7 12 100 18 0.166667
11 12 100 18 0.166667
14 12 100 18 0.166667
16 12 100 18 0.333334
18 12 100 18 0.166664
12 13 100 18 0.253206
17 13 100 18 0.502025
18 13 100 18 0.244769
13 14 100 18 0.333324
14 14 100 18 0.333324
17 14 100 18 2.83378e-05
18 14 100 18 0.333323
15 15 100 18 0.5
16 15 100 18 0.5
17 16 100 18 1
17 17 100 18 8.17288e-05
18 17 100 18 0.999918
2 0 100 19 0.0229776
3 0 100 19 0.00233649
6 0 100 19 0.95865
8 0 100 19 5.14864e-05
9 0 100 19 0.000153782
12 0 100 19 0.00428509
16 0 100 19 0.0114233
18 0 100 19 0.000122472
1 1 100 19 1
1 2 100 19 0.201655
2 2 100 19 0.596681
3 2 100 19 0.201655
12 2 100 19 8.73209e-06
2 3 100 19 0.138215
3 3 100 19 0.275853
4 3 100 19 0.138215
5 3 100 19 0.27643
6 3 100 19 0.0330722
18 3 100 19 0.138215
3 4 100 19 0.165356
4 4 100 19 0.496067
6 4 100 19 0.00786595
7 4 100 19 0.330711
5 5 100 19 0.400016
8 5 100 19 0.200008
9 5 100 19 0.399961
18 5 100 19 1.55258e-05
6 6 100 19 0.4
8 6 100 19 0.2
10 6 100 19 0.2
11 6 100 19 0.2
7 7 100 19 0.4
10 7 100 19 0.2
12 7 100 19 0.2
15 7 100 19 0.2
8 8 100 19 0.222214
11 8 100 19 0.111112
13 8 100 19 0.222225
14 8 100 19 0.222225
16 8 100 19 0.111112
17 8 100 19 0.111112
2 9 100 19 5.27827e-06
9 9 100 19 0.400623
12 9 100 19 0.198769
15 9 100 19 0.200312
18 9 100 19 0.20029
6 10 100 19 1.55473e-05
10 10 100 19 0.286546
12 10 100 19 0.143273
16 10 100 19 0.140348
17 10 100 19 0.143273
18 10 100 19 0.143271
19 10 100 19 0.143273
11 11 100 19 0.400001
12 11 100 19 0.2
17 11 100 19 0.2
19 11 100 19 0.199999
13 12 100 19 1
14 13 100 19 0.499998
15 13 100 19 5.29977e-06
16 13 100 19 0.499996
14 14 100 19 0.333335
15 14 100 19 0.333331
17 14 100 19 0.333335
15 15 100 19 0.5
16 15 100 19 0.5
18 16 100 19 0.499935
19 16 100 19 0.500065
18 17 100 19 8.72732e-05
19 17 100 19 0.999913
2 0 100 20 2.02705e-05
3 0 100 20 0.000525164
5 0 100 20 3.40288e-05
6 0 100 20 0.310711
7 0 100 20 0.00223444
9 0 100 20 0.000106969
10 0 100 20 1.48538e-05
12 0 100 20 0.311624
13 0 100 20 0.310625
14 0 100 20 0.0178315
15 0 100 20 3.53811e-05
19 0 100 20 0.0304248
20 0 100 20 0.0158122
1 1 100 20 0.857148
2 1 100 20 0.142853
1 2 100 20 0.100016
2 2 100 20 0.400062
3 2 100 20 0.399908
4 2 100 20 0.100014
2 3 100 20 0.181819
3 3 100 20 0.181807
4 3 100 20 0.272729
5 3 100 20 0.181819
9 3 100 20 1.40885e-06
10 3 100 20 5.35812e-06
18 3 100 20 0.0909094
19 3 100 20 0.0909094
3 4 100 20 0.0909693
4 4 100 20 0.181939
5 4 100 20 0.0909593
6 4 100 20 0.363877
7 4 100 20 0.181284
8 4 100 20 0.0909693
19 4 100 20 2.00789e-06
4 5 100 20 0.0999984
5 5 100 20 0.399994
7 5 100 20 0.199997
9 5 100 20 0.0999984
10 5 100 20 0.0999984
11 5 100 20 0.0999984
12 5 100 20 1.56455e-05
6 6 100 20 0.181818
7 6 100 20 0.0909048
8 6 100 20 0.272727
11 6 100 20 0.181818
13 6 100 20 0.0909128
15 6 100 20 0.0909092
17 6 100 20 0.0909092
7 7 100 20 0.0770603
8 7 100 20 0.154113
9 7 100 20 0.306544
10 7 100 20 0.154113
12 7 100 20 0.154056
14 7 100 20 0.0770566
16 7 100 20 0.0770566
8 8 100 20 0.0831849
9 8 100 20 0.0849712
10 8 100 20 0.249546
11 8 100 20 0.16637
13 8 100 20 0.16637
14 8 100 20 0.0831849
15 8 100 20 0.0831848
16 8 100 20 0.0831849
19 8 100 20 3.70626e-06
10 9 100 20 0.0717345
11 9 100 20 0.143469
12 9 100 20 0.143311
13 9 100 20 0.0717345
14 9 100 20 0.211087
15 9 100 20 0.215195
17 9 100 20 0.0717345
18 9 100 20 0.0717345
9 10 100 20 0.0842083
12 10 100 20 0.168403
13 10 100 20 0.0842282
14 10 100 20 0.0842083
16 10 100 20 0.168417
17 10 100 20 0.0842083
18 10 100 20 0.0842083
19 10 100 20 0.16082
20 10 100 20 0.081299
15 11 100 20 0.125
16 11 100 20 0.125
17 11 100 20 0.375
18 11 100 20 0.25
20 11 100 20 0.124999
7 12 100 20 0.14335
16 12 100 20 0.14335
18 12 100 20 0.14335
19 12 100 20 0.428942
20 12 100 20 0.141007
15 13 100 20 0.142858
16 13 100 20 0.142858
17 13 100 20 0.142858
18 13 100 20 0.142858
19 13 100 20 0.142852
20 13 100 20 0.285715
14 14 100 20 0.500002
20 14 100 20 0.499998
15 15 100 20 1
20 16 100 20 1
13 17 100 20 1
3 0 100 21 0.172668
4 0 100 21 0.000826267
8 0 100 21 0.814332
9 0 100 21 0.000132487
13 0 100 21 0.000218761
15 0 100 21 0.00630737
17 0 100 21 0.00509682
20 0 100 21 0.000409056
21 0 100 21 8.34778e-06
1 1 100 21 0.999661
17 1 100 21 0.0003388
1 2 100 21 0.13151
2 2 100 21 0.723738
4 2 100 21 0.144748
6 2 100 21 3.7805e-06
3 3 100 21 0.229493
4 3 100 21 0.256753
5 3 100 21 0.128442
8 3 100 21 4.08119e-06
9 3 100 21 0.12898
10 3 100 21 0.256319
15 3 100 21 8.51613e-06
3 4 100 21 0.33232
4 4 100 21 0.16616
6 4 100 21 0.16616
7 4 100 21 0.169201
11 4 100 21 0.166159
3 5 100 21 1.23233e-05
4 5 100 21 0.125285
5 5 100 21 0.501141
6 5 100 21 0.125285
7 5 100 21 0.248276
6 6 100 21 0.285056
7 6 100 21 0.142532
8 6 100 21 0.28506
9 6 100 21 0.28506
17 6 100 21 0.00229197
7 7 100 21 0.100073
8 7 100 21 0.199424
9 7 100 21 0.0996536
10 7 100 21 0.200586
11 7 100 21 0.100073
12 7 100 21 0.200145
13 7 100 21 0.100046
6 8 100 21 0.142857
11 8 100 21 0.428571
12 8 100 21 0.285714
14 8 100 21 0.142857
9 9 100 21 0.199974
12 9 100 21 0.200007
13 9 100 21 0.400013
15 9 100 21 0.200007
10 10 100 21 0.166665
13 10 100 21 0.166676
14 10 100 21 0.333329
16 10 100 21 0.333329
8 11 100 21 0.00021273
14 11 100 21 0.225167
15 11 100 21 0.226606
16 11 100 21 0.113303
17 11 100 21 0.321421
18 11 100 21 0.113291
3 12 100 21 0.000613242
14 12 100 21 0.00421175
18 12 100 21 0.663462
19 12 100 21 0.331713
15 13 100 21 0.289905
17 13 100 21 0.0315339
19 13 100 21 0.452386
20 13 100 21 0.226175
3 14 100 21 0.211986
15 14 100 21 0.150891
20 14 100 21 0.424746
21 14 100 21 0.212378
16 15 100 21 0.497141
20 15 100 21 1.8172e-05
21 15 100 21 0.502841
16 16 100 21 0.0189496
17 16 100 21 0.98105
16 17 100 21 0.0016815
17 17 100 21 0.499159
18 17 100 21 0.499159
18 18 100 21 0.5
19 18 100 21 0.5
19 19 100 21 0.333785
20 19 100 21 0.666215
20 20 100 21 0.00180642
21 20 100 21 0.998194
13 21 100 21 1
4 0 100 22 0.000505085
11 0 100 22 0.0328179
17 0 100 22 0.966406
21 0 100 22 0.000271204
1 1 100 22 0.999535
11 1 100 22 0.000464945
2 2 100 22 1
3 3 100 22 1
3 4 100 22 0.0017755
5 4 100 22 0.997919
10 4 100 22 0.000305038
4 5 100 22 0.666357
6 5 100 22 0.333266
7 5 100 22 0.00037668
5 6 100 22 0.333459
7 6 100 22 0.333082
9 6 100 22 0.333459
6 7 100 22 0.250019
8 7 100 22 0.250019
10 7 100 22 0.249943
11 7 100 22 0.250019
7 8 100 22 0.5
12 8 100 22 0.5
8 9 100 22 0.5
13 9 100 22 0.5
9 10 100 22 0.25
14 10 100 22 0.25
16 10 100 22 0.25
21 10 100 22 0.25
1 11 100 22 0.25
10 11 100 22 0.25
15 11 100 22 0.25
18 11 100 22 0.25
12 12 100 22 0.5
19 12 100 22 0.5
13 13 100 22 0.334004
20 13 100 22 0.334004
21 13 100 22 0.331991
14 14 100 22 0.498568
21 14 100 22 0.00286516
22 14 100 22 0.498567
15 15 100 22 1
16 16 100 22 1
17 17 100 22 1
18 18 100 22 1
19 19 100 22 1
20 20 100 22 1
22 21 100 22 1
11 22 100 22 1
3 0 100 23 0.931168
22 0 100 23 0.0688315
1 1 100 23 1
2 2 100 23 1
3 3 100 23 0.999951
4 3 100 23 4.90485e-05
5 4 100 23 0.499973
6 4 100 23 0.499973
14 4 100 23 4.5352e-05
21 4 100 23 8.5506e-06
7 5 100 23 1
8 6 100 23 0.5
9 6 100 23 0.5
10 7 100 23 1
11 8 100 23 0.499227
12 8 100 23 0.499227
19 8 100 23 0.00154664
4 9 100 23 0.499988
13 9 100 23 0.500012
15 10 100 23 1
16 11 100 23 1
14 12 100 23 0.333313
17 12 100 23 0.333343
18 12 100 23 0.333343
20 13 100 23 1
19 14 100 23 0.499228
21 14 100 23 0.500772
22 15 100 23 1
22 16 100 23 8.65361e-05
23 16 100 23 0.999914
6 0 100 24 0.0178495
10 0 100 24 6.84683e-05
11 0 100 24 0.489809
19 0 100 24 0.491712
23 0 100 24 0.000276678
24 0 100 24 0.000285183
1 1 100 24 0.4
2 1 100 24 0.4
3 1 100 24 0.2
4 2 100 24 0.418866
5 2 100 24 0.418866
6 2 100 24 0.162268
3 3 100 24 0.333333
6 3 100 24 0.333333
7 3 100 24 0.333333
6 4 100 24 0.0862954
8 4 100 24 0.913705
7 5 100 24 0.19991
9 5 100 24 0.39982
10 5 100 24 0.19991
11 5 100 24 0.200361
12 6 100 24 1
10 7 100 24 0.499964
13 7 100 24 0.500036
13 8 100 24 0.333333
14 8 100 24 0.333333
16 8 100 24 0.333333
14 9 100 24 0.2
15 9 100 24 0.399999
17 9 100 24 0.4
16 10 100 24 0.333338
18 10 100 24 0.666662
18 11 100 24 1.33859e-05
20 11 100 24 0.666658
21 11 100 24 0.333329
19 12 100 24 0.25
21 12 100 24 0.25
22 12 100 24 0.5
11 13 100 24 0.000320261
23 13 100 24 0.99968
11 14 100 24 0.000486816
23 14 100 24 3.34622e-05
24 14 100 24 0.99948
3 0 100 26 1
2 1 100 26 0.957427
3 1 100 26 0.0404071
6 1 100 26 0.00216578
1 2 100 26 0.36475
2 2 100 26 0.304364
3 2 100 26 0.330886
4 3 100 26 1
5 4 100 26 0.988806
6 4 100 26 0.0111942
7 5 100 26 1
11 6 100 26 1
8 7 100 26 1
9 8 100 26 1
12 9 100 26 1
13 10 100 26 1
14 11 100 26 0.333333
15 11 100 26 0.333333
16 11 100 26 0.333333
17 12 100 26 1
18 13 100 26 0.5
19 13 100 26 0.5
20 14 100 26 1
21 15 100 26 1
22 16 100 26 1
23 17 100 26 1
24 18 100 26 1
10 19 100 26 0.5
25 19 100 26 0.5
26 20 100 26 1
6 21 100 26 1
3 0 100 27 0.997591
6 0 100 27 0.00171274
26 0 100 27 0.000695817
2 1 100 27 1
1 2 100 27 1
2 3 100 27 0.000201972
4 3 100 27 0.999798
3 4 100 27 0.000924259
5 4 100 27 0.499967
6 4 100 27 0.499109
7 5 100 27 1
8 6 100 27 1
9 7 100 27 1
11 8 100 27 1
12 9 100 27 1
10 10 100 27 0.333333
13 10 100 27 0.333333
15 10 100 27 0.333333
14 11 100 27 0.500002
16 11 100 27 0.499998
17 12 100 27 1
18 13 100 27 0.5
19 13 100 27 0.5
20 14 100 27 1
21 15 100 27 1
22 16 100 27 1
23 17 100 27 1
24 18 100 27 1
25 19 100 27 0.530403
26 19 100 27 0.469597
26 20 100 27 0.102286
27 20 100 27 0.897714
2 21 100 27 1
29 0 100 30 1
1 1 100 30 0.5
4 1 100 30 0.5
2 2 100 30 0.999717
14 2 100 30 0.000283325
3 3 100 30 0.5
5 3 100 30 0.5
6 4 100 30 1
7 5 100 30 0.5
8 5 100 30 0.5
9 6 100 30 1
10 7 100 30 1
11 8 100 30 0.5
12 8 100 30 0.5
13 9 100 30 0.500071
14 9 100 30 0.499929
15 10 100 30 0.5
16 10 100 30 0.5
17 11 100 30 1
18 12 100 30 1
19 13 100 30 1
20 14 100 30 1
21 15 100 30 1
22 16 100 30 1
23 17 100 30 1
23 18 100 30 1
24 19 100 30 1
26 20 100 30 1
25 21 100 30 0.500002
27 21 100 30 0.499998
28 22 100 30 1
29 23 100 30 1
29 24 100 30 8.64509e-05
30 24 100 30 0.999914
4 0 100 31 0.0133835
9 0 100 31 0.00011086
31 0 100 31 0.986506
4 1 100 31 0.999923
19 1 100 31 7.74483e-05
5 2 100 31 1
2 3 100 31 0.999969
4 3 100 31 3.07487e-05
1 4 100 31 0.5
3 4 100 31 0.5
6 5 100 31 1
7 6 100 31 1
8 7 100 31 0.5
10 7 100 31 0.5
11 8 100 31 1
9 9 100 31 1
12 10 100 31 1
13 11 100 31 0.5
15 11 100 31 0.5
14 12 100 31 0.505011
19 12 100 31 0.494989
16 13 100 31 1
14 14 100 31 0.999954
31 14 100 31 4.55811e-05
17 15 100 31 1
18 16 100 31 0.333369
19 16 100 31 0.333264
21 16 100 31 0.333367
22 17 100 31 1
23 18 100 31 1
24 19 100 31 0.5
25 19 100 31 0.5
30 20 100 31 1
26 21 100 31 1
27 22 100 31 1
28 23 100 31 1
29 24 100 31 1
20 25 100 31 1
5 26 100 31 1
4 27 100 31 1
3 0 100 35 1
29 1 100 35 1
1 2 100 35 1
2 3 100 35 1
4 4 100 35 1
5 5 100 35 0.999584
29 5 100 35 0.000415718
6 6 100 35 1
7 7 100 35 1
3 8 100 35 1
8 9 100 35 0.5
9 9 100 35 0.5
10 10 100 35 1
11 11 100 35 1
13 12 100 35 0.5
14 12 100 35 0.5
16 13 100 35 1
21 14 100 35 1
15 15 100 35 1
17 16 100 35 1
18 17 100 35 0.999698
29 17 100 35 0.000302139
22 19 100 35 1
23 20 100 35 0.5
24 20 100 35 0.5
25 21 100 35 1
19 22 100 35 0.5
26 22 100 35 0.5
20 23 100 35 0.5
27 23 100 35 0.5
28 24 100 35 1
29 25 100 35 0.00348389
30 25 100 35 0.996516
31 26 100 35 1
12 27 100 35 1
32 28 100 35 0.333333
33 28 100 35 0.333333
34 28 100 35 0.333333
35 29 100 35 1
29 30 100 35 1
3 0 100 36 0.00357431
5 0 100 36 0.00425628
6 0 100 36 0.000127698
8 0 100 36 2.64971e-05
11 0 100 36 0.000498379
14 0 100 36 0.00355055
18 0 100 36 0.000393316
23 0 100 36 0.961694
25 0 100 36 0.0251297
28 0 100 36 0.000714691
36 0 100 36 3.50101e-05
2 1 100 36 0.977223
4 1 100 36 0.00973701
24 1 100 36 0.0130405
1 2 100 36 0.33445
4 2 100 36 0.665537
24 2 100 36 1.31446e-05
2 3 100 36 0.501096
5 3 100 36 0.49889
25 3 100 36 1.46335e-05
1 4 100 36 0.333333
3 4 100 36 0.333333
6 4 100 36 0.333333
5 5 100 36 0.333336
7 5 100 36 0.333336
8 5 100 36 0.333327
7 6 100 36 0.5
9 6 100 36 0.5
8 7 100 36 0.333333
10 7 100 36 0.333333
13 7 100 36 0.333333
3 8 100 36 0.249298
10 8 100 36 0.250223
11 8 100 36 0.250094
14 8 100 36 0.249304
23 8 100 36 0.00107969
9 9 100 36 0.249984
11 9 100 36 0.250005
12 9 100 36 0.250005
15 9 100 36 0.250005
12 10 100 36 0.333333
13 10 100 36 0.333333
16 10 100 36 0.333333
15 11 100 36 0.5
17 11 100 36 0.5
14 12 100 36 0.333333
16 12 100 36 0.333333
18 12 100 36 0.333333
17 13 100 36 0.333386
18 13 100 36 0.333228
19 13 100 36 0.333386
19 14 100 36 0.333333
20 14 100 36 0.666667
27 15 100 36 1
21 16 100 36 0.999994
24 16 100 36 5.95399e-06
22 17 100 36 1
23 18 100 36 0.251634
24 18 100 36 0.497032
26 18 100 36 0.251334
25 19 100 36 0.333333
26 19 100 36 0.333333
27 19 100 36 0.333333
28 20 100 36 0.333334
29 20 100 36 0.333333
30 20 100 36 0.333333
29 21 100 36 0.5
31 21 100 36 0.5
30 22 100 36 0.5
32 22 100 36 0.5
28 23 100 36 0.333169
31 23 100 36 0.333415
32 23 100 36 0.333416
6 24 100 36 0.499962
33 24 100 36 0.500038
33 25 100 36 0.25
34 25 100 36 0.5
35 25 100 36 0.25
35 26 100 36 0.500009
36 26 100 36 0.499991
4 27 100 36 9.28531e-05
6 27 100 36 2.06262e-05
9 27 100 36 8.53051e-05
18 27 100 36 6.37005e-05
24 27 100 36 0.00927183
26 27 100 36 0.000164275
36 27 100 36 0.990301
25 28 100 36 1
3 0 100 38 0.0130198
6 0 100 38 0.0681742
10 0 100 38 7.37351e-05
17 0 100 38 0.00356541
24 0 100 38 0.915124
37 0 100 38 4.26687e-05
1 1 100 38 1
2 2 100 38 1
4 3 100 38 0.341725
5 3 100 38 0.341725
6 3 100 38 0.316551
7 4 100 38 1
8 5 100 38 1
13 6 100 38 1
9 7 100 38 1
3 8 100 38 0.329088
10 8 100 38 0.333757
11 8 100 38 0.333784
24 8 100 38 0.00337164
14 9 100 38 1
30 10 100 38 1
15 11 100 38 1
16 12 100 38 0.5
18 12 100 38 0.5
17 13 100 38 0.332365
19 13 100 38 0.333639
20 13 100 38 0.333651
24 13 100 38 0.000344891
21 14 100 38 1
12 15 100 38 0.499992
19 15 100 38 1.66211e-05
22 15 100 38 0.499992
23 16 100 38 1
25 17 100 38 1
26 18 100 38 1
27 19 100 38 1
28 20 100 38 1
29 21 100 38 1
31 22 100 38 1
32 23 100 38 1
33 24 100 38 1
34 25 100 38 1
35 26 100 38 1
36 27 100 38 1
37 28 100 38 1
37 29 100 38 7.8285e-05
38 29 100 38 0.999922
10 0 100 44 0.00328325
20 0 100 44 0.000235498
24 0 100 44 0.0143306
34 0 100 44 0.670402
43 0 100 44 0.311748
10 1 100 44 1
3 2 100 44 1
1 3 100 44 1
20 4 100 44 0.348208
24 4 100 44 0.347289
34 4 100 44 0.304504
2 5 100 44 1
4 6 100 44 0.5
5 6 100 44 0.5
6 7 100 44 1
41 8 100 44 1
7 9 100 44 1
8 10 100 44 1
9 11 100 44 1
11 12 100 44 1
12 13 100 44 1
13 14 100 44 1
40 15 100 44 1
18 16 100 44 1
19 17 100 44 1
21 18 100 44 1
22 19 100 44 1
23 20 100 44 1
15 21 100 44 0.5
29 21 100 44 0.5
15 22 100 44 0.5
29 22 100 44 0.5
16 23 100 44 0.5
30 23 100 44 0.5
17 24 100 44 0.499974
31 24 100 44 0.499974
43 24 100 44 5.12599e-05
32 25 100 44 1
33 26 100 44 1
35 27 100 44 1
36 28 100 44 1
25 29 100 44 0.333333
26 29 100 44 0.333333
37 29 100 44 0.333333
27 30 100 44 0.333334
39 30 100 44 0.333334
42 30 100 44 0.333333
14 31 100 44 0.34505
28 31 100 44 0.34505
43 31 100 44 0.3099
43 32 100 44 0.0415813
44 32 100 44 0.958419
38 33 100 44 1
