490 0.599669 0.183222 0.210131 0.00697803 0 0 0 0 0 0 
546 0.0174442 0.571022 0.411533 0 0 0 0 0 0 0 
559 0.399917 0.600076 6.33689e-06 0 0 0 0 0 0 0 
560 0.399779 0.274557 0.315196 0.010467 0 0 0 0 0 0 
561 8.41832e-06 0.954339 0.0456519 0 0 0 0 0 0 0 
562 0.599875 0.40012 4.25793e-06 0 0 0 0 0 0 0 
