0 3 0.707252
0 5 0.0245919
0 12 0.261504
0 27 0.00665226
2 2 0.879731
2 3 0.120269
3 3 0.460035
3 4 0.539965
4 5 0.333332
4 6 0.333334
4 9 0.333334
5 7 0.200642
5 8 0.399679
5 47 0.19984
5 48 0.19984
6 7 0.00549741
6 17 0.994503
7 10 1
8 11 0.332992
8 12 0.0197978
8 13 0.32878
8 14 0.31843
9 12 0.470586
9 13 0.00633974
9 14 0.0219166
9 15 0.501158
10 27 0.340595
10 248 0.329683
10 251 0.329706
10 445 1.56127e-05
11 16 0.787672
11 27 0.212328
12 7 1
13 18 1
14 19 0.333333
14 44 0.333333
14 937 0.333333
15 20 0.666667
15 351 0.333333
16 13 1
17 15 0.5
17 16 0.5
18 21 0.95804
18 27 0.0419596
19 22 0.125
19 70 0.875
20 23 0.248555
20 24 0.497111
20 73 0.124165
20 165 0.130169
21 25 1
22 26 0.333333
22 28 0.333333
22 29 0.333333
23 21 1
24 30 1
25 27 0.493129
25 31 0.123938
25 58 0.382934
26 25 0.666667
26 32 0.333333
27 33 1
28 34 0.49988
28 35 0.00023919
28 187 0.49988
29 35 0.49988
29 36 0.50012
30 3 0.494806
30 37 0.505194
31 12 1
32 12 0.496987
32 38 0.503013
33 12 0.00109851
33 39 0.998901
34 7 0.181168
34 40 0.724713
34 132 0.094119
35 41 0.661705
35 112 0.330852
35 395 8.82821e-05
35 465 0.00735498
36 42 0.50001
36 55 0.249985
36 721 0.250005
37 43 0.333333
37 132 0.333333
37 275 0.333333
38 17 0.0680479
38 44 0.931952
39 36 0.33333
39 45 0.333335
39 46 0.333335
40 3 3.78009e-06
40 95 0.909731
40 103 0.0848191
40 751 1.67927e-06
40 869 0.00544411
41 14 0.999986
41 36 1.36816e-05
42 4 1
43 49 1
44 50 1
45 51 1
46 14 0.360591
46 52 0.639409
47 53 1
48 35 0.666667
48 182 0.333333
49 54 0.5
49 55 0.5
50 56 1
51 57 0.104078
51 73 0.383972
51 175 0.383972
51 176 0.0639824
51 694 0.0639954
52 59 1
53 27 0.499966
53 60 0.500034
54 27 2.48329e-05
54 61 0.999975
55 62 1
56 5 0.498785
56 27 2.80814e-06
56 63 0.501212
57 64 0.5
57 65 0.5
58 66 1
59 67 1
60 68 0.5
60 69 0.5
61 71 1
62 3 0.018546
62 72 0.565458
62 73 0.415996
63 27 3.19776e-06
63 63 0.499998
63 64 0.499998
64 5 0.44424
64 55 0.111152
64 74 0.444608
65 75 1
66 76 1
67 27 0.289132
67 73 0.349371
67 160 0.289148
67 176 0.0723489
68 77 1
69 78 0.498951
69 151 0.498951
69 675 0.00209834
70 79 1
71 80 3.45545e-06
71 205 0.999997
72 80 0.499997
72 81 0.500003
73 74 1
74 82 1
75 3 0.47843
75 83 0.52157
76 84 1
77 85 1
78 5 3.63865e-05
78 72 0.999964
79 77 0.333339
79 86 0.333339
79 87 0.333322
80 81 0.91511
80 87 4.80521e-05
80 88 0.0848422
81 7 0.367295
81 88 0.265409
81 89 0.367295
82 90 1
83 27 0.499992
83 71 0.500008
84 5 0.332661
84 66 0.33367
84 91 0.33367
85 92 1
86 5 0.499981
86 93 0.500019
87 82 1
88 88 0.0164301
88 94 0.98357
89 5 0.333157
89 55 0.333421
89 96 0.333422
90 87 0.5
90 94 0.5
91 81 0.333333
91 86 0.333333
91 97 0.333333
92 68 0.5
92 98 0.5
93 40 1
94 99 1
95 100 1
96 100 1
97 12 0.499985
97 101 0.500015
98 102 0.999936
98 103 6.3511e-05
99 103 0.333348
99 104 0.33337
99 105 0.333282
100 105 0.000263123
100 106 0.999737
101 107 1
102 12 0.666557
102 103 0.333443
103 108 0.999484
103 109 0.000516466
104 40 0.500129
104 109 0.499871
105 110 0.5
105 865 0.5
106 88 0.304783
106 101 0.695203
106 104 1.3264e-05
107 56 0.43248
107 104 0.488491
107 112 0.0790291
108 40 0.338647
108 56 0.038841
108 111 0.338649
108 112 0.283864
109 7 0.583333
109 40 1.08489e-05
109 257 0.416656
110 113 1
111 27 0.285721
111 104 0.428562
111 114 0.285717
112 115 0.5
112 116 0.5
113 3 0.24991
113 56 0.50006
113 69 0.250029
114 117 0.333333
114 118 0.333333
114 121 0.333333
115 27 0.248042
115 119 0.501303
115 122 0.250655
116 7 0.200929
116 27 0.397179
116 119 6.5549e-06
116 120 0.401883
116 252 2.40519e-06
117 7 8.05141e-05
117 87 8.76913e-06
117 128 0.000428946
117 214 0.999482
118 56 0.200002
118 73 0.2
118 123 0.200002
118 124 0.200002
118 125 0.199996
119 14 0.999985
119 125 1.46928e-05
120 126 0.666681
120 127 0.333319
121 15 0.498407
121 127 3.12473e-05
121 128 0.501561
122 129 1
123 7 0.6
123 478 0.4
124 73 0.000179431
124 130 0.999821
125 27 0.127878
125 71 0.872122
126 64 0.5
126 65 0.5
127 131 1
128 5 0.666419
128 869 0.333581
129 43 0.163314
129 88 0.183431
129 132 0.489941
129 214 0.163314
130 133 1
131 12 0.334438
131 134 0.665562
132 12 0.665523
132 135 0.334477
133 136 1
134 137 0.333333
134 138 0.333333
134 139 0.333333
135 116 1
136 3 0.000949175
136 4 1.34401e-05
136 140 0.999037
137 3 0.40262
137 4 0.314247
137 141 0.283133
138 141 0.165301
138 142 0.834699
139 3 0.000342734
139 143 0.999657
140 27 0.874905
140 189 0.125095
141 144 0.745894
141 155 0.254106
142 145 1
143 12 0.499369
143 146 0.500518
143 147 0.00011255
144 12 2.52102e-05
144 147 0.249953
144 148 0.250009
144 149 0.250009
144 150 0.250003
145 87 0.999977
145 150 2.3207e-05
146 189 0.5
146 589 0.5
147 151 1
148 3 2.18084e-05
148 152 0.999978
149 153 1
150 154 1
151 156 1
152 3 0.469832
152 157 0.530168
153 158 1
154 73 0.490276
154 157 0.509724
155 5 0.256432
155 159 0.743568
156 27 0.285679
156 73 0.285637
156 160 0.428508
156 476 0.000176132
157 161 1
158 5 0.545442
158 74 0.454558
159 88 8.32565e-05
159 162 0.999917
160 12 0.248828
160 321 0.751172
161 163 1
162 14 0.0139732
162 74 0.986027
163 164 1
164 165 0.487861
164 166 0.512139
165 167 1
166 168 0.4
166 169 0.6
167 170 0.5
167 171 0.5
168 3 0.359253
168 27 0.281241
168 172 0.359507
169 173 0.714286
169 225 0.285714
170 27 0.0703963
170 107 0.707722
170 172 0.221882
171 123 0.963448
171 174 0.0363554
171 176 0.000196202
172 3 0.544549
172 57 0.0510543
172 123 0.272916
172 174 0.131481
173 5 0.0409869
173 27 0.958793
173 346 0.000219845
174 177 0.333333
174 178 0.333333
174 179 0.333333
175 180 1
176 181 1
177 123 0.0039666
177 183 0.996033
178 184 1
179 185 1
180 58 0.476516
180 186 0.523484
181 40 1
182 185 0.5
182 186 0.5
183 12 0.499522
183 104 0.500275
183 188 0.00020264
184 188 0.499303
184 189 0.499506
184 190 0.00119103
185 73 0.500597
185 190 0.499403
186 191 1
187 27 0.499982
187 192 0.500018
188 27 3.02809e-05
188 193 0.998005
188 194 0.00196484
189 194 0.336471
189 195 0.331765
189 821 0.331765
190 196 1
191 27 1
192 3 8.37482e-05
192 197 0.499958
192 198 0.499958
193 72 1
194 55 0.200004
194 104 0.199999
194 186 0.599997
195 199 1
196 200 1
197 201 1
198 28 1
199 202 1
200 3 0.754272
200 72 0.245728
201 55 0.499993
201 203 0.500007
202 204 1
203 12 0.499491
203 206 0.500509
204 55 0.5
204 207 0.5
205 59 1
206 138 0.00159792
206 208 0.998402
207 138 0.4996
207 209 0.5004
208 3 1.23339e-05
208 12 0.499096
208 210 0.500891
209 3 0.438775
209 211 0.561225
210 12 0.000201089
210 212 0.999799
211 5 0.499306
211 37 0.500694
212 5 0.00270268
212 213 0.997297
213 27 1
214 215 1
215 72 0.000314501
215 216 0.999686
216 12 8.09385e-06
216 14 0.333142
216 58 0.167082
216 73 5.53944e-05
216 176 0.333349
216 322 0.166364
217 58 1
218 166 1
219 57 0.5
219 210 0.5
220 3 0.0254523
220 14 0.487274
220 175 0.487274
221 175 4.18382e-05
221 217 0.999958
222 3 0.166679
222 57 0.166666
222 73 0.333331
222 175 0.333324
223 218 1
224 27 0.727538
224 172 0.272462
225 219 1
226 90 1
227 27 0.414149
227 220 0.585851
228 5 0.499322
228 221 0.500678
229 5 0.00267147
229 222 0.997329
230 3 4.23344e-05
230 12 9.46224e-07
230 223 0.0714874
230 227 0.428924
230 228 0.499545
231 14 0.5
231 224 0.5
232 226 0.5
232 228 0.5
233 14 0.5
233 227 0.5
234 3 0.0444309
234 56 0.955569
235 229 1
236 230 1
237 3 0.500082
237 231 0.499918
238 12 0.312355
238 227 0.312317
238 228 0.375328
239 100 1
240 20 0.5
240 232 0.5
241 12 0.607612
241 245 0.189046
241 394 0.203342
242 233 0.802193
242 234 0.197807
243 3 0.00214096
243 234 0.49893
243 235 0.49893
244 3 0.409289
244 68 0.159403
244 73 0.431308
245 236 0.5
245 237 0.5
246 3 0.498736
246 238 0.501264
247 239 1
248 240 0.5
248 241 0.5
249 242 1
250 243 1
251 244 1
252 14 1
253 245 1
254 246 1
255 55 0.333333
255 95 0.333333
255 247 0.333333
256 12 0.0161427
256 240 0.983857
257 7 0.499982
257 248 3.50792e-05
257 249 0.499983
258 3 0.0323698
258 141 0.387052
258 250 0.580578
259 252 0.333331
259 253 0.333335
259 275 0.333335
260 48 0.4
260 250 0.6
261 254 0.999709
261 255 0.000291144
262 104 0.500073
262 255 0.499927
263 12 0.371332
263 17 0.433804
263 27 0.194865
264 227 0.333333
264 228 0.333333
264 256 0.333333
265 40 0.33639
265 42 0.336478
265 465 0.327132
266 258 0.5
266 259 0.5
267 3 0.500869
267 260 0.499131
268 3 0.000175029
268 261 0.999825
269 3 0.497224
269 262 0.502776
270 218 1
271 23 0.999954
271 27 4.60796e-05
272 263 1
273 264 1
274 265 0.5
274 266 0.5
275 3 0.499803
275 593 0.250099
275 595 0.250099
276 267 1
277 12 0.354212
277 27 0.291467
277 260 0.354321
278 268 1
279 269 1
280 104 0.5
280 251 0.5
281 270 0.5
281 271 0.5
282 154 1
283 87 0.499826
283 128 0.00034845
283 448 0.249913
283 633 0.249913
284 5 0.00132772
284 272 0.994037
284 614 0.0046349
285 273 0.384714
285 274 0.384673
285 275 0.230613
286 43 0.292409
286 274 0.0023429
286 275 0.117679
286 330 0.58757
287 12 0.000198033
287 260 0.999802
288 12 0.48902
288 276 0.51098
289 12 0.333113
289 275 0.666887
290 104 4.33096e-05
290 277 0.999957
291 278 1
292 279 1
293 265 0.5
293 280 0.5
294 281 0.666664
294 283 0.333336
295 27 0.666595
295 282 0.333405
296 283 1
297 141 1
298 284 1
299 285 1
300 286 1
301 138 0.000161557
301 287 0.999838
302 288 1
303 17 1
304 19 0.5
304 145 0.5
305 289 0.5
305 345 0.5
306 84 0.500008
306 291 0.499992
307 5 0.33365
307 290 0.333751
307 292 0.332599
308 214 0.996525
308 291 3.23576e-05
308 292 0.00344237
309 293 1
310 294 1
311 5 0.401555
311 295 0.598445
312 297 1
313 89 0.333333
313 296 0.333333
313 834 0.333333
314 298 0.5
314 299 0.5
315 14 3.91483e-05
315 300 0.500058
315 870 0.499903
316 73 0.5
316 301 0.5
317 228 0.598188
317 302 0.401812
318 27 1
319 250 0.333333
319 303 0.666667
320 304 1
321 12 0.561195
321 56 0.438805
322 99 0.5
322 100 0.5
323 21 0.666956
323 661 0.333044
324 305 1
325 5 0.241969
325 48 0.379015
325 306 0.379016
326 27 0.0101655
326 307 0.989834
327 308 0.333333
327 481 0.333333
327 707 0.333333
328 309 0.5
328 310 0.5
329 299 0.499935
329 311 0.500065
330 104 0.5
330 312 0.5
331 128 0.499935
331 298 0.499935
331 299 0.00012903
332 313 1
333 5 0.493559
333 52 0.506441
334 5 0.335592
334 257 1.96615e-05
334 314 0.664389
335 3 0.495231
335 171 0.504769
336 3 0.0171156
336 315 0.982884
337 316 1
338 317 1
339 138 1
340 318 1
341 227 0.00725221
341 319 0.992748
342 128 0.5
342 320 0.5
343 214 1
344 138 0.5
344 298 0.5
345 5 1.08172e-05
345 298 0.499995
345 323 0.499995
346 322 0.499999
346 324 0.500001
347 118 0.333333
347 325 0.333333
347 326 0.333333
348 327 0.823495
348 328 0.176505
349 14 0.560016
349 328 0.439984
350 329 1
351 228 0.5
351 326 0.5
352 14 0.500344
352 331 0.499656
353 12 0.329017
353 298 0.335261
353 331 0.000461117
353 332 0.335261
354 6 0.336368
354 7 0.663632
355 5 0.499998
355 333 0.500002
356 88 0.333333
356 326 0.333333
356 334 0.333333
357 258 1
358 27 0.374957
358 141 0.250017
358 282 0.250017
358 283 0.125009
359 334 1
360 73 0.33333
360 304 0.333335
360 335 0.333335
361 73 6.95054e-06
361 336 0.499998
361 337 0.499995
362 27 0.666567
362 301 6.2943e-06
362 325 0.333427
363 338 1
364 12 0.00024401
364 339 0.999756
365 340 1
366 56 0.652074
366 189 0.347926
367 104 0.499918
367 341 0.500082
368 342 1
369 132 0.5
369 473 0.5
370 343 0.5
370 769 0.5
371 3 0.120303
371 104 0.502673
371 344 0.251355
371 516 0.125669
372 118 3.21966e-05
372 612 0.999968
373 73 0.968566
373 189 0.014955
373 234 0.0164794
374 104 0.2
374 138 0.2
374 307 0.2
374 346 0.2
374 347 0.2
375 23 6.15759e-05
375 189 0.496048
375 348 0.503891
376 23 0.000197576
376 349 0.999802
377 23 0.333245
377 350 0.666755
378 232 7.18465e-05
378 240 0.483509
378 245 0.516378
378 505 4.03802e-05
379 12 1
380 352 0.5
380 354 0.5
381 27 0.333322
381 326 0.333339
381 353 0.333339
382 228 0.986612
382 233 0.0133881
383 355 0.5
383 356 0.5
384 357 1
385 3 0.0678351
385 358 0.932165
386 27 0.333261
386 104 0.000215636
386 359 0.666524
387 48 1
388 40 0.399891
388 48 0.200217
388 360 0.399891
389 361 0.8
389 622 0.2
390 3 0.00194515
390 141 0.499027
390 362 0.499027
391 40 0.500016
391 363 0.499984
392 325 0.5
392 364 0.5
393 27 0.199999
393 365 0.2
393 366 0.2
393 367 0.2
393 368 0.2
394 128 1
395 369 1
396 14 0.499954
396 370 0.499954
396 371 9.18298e-05
397 7 0.333351
397 50 0.333355
397 371 0.333294
398 27 0.475462
398 372 0.524538
399 288 0.250065
399 725 0.749935
400 373 1
401 23 0.341808
401 374 0.658192
402 375 1
403 376 0.25
403 377 0.25
403 378 0.25
403 379 0.25
404 14 1
405 176 0.14268
405 322 0.85732
406 380 1
407 58 0.333265
407 128 0.33347
407 395 0.333265
408 381 1
409 104 0.333294
409 382 0.333413
409 851 0.333294
410 117 0.250061
410 118 0.250061
410 128 0.249907
410 382 0.249971
411 383 1
412 12 0.749893
412 232 0.250107
413 84 0.500001
413 247 0.499999
414 104 5.38307e-06
414 384 0.999995
415 104 0.5
415 385 0.5
416 295 1
417 386 1
418 73 0.5
418 387 0.5
419 141 0.333333
419 344 0.333333
419 388 0.333333
420 302 1
421 3 0.444517
421 322 0.555483
422 389 1
423 390 1
424 391 1
425 392 1
426 393 1
427 393 1
428 27 0.666612
428 753 0.333388
429 314 1
430 30 0.500133
430 395 0.499867
431 393 1
432 3 0.0458733
432 56 0.318143
432 141 0.31784
432 250 0.318143
433 3 0.000179654
433 141 0.000952734
433 396 0.998868
434 155 1
435 137 0.235048
435 397 0.764952
436 104 0.328652
436 137 0.0141498
436 429 0.328652
436 430 0.328546
437 5 0.176948
437 60 0.177013
437 137 0.292014
437 138 0.177013
437 398 0.177013
438 41 0.5
438 399 0.5
439 481 0.333333
439 779 0.333333
439 781 0.333333
440 400 1
441 103 0.333333
441 301 0.666667
442 401 1
443 402 1
444 403 1
445 3 0.00468427
445 372 0.450613
445 404 0.450613
445 501 0.0939603
445 528 0.000128519
446 405 1
447 5 0.0167903
447 406 0.98321
448 5 0.495681
448 407 0.504319
449 408 1
450 104 1
451 409 1
452 288 0.248782
452 410 0.501266
452 528 0.249953
453 272 0.25
453 585 0.25
453 636 0.25
453 763 0.25
454 284 1
455 411 0.993166
455 412 0.0068343
456 23 0.501726
456 412 0.498274
457 413 1
458 414 1
459 415 1
460 415 1
461 410 1
462 60 0.333393
462 73 0.333214
462 95 0.333393
463 137 1
464 42 1
465 416 1
466 417 1
467 12 0.496958
467 418 0.503042
468 13 1
469 419 0.333157
469 420 0.334547
469 427 0.332295
470 14 0.333333
470 40 0.333333
470 421 0.333333
471 12 0.500034
471 422 0.499966
472 423 1
473 424 1
474 13 0.249979
474 14 0.250008
474 419 0.250005
474 425 0.250008
475 420 1
476 421 1
477 12 0.50021
477 426 0.499791
478 382 1
479 5 0.219761
479 250 0.260897
479 419 0.260224
479 420 0.259118
480 298 1
481 299 1
482 300 1
483 300 0.997171
483 301 0.00282924
484 12 0.500583
484 301 0.499417
485 363 0.000194117
485 428 0.999806
486 430 2.70535e-05
486 713 0.833311
486 746 0.166662
487 431 1
488 3 0.499805
488 432 0.500195
489 433 0.5
489 435 0.5
490 27 0.333331
490 434 0.333334
490 436 0.333334
491 12 0.66666
491 437 0.33334
492 12 1.62471e-05
492 176 0.999984
493 438 1
494 439 1
495 440 1
496 441 0.5
496 442 0.5
497 104 0.5
497 362 0.5
498 3 0.257691
498 77 6.44733e-05
498 443 0.370482
498 909 0.371763
499 3 0.0646749
499 77 0.466818
499 443 0.00160791
499 444 0.466899
500 73 0.250002
500 445 0.249992
500 446 0.250003
500 447 0.250003
501 448 0.5
501 684 0.5
502 227 0.5
502 228 0.5
503 12 0.499983
503 322 0.500017
504 3 0.498454
504 449 0.501546
505 55 0.2
505 136 0.2
505 137 0.2
505 450 0.2
505 451 0.2
506 3 4.2019e-05
506 452 0.999958
507 27 0.483593
507 154 0.516407
508 41 0.5
508 453 0.5
509 55 1
510 454 1
511 27 0.486257
511 455 0.513743
512 5 0.333332
512 456 0.333334
512 457 0.333334
513 14 0.666268
513 325 0.333732
514 73 1
515 59 1
516 298 1
517 458 1
518 50 1
519 7 0.500031
519 309 0.499969
520 3 0.746058
520 12 0.102702
520 14 0.149429
520 228 0.00181108
521 141 0.5
521 459 0.5
522 3 0.499244
522 460 0.500756
523 448 0.5
523 461 0.5
524 109 0.333244
524 128 0.000266836
524 462 0.666489
525 463 1
526 128 0.4998
526 464 0.5002
527 40 0.504207
527 465 0.495793
528 56 0.499999
528 466 0.500001
529 88 0.666667
529 137 0.333333
530 27 0.499785
530 467 0.500215
531 104 1
532 468 0.5
532 469 0.5
533 87 0.5
533 155 0.5
534 470 0.66894
534 693 5.3759e-06
534 896 0.331055
535 56 0.499973
535 137 0.499973
535 301 5.41657e-05
536 40 0.200004
536 44 0.200004
536 301 0.199983
536 321 0.200004
536 801 0.200004
537 471 0.500002
537 472 0.499998
538 14 0.0906442
538 56 0.909221
538 175 0.00013443
539 14 0.473806
539 175 0.526194
540 5 0.499996
540 322 0.500004
541 27 0.249985
541 242 0.750015
542 474 0.500308
542 476 0.499692
543 475 1
544 3 0.239897
544 12 0.253304
544 391 0.253399
544 477 0.253399
545 229 1
546 3 0.00664935
546 240 0.496405
546 479 0.496946
547 14 0.5
547 480 0.5
548 7 0.333333
548 257 0.333333
548 482 0.333333
549 14 0.000305506
549 229 0.999694
550 483 0.999985
550 484 1.4745e-05
551 5 0.499998
551 484 0.500002
552 485 0.5
552 486 0.5
553 229 0.429232
553 483 0.570768
554 5 0.143428
554 12 0.143662
554 40 0.000597725
554 88 1.66441e-05
554 103 0.282717
554 301 0.286383
554 324 0.143196
555 487 1
556 350 0.500023
556 488 0.499977
557 5 0.999953
557 488 4.69214e-05
558 97 0.5
558 489 0.5
559 7 0.5
559 490 0.5
560 88 0.5
560 491 0.5
561 281 1
562 104 0.333352
562 128 0.333296
562 492 0.333352
563 128 0.000169993
563 493 0.99983
564 314 0.801136
564 486 0.198864
565 214 0.57085
565 486 0.42915
566 3 0.499657
566 494 0.500343
567 495 0.500003
567 496 0.499997
568 6 0.333247
568 40 0.333502
568 89 0.333247
568 496 4.13376e-06
569 497 0.5
569 498 0.5
570 499 1
571 500 1
572 501 1
573 5 0.499987
573 502 0.500013
574 40 0.332417
574 88 0.333772
574 503 0.333811
575 504 1
576 232 1
577 505 0.333315
577 506 0.333343
577 507 0.333343
578 227 0.5
578 228 0.5
579 240 1
580 12 0.493746
580 508 0.506254
581 190 0.499992
581 508 1.57083e-05
581 714 0.499992
582 509 1
583 510 1
584 354 1
585 12 0.499137
585 275 0.000615162
585 511 0.500248
586 12 2.42805e-05
586 128 0.333462
586 275 0.333052
586 512 0.333462
587 40 0.5
587 513 0.5
588 3 0.301488
588 240 0.349256
588 514 0.349256
589 3 0.000110021
589 515 0.99989
590 12 0.372265
590 237 0.251094
590 240 0.125547
590 517 0.251094
591 518 1
592 519 1
593 520 0.5
593 521 0.5
594 3 0.391662
594 12 0.405419
594 522 0.202919
595 14 8.87126e-06
595 18 0.499996
595 739 0.499996
596 19 0.5
596 524 0.5
597 14 0.249999
597 523 0.250004
597 525 0.250004
597 526 0.249993
598 526 2.18967e-05
598 527 0.500203
598 528 0.499775
599 257 1
600 37 0.499773
600 73 0.000454569
600 529 0.499773
601 530 1
602 350 0.500003
602 531 0.499997
603 27 0.499996
603 531 6.59626e-06
603 532 0.499998
604 128 1
605 236 1
606 49 0.999971
606 229 2.86299e-05
607 229 0.498632
607 533 0.498646
607 534 0.00272231
608 5 0.333404
608 12 0.333643
608 534 0.332953
609 3 0.000415939
609 535 0.999584
610 12 0.499978
610 103 0.500022
611 14 0.499924
611 536 0.500076
612 104 1
613 537 1
614 189 0.250001
614 287 0.249997
614 538 0.250001
614 539 0.250001
615 97 0.999983
615 287 1.69793e-05
616 12 0.499407
616 103 1.12348e-05
616 540 0.500582
617 275 1
618 541 1
619 3 0.199992
619 227 0.200002
619 228 0.200002
619 491 0.200002
619 542 0.200002
620 5 0.499954
620 543 0.500046
621 544 0.5
621 545 0.5
622 546 1
623 547 1
624 3 0.405575
624 12 0.0044081
624 132 0.590017
625 7 1.79586e-05
625 287 0.999982
626 26 0.5
626 548 0.5
627 73 1
628 549 0.400513
628 550 0.400511
628 551 0.198976
629 551 0.334752
629 552 0.665248
630 55 0.5
630 511 0.5
631 55 0.000108688
631 519 0.999891
632 55 0.499973
632 553 0.500027
633 14 0.000128059
633 435 0.999872
634 14 0.499968
634 554 0.500032
635 555 1
636 556 1
637 5 1
638 130 0.499999
638 557 0.500001
639 3 0.00128491
639 238 0.499357
639 558 0.499358
640 27 0.333329
640 141 0.333335
640 245 0.333335
641 435 1
642 3 0.498568
642 68 0.499237
642 141 0.00219521
643 3 0.000214114
643 141 0.498791
643 559 0.500994
644 12 0.499919
644 484 0.500081
645 5 7.70756e-05
645 560 0.994525
645 561 0.00539751
646 482 0.502628
646 561 0.497372
647 482 1.46092e-05
647 562 0.999985
648 314 1
649 563 1
650 564 1
651 5 0.00996203
651 561 0.494924
651 565 0.495114
652 5 0.49453
652 566 0.50547
653 27 0.499989
653 88 0.500011
654 89 0.439748
654 567 0.560252
655 40 1
656 191 0.99999
656 566 1.0359e-05
657 5 0.499989
657 435 1.52927e-05
657 566 0.499995
658 27 0.332572
658 435 0.332585
658 528 0.332595
658 567 0.0022487
659 40 0.696628
659 89 0.303372
660 435 1
661 568 0.5
661 569 0.5
662 104 1
663 570 0.5
663 863 0.5
664 55 0.25
664 372 0.25
664 501 0.25
664 571 0.25
665 572 1
666 573 1
667 574 1
668 575 1
669 576 0.5
669 577 0.5
670 350 1
671 12 0.00272152
671 435 0.997278
672 11 0.333333
672 580 0.333333
672 581 0.333333
673 491 0.5
673 578 0.5
674 170 0.400009
674 579 0.399994
674 582 0.199997
675 583 1
676 399 1
677 138 1
678 205 0.333333
678 584 0.666667
679 516 0.5
679 585 0.5
680 3 0.665846
680 586 0.334154
681 587 1
682 588 1
683 5 0.333333
683 590 0.666667
684 3 0.499924
684 591 0.500076
685 14 0.666681
685 358 0.333319
686 585 0.5
686 592 0.5
687 287 1
688 12 0.428381
688 128 0.142626
688 435 0.428993
689 128 0.498995
689 399 0.501005
690 399 0.499094
690 594 0.500906
691 170 1
692 399 1
693 596 0.499998
693 597 0.500002
694 14 0.5
694 598 0.5
695 55 0.499983
695 435 3.50616e-05
695 599 0.499982
696 12 0.332213
696 128 0.332213
696 435 0.332213
696 600 0.00336045
697 261 0.501711
697 600 0.498289
698 601 1
699 602 1
700 603 1
701 604 1
702 603 0.499999
702 605 0.500001
703 606 0.499999
703 607 0.500001
704 12 0.499893
704 608 0.500107
705 609 1
706 610 1
707 12 0.503926
707 435 0.496074
708 611 1
709 348 1
710 14 0.500012
710 118 0.499988
711 613 1
712 5 0.498657
712 114 0.501237
712 615 0.000106057
713 614 0.665673
713 615 0.334327
714 616 0.666667
714 717 0.333333
715 27 0.00251865
715 48 0.997481
716 50 0.000334649
716 614 0.499833
716 617 0.499833
717 7 0.500102
717 50 0.499898
718 12 0.499966
718 435 0.500034
719 59 0.376898
719 583 0.623102
720 190 0.5
720 618 0.5
721 3 0.497494
721 79 0.502506
722 516 1
723 261 0.971212
723 288 0.0287884
724 619 1
725 620 1
726 344 0.249976
726 385 0.250008
726 509 0.250008
726 621 0.250008
727 5 0.499986
727 623 0.500014
728 624 1
729 621 1
730 625 1
731 104 0.5
731 587 0.5
732 626 1
733 14 0.333328
733 95 0.333336
733 627 0.333336
734 448 0.5
734 628 0.5
735 629 0.333333
735 630 0.333333
735 631 0.333333
736 381 1
737 14 0.500027
737 27 0.499973
738 632 1
739 309 1
740 138 0.5
740 587 0.5
741 5 0.333187
741 399 0.333407
741 583 0.333407
742 3 0.489911
742 141 0.510089
743 3 3.20693e-05
743 634 0.999968
744 591 1
745 5 0.331641
745 27 0.000435278
745 635 0.667924
746 454 1
747 104 0.5
747 637 0.5
748 261 1
749 104 0.499997
749 344 0.500003
750 385 1
751 638 1
752 12 0.179751
752 435 0.820249
753 12 0.438351
753 59 0.561649
754 138 0.2
754 358 0.2
754 639 0.2
754 640 0.2
754 641 0.2
755 5 0.499992
755 642 0.500008
756 104 0.999902
756 642 9.78886e-05
757 11 0.999958
757 14 4.19985e-05
758 14 0.500501
758 643 0.499499
759 643 0.00203872
759 644 0.997961
760 645 1
761 600 1
762 582 1
763 601 0.5
763 646 0.5
764 603 0.5
764 647 0.5
765 648 1
766 649 1
767 170 1
768 138 1
769 55 1
770 104 0.5
770 301 0.5
771 5 0.666658
771 650 0.333342
772 12 0.48376
772 238 0.51624
773 3 0.00340216
773 12 0.0300234
773 651 0.966574
774 652 1
775 653 1
776 654 1
777 5 0.249997
777 12 0.249897
777 640 0.250053
777 654 0.250053
778 14 1
779 655 1
780 301 1
781 134 1.0015e-05
781 656 0.99999
782 3 0.499772
782 134 0.500228
783 3 1.6125e-05
783 55 0.499992
783 295 0.499992
784 87 0.499991
784 657 0.500009
785 658 0.500001
785 660 0.499999
786 659 0.505553
786 662 0.494447
787 7 0.977261
787 661 0.001269
787 662 0.0214696
788 234 1
789 233 1
790 663 1
791 5 0.499817
791 234 0.500183
792 211 1
793 664 1
794 138 0.499965
794 583 0.500035
795 138 0.000138759
795 665 0.999861
796 73 1.11017e-05
796 138 0.666659
796 666 0.33333
797 667 0.5
797 668 0.5
798 104 0.397703
798 669 0.397702
798 670 0.204595
799 621 0.673147
799 670 0.326853
800 73 0.5
800 665 0.5
801 668 0.5
801 671 0.5
802 667 0.529376
802 673 0.470624
803 672 0.998677
803 673 0.00132338
804 73 0.474002
804 435 0.474018
804 673 0.0519795
805 3 0.496851
805 668 0.503149
806 3 0.0115792
806 674 0.988421
807 675 1
808 587 1
809 138 1
810 14 0.842458
810 59 0.157542
811 676 1
812 12 0.291172
812 27 0.354411
812 677 0.354416
813 12 0.066181
813 677 1.6274e-05
813 678 0.466901
813 679 0.466901
814 680 1
815 73 0.5
815 305 0.5
816 3 0.498634
816 681 0.501366
817 55 1
818 297 0.500052
818 682 0.499948
819 621 0.99979
819 682 0.000209526
820 170 0.5
820 593 0.5
821 170 0.5
821 594 0.5
822 595 1
823 3 0.992225
823 205 0.00777497
824 12 0.000759282
824 27 0.333001
824 55 0.33312
824 597 0.33312
825 12 0.0839808
825 27 9.43011e-06
825 677 0.91601
826 683 1
827 297 0.25
827 679 0.75
828 685 0.666216
828 686 0.333784
829 138 0.250702
829 686 0.249427
829 687 0.499871
830 138 0.332399
830 603 0.333801
830 605 0.333801
831 688 1
832 11 1
833 27 0.499967
833 689 0.500033
834 3 0.0215072
834 138 0.489246
834 690 0.489247
835 3 0.466094
835 84 0.533906
836 55 0.5
836 691 0.5
837 134 0.333333
837 479 0.333333
837 671 0.333333
838 322 1
839 692 1
840 3 0.485706
840 118 0.514294
841 3 0.00051792
841 366 0.999482
842 309 0.500004
842 693 0.499996
843 3 0.749298
843 695 0.250702
844 141 0.200005
844 696 0.399998
844 697 0.399998
845 14 0.5
845 55 0.5
846 698 1
847 141 1
848 699 0.333333
848 701 0.333333
848 702 0.333333
849 700 1
850 14 0.5
850 612 0.5
851 703 1
852 14 0.5
852 704 0.5
853 530 0.5
853 705 0.5
854 706 1
855 531 0.5
855 707 0.5
856 138 0.250398
856 708 0.249867
856 777 0.249867
856 862 0.249867
857 501 0.407311
857 709 0.296345
857 792 0.296345
858 697 1.22934e-05
858 710 0.499994
858 848 0.499994
859 5 0.249924
859 528 0.250025
859 711 0.250025
859 712 0.250025
860 40 1
861 103 1
862 3 0.000180771
862 12 0.000156439
862 55 1.78156e-05
862 714 0.999645
863 5 0.324594
863 346 0.337657
863 715 0.337749
864 399 0.499392
864 716 0.500608
865 103 0.250065
865 718 0.499956
865 849 0.249978
866 3 0.000189899
866 12 0.499762
866 719 0.500048
867 231 0.5
867 720 0.5
868 176 1
869 58 1
870 12 0.249984
870 14 0.750016
871 87 0.333333
871 128 0.333333
871 778 0.333333
872 722 1
873 5 0.247423
873 515 0.250859
873 525 0.250859
873 546 0.250859
874 723 1
875 724 1
876 726 0.500022
876 727 0.499978
877 309 0.999912
877 727 8.82811e-05
878 35 1
879 400 0.5
879 728 0.5
880 729 1
881 73 0.25
881 730 0.25
881 731 0.25
881 732 0.25
882 23 0.499539
882 288 0.000920407
882 733 0.49954
883 78 0.723944
883 288 0.276056
884 78 8.08659e-05
884 288 0.383497
884 528 0.00166874
884 734 0.614754
885 735 1
886 736 0.500072
886 737 0.499928
887 309 0.999712
887 737 0.000288271
888 738 1
889 103 1
890 27 0.499923
890 30 0.500077
891 5 1
892 740 1
893 741 1
894 12 0.665905
894 103 0.334095
895 5 0.502032
895 742 0.497968
896 582 0.989646
896 742 0.0103535
897 170 0.429695
897 399 0.140578
897 716 0.429727
898 27 0.460055
898 59 0.461238
898 399 0.078707
899 89 0.499999
899 743 0.500001
900 714 1
901 27 0.000582632
901 744 0.999417
902 27 0.499995
902 745 0.500005
903 370 1
904 297 0.5
904 747 0.5
905 27 0.272563
905 451 0.545563
905 747 0.0909271
905 748 0.0909475
906 132 0.333006
906 324 0.332999
906 479 0.00110714
906 748 0.332888
907 479 0.50236
907 748 0.00017315
907 749 0.497467
908 749 0.0128631
908 750 0.987137
909 23 0.500005
909 751 0.499995
910 144 0.150699
910 154 0.2831
910 752 0.2831
910 771 0.2831
911 3 0.165665
911 103 0.834335
912 754 0.333333
912 755 0.333333
912 756 0.333333
913 417 0.5
913 757 0.5
914 138 0.5
914 758 0.5
915 344 1
916 14 0.333333
916 759 0.333333
916 760 0.333333
917 417 0.5
917 761 0.5
918 758 0.5
918 762 0.5
919 27 0.499993
919 358 0.500007
920 706 0.5
920 764 0.5
921 176 1
922 12 0.0589065
922 765 0.470547
922 766 0.470547
923 767 0.5
923 768 0.5
924 399 0.333357
924 748 0.666643
925 770 1
926 51 0.2
926 138 0.2
926 354 0.2
926 772 0.2
926 774 0.2
927 118 0.5
927 722 0.5
928 48 0.333333
928 58 0.333333
928 773 0.333333
929 132 0.333333
929 586 0.333333
929 775 0.333333
930 68 0.333333
930 776 0.333333
930 777 0.333333
931 7 0.333334
931 780 0.333332
931 782 0.333334
932 128 0.0813594
932 138 0.918641
933 128 0.476888
933 768 0.523112
934 14 0.0292924
934 451 0.970708
935 14 0.492331
935 783 0.50765
935 784 1.96664e-05
936 392 0.50001
936 784 0.49999
937 785 1
938 245 0.571257
938 261 0.428743
939 261 0.199664
939 786 0.800336
940 23 0.5
940 787 0.5
941 788 1
942 104 3.79275e-05
942 789 0.999962
943 790 1
944 791 1
945 3 3.01296e-05
945 793 0.99997
946 3 4.79149e-06
946 27 0.333336
946 561 0.33333
946 716 0.33333
947 59 0.5
947 479 0.5
948 37 0.432764
948 95 7.19687e-06
948 297 0.468152
948 521 0.0990768
949 14 0.00750848
949 322 0.992492
950 14 0.498247
950 794 0.501753
951 794 0.000579591
951 795 0.99942
952 3 0.332213
952 12 0.331528
952 103 0.000948916
952 713 0.33531
953 103 0.499292
953 297 0.500709
954 95 0.333333
954 525 0.333333
954 796 0.333333
955 27 0.249989
955 322 0.250004
955 797 0.250004
955 798 0.250004
956 84 0.333333
956 128 0.333333
956 799 0.333333
957 98 0.111111
957 244 0.111111
957 247 0.111111
957 361 0.111111
957 661 0.111111
957 694 0.111111
957 712 0.111111
957 800 0.111111
957 802 0.111111
958 68 0.206878
958 780 0.793122
959 667 0.5
959 803 0.5
960 776 1
961 5 0.166667
961 21 0.166667
961 804 0.166667
961 805 0.166667
961 806 0.166667
961 807 0.166667
962 7 0.5
962 808 0.5
963 15 1
964 809 1
965 714 1
966 3 0.645672
966 809 0.354328
967 3 0.108621
967 810 0.891379
968 811 1
969 73 0.333333
969 812 0.333333
969 813 0.333333
970 14 0.999862
970 814 0.000137767
971 43 0.500034
971 814 0.499966
972 714 1
973 3 0.246244
973 27 0.251229
973 809 0.251264
973 812 0.251264
974 3 0.0101035
974 815 0.329966
974 816 0.329966
974 817 0.329965
975 5 0.499978
975 818 0.500022
976 713 0.5
976 819 0.5
977 3 0.499956
977 322 0.250022
977 451 0.250022
978 12 0.249992
978 152 0.250003
978 267 0.250003
978 820 0.250003
979 7 0.5
979 821 0.5
980 7 0.00836801
980 30 0.990437
980 44 0.00119544
981 7 0.251048
981 27 0.242884
981 44 0.252881
981 819 0.253187
982 822 0.5
982 823 0.5
983 824 1
984 5 0.499996
984 825 0.500004
985 55 0.25
985 361 0.25
985 606 0.25
985 826 0.25
986 827 1
987 3 1
988 3 0.0330355
988 141 0.966964
989 360 1
990 7 0.249999
990 40 0.500001
990 257 0.25
991 746 0.333333
991 828 0.333333
991 829 0.333333
992 104 0.317427
992 209 0.682442
992 934 0.000130809
993 830 1
994 831 1
995 257 0.000153447
995 832 0.999847
996 829 0.500911
996 833 0.499089
997 3 0.330005
997 27 0.334668
997 59 0.334718
997 833 0.000608352
998 27 9.97822e-05
998 547 0.210552
998 834 0.789348
999 132 0.576631
999 547 0.423369
1000 5 0.199979
1000 309 0.200005
1000 476 0.200005
1000 624 0.200005
1000 835 0.200005
1001 40 0.500021
1001 128 0.499979
1002 3 0.443197
1002 4 0.110926
1002 128 0.445877
1003 4 8.95106e-05
1003 5 0.135505
1003 819 0.432203
1003 836 0.432203
1004 5 0.250797
1004 14 0.374601
1004 830 0.374601
1005 4 0.428902
1005 837 0.571098
1006 257 0.5
1006 838 0.5
1007 839 1
1008 27 0.333563
1008 830 0.333791
1008 840 0.332646
1009 73 0.99658
1009 840 0.00342036
1010 582 1
1011 27 0.0216983
1011 59 0.978302
1012 245 0.5
1012 714 0.5
1013 247 0.499997
1013 802 0.500003
1014 14 0.999911
1014 247 1.4218e-05
1014 536 7.51754e-05
1015 536 0.499981
1015 841 0.500019
1016 247 2.17067e-05
1016 842 0.998084
1016 843 0.00189452
1017 104 0.500485
1017 843 0.499515
1018 247 0.5
1018 844 0.5
1019 104 0.49999
1019 845 0.50001
1020 119 0.5
1020 696 0.5
1021 3 0.654609
1021 141 0.345391
1022 846 1
1023 27 0.333258
1023 697 0.333367
1023 847 0.333375
1024 132 1
1025 12 0.499965
1025 850 0.500035
1026 301 1
1027 852 1
1028 3 0.485097
1028 853 0.514903
1029 854 1
1030 5 0.495582
1030 855 0.504418
1031 12 0.499953
1031 156 0.500047
1032 856 1
1033 857 1
1034 858 1
1035 176 0.333332
1035 859 0.666668
1036 358 1
1037 860 1
1038 861 0.5
1038 862 0.5
1039 864 1
1040 483 0.49786
1040 866 0.50214
1041 40 7.43812e-05
1041 483 0.00844906
1041 867 0.991477
1042 40 0.499981
1042 178 0.500019
1043 475 0.5
1043 868 0.5
1044 73 0.368519
1044 176 0.631481
1045 869 1
1046 14 0.250642
1046 871 0.749358
1047 14 0.499044
1047 870 0.000155594
1047 872 0.500801
1048 7 0.333333
1048 873 0.333333
1048 874 0.333333
1049 875 1
1050 876 0.948852
1050 877 0.0511477
1051 877 0.486151
1051 878 0.513849
1052 624 0.5
1052 879 0.5
1053 5 0.0021344
1053 68 0.00568746
1053 880 0.992178
1054 14 0.501437
1054 68 0.498563
1055 128 1
1056 194 1
1057 881 1
1058 73 0.000221209
1058 123 0.999779
1059 58 0.5
1059 922 0.5
1060 37 0.0702779
1060 882 0.929722
1061 5 0.666662
1061 883 0.333338
1062 884 0.5
1062 885 0.5
1063 886 1
1064 521 0.641368
1064 921 0.358632
1065 887 1
1066 888 1
1067 7 0.33333
1067 73 0.333335
1067 889 0.333335
1068 890 1
1069 3 0.490967
1069 5 2.41509e-05
1069 891 0.509009
1070 5 0.333297
1070 447 0.333352
1070 892 0.333352
1071 862 0.5
1071 893 0.5
1072 890 1
1073 14 0.5
1073 894 0.5
1074 895 1
1075 104 0.499999
1075 872 0.500001
1076 896 0.0101077
1076 897 0.989892
1077 7 0.5
1077 898 0.5
1078 899 1
1079 12 0.325281
1079 900 0.337359
1079 902 0.337359
1080 901 1
1081 115 1
1082 903 0.500008
1082 904 0.499992
1083 876 0.999967
1083 904 3.27196e-05
1084 905 0.999956
1084 906 4.41816e-05
1085 906 0.499989
1085 907 0.500011
1086 14 0.00357037
1086 908 0.99643
1087 17 1
1088 910 1
1089 911 1
1090 245 0.5
1090 491 0.5
1091 3 0.412594
1091 912 0.587406
1092 5 4.51282e-06
1092 913 0.354467
1092 914 0.309041
1092 915 0.336487
1093 95 0.32283
1093 857 0.322834
1093 914 0.0314894
1093 915 1.37816e-05
1093 920 0.322834
1094 5 0.960939
1094 914 0.0147091
1094 915 0.0243521
1095 885 0.5
1095 916 0.5
1096 917 0.5
1096 919 0.5
1097 27 0.333326
1097 132 0.333337
1097 918 0.333337
1098 155 1
1099 138 0.000128964
1099 923 0.999871
1100 287 0.000873845
1100 924 0.999126
1101 287 0.499781
1101 925 0.500219
1102 43 0.00199572
1102 73 0.118221
1102 151 0.000808119
1102 274 0.0270144
1102 869 0.85196
1103 5 0.499994
1103 871 0.500006
1104 73 1.00238e-05
1104 926 0.99999
1105 3 0.249779
1105 12 0.249717
1105 927 0.500504
1106 366 0.5
1106 869 0.5
1107 14 0.200029
1107 73 0.199993
1107 928 0.599978
1108 554 0.5
1108 862 0.5
1109 16 0.5
1109 929 0.5
1110 3 0.371921
1110 869 0.000769827
1110 930 0.62731
1111 686 0.340954
1111 802 0.340954
1111 869 0.318092
1112 621 1
1113 931 1
1114 21 1
1115 932 1
1116 933 1
1117 104 0.0651868
1117 931 0.934813
1118 12 0.500014
1118 934 0.499986
1119 935 1
1120 3 0.499906
1120 931 0.500094
1121 52 0.333333
1121 73 0.333333
1121 128 0.333333
1122 14 0.0366475
1122 936 0.963353
1123 104 0.501109
1123 675 0.498891
1124 27 0.499945
1124 675 0.000109885
1124 938 0.499945
1125 939 1
1126 940 1
1127 73 0.197976
1127 151 0.273506
1127 274 0.254492
1127 941 0.274026
