1 1 4 100 1
2 2 4 100 1
3 3 4 100 1
3 4 4 100 0.5
4 4 4 100 0.5
4 5 4 100 1
1 1 5 100 1
0 2 5 100 0.00188612
1 2 5 100 0.35614
2 2 5 100 0.641974
1 3 5 100 0.166667
2 3 5 100 0.666667
3 3 5 100 0.166667
2 4 5 100 0.499771
3 4 5 100 0.333562
4 4 5 100 0.166667
3 5 5 100 0.666667
4 5 5 100 0.333333
3 6 5 100 0.333333
4 6 5 100 0.167336
5 6 5 100 0.499331
0 7 5 100 0.004656
3 7 5 100 0.245344
4 7 5 100 0.5
5 7 5 100 0.25
3 8 5 100 0.333333
4 8 5 100 0.333333
5 8 5 100 0.333333
4 9 5 100 1
5 10 5 100 1
1 1 6 100 1
0 2 6 100 0.0017776
1 2 6 100 0.230753
2 2 6 100 0.767469
0 3 6 100 8.22036e-05
1 3 6 100 0.153567
2 3 6 100 0.465832
3 3 6 100 0.380519
0 4 6 100 0.080164
1 4 6 100 0.0765074
2 4 6 100 0.217043
3 4 6 100 0.318616
4 4 6 100 0.30767
0 5 6 100 3.08031e-05
2 5 6 100 0.153834
3 5 6 100 0.38462
4 5 6 100 0.307681
5 5 6 100 0.153834
0 6 6 100 6.23747e-05
2 6 6 100 0.0769131
3 6 6 100 0.308181
4 6 6 100 0.230249
5 6 6 100 0.307671
6 6 6 100 0.0769231
3 7 6 100 0.272222
4 7 6 100 0.310817
5 7 6 100 0.166961
6 7 6 100 0.25
4 8 6 100 0.507024
5 8 6 100 0.381865
6 8 6 100 0.111111
2 9 6 100 0.25
5 9 6 100 0.5
6 9 6 100 0.25
1 10 6 100 0.166667
2 10 6 100 0.333333
6 10 6 100 0.5
2 11 6 100 0.333333
3 11 6 100 0.666667
0 12 6 100 0.333333
3 12 6 100 0.333333
6 12 6 100 0.333333
4 13 6 100 1
3 14 6 100 0.5
5 14 6 100 0.5
3 15 6 100 0.5
5 15 6 100 0.5
3 16 6 100 0.5
6 16 6 100 0.5
3 17 6 100 1
0 18 6 100 1
3 19 6 100 1
3 20 6 100 1
3 21 6 100 1
4 22 6 100 1
6 23 6 100 1
1 1 7 100 0.923077
2 1 7 100 0.0384615
3 1 7 100 0.0384615
0 2 7 100 0.000212575
1 2 7 100 0.151749
2 2 7 100 0.771224
3 2 7 100 0.0383527
4 2 7 100 0.0384615
0 3 7 100 0.00062405
1 3 7 100 0.0385136
2 3 7 100 0.350921
3 3 7 100 0.609803
4 3 7 100 0.000129585
5 3 7 100 8.45364e-06
0 4 7 100 7.82575e-05
1 4 7 100 0.0384615
2 4 7 100 0.230283
3 4 7 100 0.497446
4 4 7 100 0.233731
0 5 7 100 0.000447423
1 5 7 100 0.0384604
2 5 7 100 0.0736771
3 5 7 100 0.261584
4 5 7 100 0.471974
5 5 7 100 0.153857
0 6 7 100 0.00317023
1 6 7 100 0.0384616
2 6 7 100 0.0384616
3 6 7 100 0.153849
4 6 7 100 0.189135
5 6 7 100 0.499672
6 6 7 100 0.0772509
0 7 7 100 0.000165818
1 7 7 100 4.6879e-07
2 7 7 100 0.0384616
3 7 7 100 0.0804035
4 7 7 100 0.303745
5 7 7 100 0.269228
6 7 7 100 0.19261
7 7 7 100 0.115385
3 8 7 100 0.0869627
4 8 7 100 0.173988
5 8 7 100 0.260921
6 8 7 100 0.26074
7 8 7 100 0.217388
0 9 7 100 1.82927e-05
3 9 7 100 0.0526133
4 9 7 100 0.0526316
5 9 7 100 0.315776
6 9 7 100 0.157908
7 9 7 100 0.421053
4 10 7 100 0.181818
5 10 7 100 0.0909091
6 10 7 100 0.272727
7 10 7 100 0.454545
4 11 7 100 0.166667
5 11 7 100 0.166667
6 11 7 100 0.166667
7 11 7 100 0.5
4 12 7 100 0.333333
6 12 7 100 0.333333
7 12 7 100 0.333333
0 13 7 100 0.00347573
5 13 7 100 0.496524
7 13 7 100 0.5
5 14 7 100 1
6 15 7 100 1
6 16 7 100 1
7 17 7 100 1
1 1 8 100 0.828949
2 1 8 100 5.3356e-05
4 1 8 100 0.170998
0 2 8 100 0.0440905
1 2 8 100 0.261467
2 2 8 100 0.607486
3 2 8 100 0.0434783
5 2 8 100 0.0434783
0 3 8 100 0.0817676
1 3 8 100 0.173913
2 3 8 100 0.321995
3 3 8 100 0.346193
4 3 8 100 0.0434783
5 3 8 100 0.0326527
0 4 8 100 2.91822e-05
2 4 8 100 0.348069
3 4 8 100 0.29935
4 4 8 100 0.260675
5 4 8 100 0.0483957
6 4 8 100 0.0434806
0 5 8 100 0.000775011
2 5 8 100 0.217462
3 5 8 100 0.231023
4 5 8 100 0.246471
5 5 8 100 0.217312
6 5 8 100 0.0869566
0 6 8 100 0.0073807
2 6 8 100 0.0434859
3 6 8 100 0.313597
4 6 8 100 0.325162
5 6 8 100 0.305019
6 6 8 100 0.00535576
0 7 8 100 0.000106186
2 7 8 100 2.42426e-06
3 7 8 100 0.0869565
4 7 8 100 0.347693
5 7 8 100 0.434755
6 7 8 100 0.087015
7 7 8 100 0.043471
0 8 8 100 0.0420565
2 8 8 100 9.04763e-05
4 8 8 100 0.176848
5 8 8 100 0.345209
6 8 8 100 0.261189
7 8 8 100 0.131129
8 8 8 100 0.0434783
0 9 8 100 0.000939508
4 9 8 100 0.0809725
5 9 8 100 0.181818
6 9 8 100 0.372633
7 9 8 100 0.272727
8 9 8 100 0.0909091
0 10 8 100 4.47604e-06
2 10 8 100 0.05
5 10 8 100 0.1
6 10 8 100 0.200034
7 10 8 100 0.249961
8 10 8 100 0.4
2 11 8 100 0.0833333
4 11 8 100 0.0833333
6 11 8 100 0.25
7 11 8 100 0.25
8 11 8 100 0.333333
2 12 8 100 0.125
5 12 8 100 0.125
6 12 8 100 0.125
7 12 8 100 0.5
8 12 8 100 0.125
2 13 8 100 0.142857
6 13 8 100 0.142857
7 13 8 100 0.285714
8 13 8 100 0.428571
3 14 8 100 0.25
7 14 8 100 0.25
8 14 8 100 0.5
5 15 8 100 0.5
7 15 8 100 0.499991
8 15 8 100 8.69709e-06
6 16 8 100 0.5
8 16 8 100 0.5
1 17 8 100 0.210145
8 17 8 100 0.789855
1 1 9 100 0.9375
5 1 9 100 0.0625
0 2 9 100 3.95622e-06
1 2 9 100 0.18764
2 2 9 100 0.749857
6 2 9 100 0.0625
0 3 9 100 0.00106761
1 3 9 100 0.12435
2 3 9 100 0.193379
3 3 9 100 0.556204
6 3 9 100 0.0625
7 3 9 100 0.0625
0 4 9 100 0.00068266
1 4 9 100 0.0611813
2 4 9 100 0.188301
3 4 9 100 0.312333
4 4 9 100 0.375017
5 4 9 100 0.0624847
1 5 9 100 0.0625
3 5 9 100 0.1875
4 5 9 100 0.439386
5 5 9 100 0.248114
8 5 9 100 0.0625
0 6 9 100 0.00030535
2 6 9 100 0.124822
3 6 9 100 0.0625006
4 6 9 100 0.158389
5 6 9 100 0.529834
6 6 9 100 0.0625047
8 6 9 100 0.0616439
3 7 9 100 0.0625
4 7 9 100 0.125
5 7 9 100 0.206707
6 7 9 100 0.463533
7 7 9 100 0.0797604
8 7 9 100 0.0625
0 8 9 100 0.0624601
2 8 9 100 2.12632e-05
3 8 9 100 0.0624907
4 8 9 100 0.125002
5 8 9 100 2.6007e-05
6 8 9 100 0.375
7 8 9 100 0.3125
8 8 9 100 0.0625
0 9 9 100 1.53893e-06
4 9 9 100 0.0625001
5 9 9 100 0.1875
6 9 9 100 0.249998
7 9 9 100 0.246617
8 9 9 100 0.1875
9 9 9 100 0.065883
0 10 9 100 2.69534e-06
5 10 9 100 0.200008
6 10 9 100 0.133336
7 10 9 100 0.33332
8 10 9 100 0.133333
9 10 9 100 0.2
0 11 9 100 3.32811e-05
3 11 9 100 0.0909092
5 11 9 100 0.0909083
6 11 9 100 0.181818
7 11 9 100 0.272694
8 11 9 100 0.363637
0 12 9 100 3.56775e-06
2 12 9 100 1.92896e-05
3 12 9 100 3.60458e-06
6 12 9 100 0.181794
7 12 9 100 0.18182
8 12 9 100 0.363633
9 12 9 100 0.272727
0 13 9 100 0.124654
3 13 9 100 0.000344309
5 13 9 100 1.79683e-06
7 13 9 100 0.125
8 13 9 100 0.375
9 13 9 100 0.375
7 14 9 100 0.2
8 14 9 100 0.2
9 14 9 100 0.6
8 15 9 100 0.5
9 15 9 100 0.5
8 16 9 100 1
9 17 9 100 1
1 1 10 100 0.941176
2 1 10 100 0.0588235
0 2 10 100 0.00182458
1 2 10 100 0.145879
2 2 10 100 0.79347
3 2 10 100 0.0588267
0 3 10 100 0.000123189
2 3 10 100 0.470605
3 3 10 100 0.352848
4 3 10 100 0.117596
5 3 10 100 0.0588278
0 4 10 100 0.00316674
2 4 10 100 0.107326
3 4 10 100 0.536566
4 4 10 100 0.294118
7 4 10 100 0.0588235
1 5 10 100 0.0588094
2 5 10 100 0.0588235
3 5 10 100 0.294118
4 5 10 100 0.411778
5 5 10 100 0.176471
0 6 10 100 0.0129992
2 6 10 100 0.176471
3 6 10 100 0.235132
4 6 10 100 0.176467
5 6 10 100 0.22246
6 6 10 100 0.117648
8 6 10 100 0.0588235
0 7 10 100 0.0584092
2 7 10 100 6.92033e-07
4 7 10 100 0.352933
5 7 10 100 0.235294
6 7 10 100 0.235293
7 7 10 100 0.0592465
8 7 10 100 0.0588235
0 8 10 100 0.000175308
2 8 10 100 0.0588235
3 8 10 100 0.0588235
4 8 10 100 0.235081
5 8 10 100 0.294118
6 8 10 100 0.176509
7 8 10 100 0.117647
8 8 10 100 0.0588235
0 9 10 100 0.0202705
3 9 10 100 0.0588236
4 9 10 100 2.1444e-05
5 9 10 100 0.293859
6 9 10 100 0.198778
7 9 10 100 0.193025
8 9 10 100 0.235222
0 10 10 100 0.0589863
3 10 10 100 0.0588257
4 10 10 100 0.0588178
5 10 10 100 0.117495
6 10 10 100 0.235294
7 10 10 100 0.059268
8 10 10 100 0.293666
9 10 10 100 0.0588236
10 10 10 100 0.0588234
0 11 10 100 0.0626003
2 11 10 100 8.11359e-07
4 11 10 100 0.0625
5 11 10 100 0.0625
6 11 10 100 0.374984
7 11 10 100 0.249741
8 11 10 100 0.0626739
9 11 10 100 0.0625
10 11 10 100 0.0625
0 12 10 100 0.0666468
4 12 10 100 0.0666667
5 12 10 100 1.95904e-05
6 12 10 100 0.133333
7 12 10 100 0.333333
8 12 10 100 0.266667
9 12 10 100 0.0666667
10 12 10 100 0.0666667
0 13 10 100 0.0045389
5 13 10 100 0.0714286
6 13 10 100 0.0714286
7 13 10 100 0.208838
8 13 10 100 0.286623
9 13 10 100 0.357143
6 14 10 100 0.142857
7 14 10 100 0.0716231
8 14 10 100 0.142856
9 14 10 100 0.356949
10 14 10 100 0.285714
0 15 10 100 5.25214e-05
3 15 10 100 1.2279e-05
4 15 10 100 1.67743e-05
6 15 10 100 0.100204
7 15 10 100 0.0982645
8 15 10 100 0.198223
9 15 10 100 0.203227
10 15 10 100 0.4
7 16 10 100 0.166667
8 16 10 100 0.166682
9 16 10 100 0.499985
10 16 10 100 0.166667
6 17 10 100 0.2
8 17 10 100 0.2
10 17 10 100 0.6
7 18 10 100 0.5
9 18 10 100 0.5
8 19 10 100 0.499969
9 19 10 100 3.03839e-05
10 19 10 100 0.5
10 20 10 100 1
1 1 11 100 0.928545
2 1 11 100 0.0714554
0 2 11 100 0.0158716
1 2 11 100 0.275407
2 2 11 100 0.66045
3 2 11 100 0.0482708
0 3 11 100 0.0729547
1 3 11 100 0.0714285
2 3 11 100 0.572627
3 3 11 100 0.275603
4 3 11 100 0.00738688
5 3 11 100 7.25496e-07
0 4 11 100 0.000290644
2 4 11 100 0.214122
3 4 11 100 0.571302
4 4 11 100 0.214286
0 5 11 100 0.000335159
3 5 11 100 0.356809
4 5 11 100 0.42857
5 5 11 100 0.142857
6 5 11 100 0.0714286
0 6 11 100 0.00237466
2 6 11 100 0.142857
3 6 11 100 0.285714
4 6 11 100 0.069056
5 6 11 100 0.499998
0 7 11 100 5.88941e-05
1 7 11 100 0.0714194
3 7 11 100 0.142847
4 7 11 100 0.357143
5 7 11 100 0.143356
6 7 11 100 0.285174
8 7 11 100 1.8628e-06
0 8 11 100 1.60381e-05
2 8 11 100 0.0714277
3 8 11 100 0.0714286
4 8 11 100 0.142857
5 8 11 100 0.285699
6 8 11 100 0.275702
7 8 11 100 0.15287
2 9 11 100 7.14889e-06
3 9 11 100 0.0714318
5 9 11 100 0.214286
6 9 11 100 0.285714
7 9 11 100 0.357132
8 9 11 100 0.0714286
4 10 11 100 0.0714286
6 10 11 100 0.285714
7 10 11 100 0.142857
8 10 11 100 0.5
0 11 11 100 0.131398
2 11 11 100 0.000785323
3 11 11 100 7.77284e-05
5 11 11 100 0.071441
6 11 11 100 0.0714165
7 11 11 100 0.285998
8 11 11 100 0.224642
9 11 11 100 0.214241
0 12 11 100 0.00513555
3 12 11 100 0.000119167
6 12 11 100 0.142857
7 12 11 100 0.142853
8 12 11 100 0.142789
9 12 11 100 0.423388
10 12 11 100 0.142857
7 13 11 100 0.142857
8 13 11 100 0.214286
9 13 11 100 0.14292
10 13 11 100 0.35708
11 13 11 100 0.142857
8 14 11 100 0.270685
9 14 11 100 0.145981
10 14 11 100 0.25
11 14 11 100 0.333333
7 15 11 100 0.124998
8 15 11 100 1.64907e-06
9 15 11 100 0.386589
10 15 11 100 0.113411
11 15 11 100 0.375
0 16 11 100 0.000122177
8 16 11 100 0.2
9 16 11 100 0.199878
10 16 11 100 0.4
11 16 11 100 0.2
9 17 11 100 0.25
10 17 11 100 0.5
11 17 11 100 0.25
10 18 11 100 0.666667
11 18 11 100 0.333333
10 19 11 100 0.5
11 19 11 100 0.5
11 20 11 100 1
1 1 12 100 0.857143
2 1 12 100 0.142857
0 2 12 100 1.3264e-05
1 2 12 100 0.14285
2 2 12 100 0.785472
3 2 12 100 0.0716649
0 3 12 100 0.0041531
2 3 12 100 0.567353
3 3 12 100 0.357066
4 3 12 100 0.0714286
2 4 12 100 0.000320985
3 4 12 100 0.571114
4 4 12 100 0.357136
5 4 12 100 0.0714286
0 5 12 100 0.000135299
3 5 12 100 0.214286
4 5 12 100 0.429035
5 5 12 100 0.285115
6 5 12 100 0.0714286
0 6 12 100 0.0714281
2 6 12 100 6.30227e-06
3 6 12 100 0.0714287
4 6 12 100 0.142858
5 6 12 100 0.428527
6 6 12 100 0.214322
7 6 12 100 0.0714287
12 6 12 100 8.19307e-07
0 7 12 100 3.14334e-05
3 7 12 100 0.142857
4 7 12 100 0.13368
5 7 12 100 0.105119
6 7 12 100 0.475455
7 7 12 100 0.0714541
8 7 12 100 0.071403
0 8 12 100 0.00168517
3 8 12 100 0.0714297
4 8 12 100 0.0678055
5 8 12 100 0.214274
6 8 12 100 0.14649
7 8 12 100 0.355458
8 8 12 100 0.142857
0 9 12 100 0.00799163
2 9 12 100 1.84363e-05
3 9 12 100 0.0714286
4 9 12 100 0.0714286
5 9 12 100 0.0158009
6 9 12 100 0.348912
7 9 12 100 0.142857
8 9 12 100 0.214286
9 9 12 100 0.127277
0 10 12 100 0.000194761
4 10 12 100 0.0714286
5 10 12 100 0.0272787
6 10 12 100 0.184541
7 10 12 100 0.287985
8 10 12 100 0.21148
9 10 12 100 0.0771717
10 10 12 100 0.13992
0 11 12 100 3.46978e-05
1 11 12 100 4.39076e-05
5 11 12 100 0.0714286
7 11 12 100 0.357108
8 11 12 100 0.214242
9 11 12 100 0.142858
10 11 12 100 0.142856
11 11 12 100 0.0714286
0 12 12 100 0.000273905
6 12 12 100 0.0714286
8 12 12 100 0.289023
9 12 12 100 0.353482
10 12 12 100 0.142936
11 12 12 100 0.0714286
12 12 12 100 0.0714286
0 13 12 100 2.70167e-05
6 13 12 100 0.000486799
7 13 12 100 0.0764363
8 13 12 100 0.153819
9 13 12 100 0.270342
10 13 12 100 0.26812
11 13 12 100 0.153846
12 13 12 100 0.0769231
0 14 12 100 6.46114e-06
8 14 12 100 0.166665
9 14 12 100 0.166663
10 14 12 100 0.25
11 14 12 100 0.333333
12 14 12 100 0.0833333
9 15 12 100 0.181818
10 15 12 100 0.272727
11 15 12 100 0.0909091
12 15 12 100 0.454545
8 16 12 100 0.166667
10 16 12 100 0.333661
11 16 12 100 0.332742
12 16 12 100 0.166929
9 17 12 100 0.25
10 17 12 100 4.59191e-05
11 17 12 100 0.749954
10 18 12 100 0.25
11 18 12 100 0.25
12 18 12 100 0.5
11 19 12 100 0.999995
12 19 12 100 5.154e-06
12 20 12 100 1
1 1 13 100 0.9375
2 1 13 100 0.0625
0 2 13 100 6.89735e-06
1 2 13 100 0.185308
2 2 13 100 0.70373
3 2 13 100 0.110955
0 3 13 100 9.58732e-05
2 3 13 100 0.436775
3 3 13 100 0.31936
4 3 13 100 0.118769
5 3 13 100 0.125
0 4 13 100 0.000329354
2 4 13 100 0.0624945
3 4 13 100 0.562187
4 4 13 100 0.249989
5 4 13 100 0.0625
6 4 13 100 0.0625
0 5 13 100 1.16475e-05
3 5 13 100 0.0625
4 5 13 100 0.562494
5 5 13 100 0.249994
6 5 13 100 0.125
0 6 13 100 1.32535e-06
2 6 13 100 0.0625
4 6 13 100 0.124656
5 6 13 100 0.500322
6 6 13 100 0.312521
0 7 13 100 0.0627816
3 7 13 100 0.124893
5 7 13 100 0.364379
6 7 13 100 0.385436
7 7 13 100 0.0624961
8 7 13 100 1.49055e-05
0 8 13 100 0.000161079
1 8 13 100 0.0625001
5 8 13 100 0.187505
6 8 13 100 0.437333
7 8 13 100 0.250001
9 8 13 100 0.0625001
0 9 13 100 0.0625543
2 9 13 100 0.062502
3 9 13 100 0.0623182
6 9 13 100 0.186886
7 9 13 100 0.500594
8 9 13 100 0.125122
9 9 13 100 2.37351e-05
3 10 13 100 0.0625
6 10 13 100 0.0625
7 10 13 100 0.1875
8 10 13 100 0.312962
9 10 13 100 0.249534
10 10 13 100 0.125004
0 11 13 100 0.000581026
4 11 13 100 0.00096502
5 11 13 100 5.48603e-06
7 11 13 100 0.125006
8 11 13 100 0.250067
9 11 13 100 0.560779
10 11 13 100 0.0625965
0 12 13 100 0.0709242
4 12 13 100 0.0625001
5 12 13 100 7.19116e-06
7 12 13 100 5.67332e-05
8 12 13 100 0.179935
9 12 13 100 0.374037
10 12 13 100 0.249963
11 12 13 100 0.062578
5 13 13 100 0.0625
7 13 13 100 8.40814e-07
8 13 13 100 0.145445
9 13 13 100 0.104575
10 13 13 100 0.375012
11 13 13 100 0.249968
13 13 13 100 0.0624999
0 14 13 100 0.0818322
2 14 13 100 8.26914e-06
7 14 13 100 2.82396e-06
8 14 13 100 0.0522309
9 14 13 100 0.133572
10 14 13 100 0.465732
11 14 13 100 0.0677702
12 14 13 100 0.198852
0 15 13 100 0.000301028
5 15 13 100 1.81681e-06
6 15 13 100 0.0666667
8 15 13 100 0.0534642
9 15 13 100 0.145498
10 15 13 100 2.43729e-05
11 15 13 100 0.534026
12 15 13 100 0.133351
13 15 13 100 0.0666667
0 16 13 100 3.45947e-06
7 16 13 100 0.0714286
9 16 13 100 0.0714286
10 16 13 100 0.142857
11 16 13 100 0.0714286
12 16 13 100 0.499997
13 16 13 100 0.142857
5 17 13 100 3.43519e-05
8 17 13 100 0.0833334
9 17 13 100 0.000557638
10 17 13 100 0.25
11 17 13 100 0.166109
12 17 13 100 0.0833334
13 17 13 100 0.416632
0 18 13 100 6.06354e-06
9 18 13 100 0.142857
10 18 13 100 0.142857
11 18 13 100 0.142851
12 18 13 100 0.428572
13 18 13 100 0.142857
0 19 13 100 0.00293696
4 19 13 100 0.000238931
8 19 13 100 0.163729
12 19 13 100 0.5
13 19 13 100 0.333095
11 20 13 100 0.25
13 20 13 100 0.75
0 21 13 100 0.868094
9 21 13 100 0.00671843
11 21 13 100 0.125187
10 22 13 100 1
11 23 13 100 1
12 24 13 100 1
12 25 13 100 1
13 26 13 100 1
1 1 14 100 0.9
2 1 14 100 0.1
0 2 14 100 0.00355667
1 2 14 100 0.199999
2 2 14 100 0.789412
3 2 14 100 0.00703053
14 2 14 100 1.21641e-06
0 3 14 100 0.0105124
1 3 14 100 0.1
2 3 14 100 0.200143
3 3 14 100 0.689344
5 3 14 100 1.00941e-06
0 4 14 100 1.93054e-05
2 4 14 100 0.300005
3 4 14 100 0.199976
4 4 14 100 0.300061
5 4 14 100 0.0999391
7 4 14 100 0.1
2 5 14 100 0.2
3 5 14 100 0.2
4 5 14 100 0.1
5 5 14 100 0.300013
6 5 14 100 0.0999851
8 5 14 100 0.0999999
9 5 14 100 1.97945e-06
0 6 14 100 0.000808273
2 6 14 100 0.097551
3 6 14 100 0.301621
4 6 14 100 0.19919
5 6 14 100 0.100058
6 6 14 100 0.200779
7 6 14 100 0.0999916
9 6 14 100 1.76171e-06
3 7 14 100 0.2
4 7 14 100 0.299776
5 7 14 100 0.100224
6 7 14 100 0.299958
7 7 14 100 0.100042
0 8 14 100 0.0312782
4 8 14 100 0.299992
5 8 14 100 0.168729
6 8 14 100 0.1
7 8 14 100 0.4
3 9 14 100 0.000379575
4 9 14 100 0.099993
5 9 14 100 0.299627
6 9 14 100 0.1
7 9 14 100 0.100306
8 9 14 100 0.399694
0 10 14 100 0.00184184
3 10 14 100 0.00602874
5 10 14 100 0.100027
6 10 14 100 0.292095
7 10 14 100 0.200008
9 10 14 100 0.3
10 10 14 100 0.1
0 11 14 100 0.0999136
2 11 14 100 9.74598e-06
5 11 14 100 0.1
6 11 14 100 0.1
7 11 14 100 0.3
8 11 14 100 0.1
9 11 14 100 0.1
10 11 14 100 0.2
11 11 14 100 7.66745e-05
5 12 14 100 0.000217753
6 12 14 100 0.1
7 12 14 100 0.200025
8 12 14 100 0.2
9 12 14 100 0.2
10 12 14 100 0.199782
13 12 14 100 0.099975
0 13 14 100 0.0989518
3 13 14 100 1.76167e-06
5 13 14 100 0.000671879
7 13 14 100 0.1
8 13 14 100 0.2
9 13 14 100 0.399316
10 13 14 100 0.101046
11 13 14 100 0.1
12 13 14 100 1.20545e-05
0 14 14 100 0.000158235
8 14 14 100 0.199842
9 14 14 100 0.300001
10 14 14 100 0.199999
11 14 14 100 0.1
12 14 14 100 0.1
14 14 14 100 0.1
0 15 14 100 0.105997
8 15 14 100 0.00511634
10 15 14 100 0.666664
11 15 14 100 0.111111
13 15 14 100 0.111111
8 16 14 100 0.111111
10 16 14 100 0.333939
11 16 14 100 0.332727
12 16 14 100 0.111111
14 16 14 100 0.111111
0 17 14 100 0.125455
9 17 14 100 0.125
10 17 14 100 0.124968
11 17 14 100 0.373299
12 17 14 100 0.00127636
13 17 14 100 0.250001
0 18 14 100 0.000513941
9 18 14 100 0.24586
10 18 14 100 0.0041394
11 18 14 100 0.249486
12 18 14 100 0.125
13 18 14 100 0.249803
14 18 14 100 0.125198
0 19 14 100 0.166667
10 19 14 100 0.166667
12 19 14 100 0.333333
13 19 14 100 0.333333
10 20 14 100 0.166667
11 20 14 100 0.166667
13 20 14 100 0.499999
14 20 14 100 0.166667
11 21 14 100 0.200002
12 21 14 100 0.199998
13 21 14 100 0.2
14 21 14 100 0.4
12 22 14 100 0.666667
14 22 14 100 0.333333
13 23 14 100 1
14 24 14 100 1
1 1 15 100 1
0 2 15 100 0.00725117
2 2 15 100 0.992749
2 3 15 100 0.256181
3 3 15 100 0.622814
4 3 15 100 0.121004
2 4 15 100 0.125
3 4 15 100 0.125498
4 4 15 100 0.499502
5 4 15 100 0.25
0 5 15 100 0.000987091
3 5 15 100 0.128199
4 5 15 100 0.245811
5 5 15 100 0.500003
7 5 15 100 0.0716664
8 5 15 100 0.0533336
0 6 15 100 0.125009
2 6 15 100 7.01485e-06
4 6 15 100 0.000388692
5 6 15 100 0.624596
6 6 15 100 0.25
0 7 15 100 9.27271e-05
4 7 15 100 0.125003
5 7 15 100 0.125
6 7 15 100 0.374907
7 7 15 100 0.249997
9 7 15 100 0.125
0 8 15 100 0.0919401
3 8 15 100 0.124998
4 8 15 100 1.73764e-06
6 8 15 100 0.407631
7 8 15 100 0.125429
8 8 15 100 0.125
10 8 15 100 0.125
0 9 15 100 7.65474e-06
2 9 15 100 1.48627e-06
3 9 15 100 0.000332138
4 9 15 100 0.125
7 9 15 100 0.624624
8 9 15 100 0.125043
10 9 15 100 0.124992
0 10 15 100 2.97442e-06
3 10 15 100 6.97079e-05
6 10 15 100 0.249999
7 10 15 100 0.12493
8 10 15 100 0.374997
10 10 15 100 0.125
11 10 15 100 0.125
7 11 15 100 0.00041802
8 11 15 100 0.260819
9 11 15 100 0.363785
11 11 15 100 0.249999
12 11 15 100 0.124978
0 12 15 100 0.125035
6 12 15 100 4.02983e-06
7 12 15 100 0.125
8 12 15 100 0.248371
9 12 15 100 0.254386
11 12 15 100 0.122204
13 12 15 100 0.125
0 13 15 100 9.53134e-05
7 13 15 100 0.124859
8 13 15 100 4.5827e-05
9 13 15 100 0.375
10 13 15 100 0.25
12 13 15 100 0.125
14 13 15 100 0.125
8 14 15 100 0.125
10 14 15 100 0.375
11 14 15 100 0.125
13 14 15 100 0.25
14 14 15 100 0.125
9 15 15 100 0.125
10 15 15 100 0.124997
11 15 15 100 0.250003
12 15 15 100 0.150265
13 15 15 100 0.099735
14 15 15 100 0.125
15 15 15 100 0.125
0 16 15 100 8.51955e-05
6 16 15 100 4.03361e-06
9 16 15 100 1.77392e-05
10 16 15 100 0.142857
11 16 15 100 0.285607
12 16 15 100 0.285715
14 16 15 100 0.142857
15 16 15 100 0.142857
6 17 15 100 2.6863e-05
11 17 15 100 0.333306
13 17 15 100 0.5
15 17 15 100 0.166667
12 18 15 100 0.4
13 18 15 100 0.212926
14 18 15 100 0.387073
0 19 15 100 1.97186e-05
2 19 15 100 2.26053e-06
5 19 15 100 1.01453e-05
13 19 15 100 0.399968
14 19 15 100 0.2
15 19 15 100 0.4
14 20 15 100 0.666667
15 20 15 100 0.333333
15 21 15 100 1
1 1 16 100 0.8
2 1 16 100 0.2
0 2 16 100 0.00712271
1 2 16 100 0.199973
2 2 16 100 0.59284
3 2 16 100 0.2
5 2 16 100 6.44543e-05
0 3 16 100 0.0227609
2 3 16 100 0.6
3 3 16 100 0.377239
2 4 16 100 0.000325262
3 4 16 100 0.799675
4 4 16 100 0.2
2 5 16 100 0.2
4 5 16 100 0.4
5 5 16 100 0.4
3 6 16 100 0.2
4 6 16 100 0.399999
5 6 16 100 0.2
6 6 16 100 0.2
0 7 16 100 0.00200511
4 7 16 100 0.2
5 7 16 100 0.59799
7 7 16 100 0.2
12 7 16 100 4.67554e-06
0 8 16 100 0.00184767
5 8 16 100 0.398152
6 8 16 100 0.4
8 8 16 100 0.2
6 9 16 100 0.8
9 9 16 100 0.2
6 10 16 100 0.199993
7 10 16 100 0.600007
10 10 16 100 0.2
7 11 16 100 0.2
8 11 16 100 0.599337
9 11 16 100 0.000663386
11 11 16 100 0.2
8 12 16 100 0.207631
9 12 16 100 0.392369
10 12 16 100 0.2
12 12 16 100 0.2
8 13 16 100 8.83671e-06
9 13 16 100 0.399991
10 13 16 100 0.2
11 13 16 100 0.4
0 14 16 100 8.76467e-05
4 14 16 100 0.199993
9 14 16 100 0.2
10 14 16 100 0.199919
12 14 16 100 0.4
0 15 16 100 0.00888781
5 15 16 100 1.05222e-05
10 15 16 100 0.400717
12 15 16 100 0.199283
13 15 16 100 0.391102
10 16 16 100 0.4
11 16 16 100 0.2
12 16 16 100 0.199974
13 16 16 100 2.559e-05
14 16 16 100 0.2
0 17 16 100 1.55008e-05
11 17 16 100 0.2
12 17 16 100 0.599984
15 17 16 100 0.199682
16 17 16 100 0.000317944
11 18 16 100 0.25
12 18 16 100 0.5
15 18 16 100 0.244442
16 18 16 100 0.00555763
8 19 16 100 2.43784e-05
12 19 16 100 0.666641
16 19 16 100 0.333334
13 20 16 100 1
14 21 16 100 1
15 22 16 100 1
16 23 16 100 1
1 1 17 100 0.6
2 1 17 100 0.203337
3 1 17 100 0.196663
2 2 17 100 0.6
3 2 17 100 0.4
2 3 17 100 0.000423775
3 3 17 100 0.594227
4 3 17 100 0.40535
3 4 17 100 0.2
4 4 17 100 0.4
5 4 17 100 0.4
4 5 17 100 0.2
5 5 17 100 0.4
6 5 17 100 0.2
7 5 17 100 0.187652
8 5 17 100 0.0123476
5 6 17 100 0.4
6 6 17 100 0.398923
8 6 17 100 0.2
13 6 17 100 0.0010775
6 7 17 100 0.4
7 7 17 100 0.4
9 7 17 100 0.2
6 8 17 100 0.0151181
7 8 17 100 0.384879
8 8 17 100 0.399999
10 8 17 100 0.2
13 8 17 100 3.54152e-06
0 9 17 100 2.69052e-05
7 9 17 100 0.199351
8 9 17 100 0.200649
9 9 17 100 0.400001
10 9 17 100 0.199973
0 10 17 100 0.000543632
7 10 17 100 0.0170814
8 10 17 100 0.199456
9 10 17 100 0.2
10 10 17 100 0.2
11 10 17 100 0.2
12 10 17 100 0.178357
13 10 17 100 0.00456213
8 11 17 100 0.2
9 11 17 100 0.2
10 11 17 100 0.2
11 11 17 100 0.2
12 11 17 100 0.2
0 12 17 100 6.78076e-06
8 12 17 100 0.199993
10 12 17 100 0.2
11 12 17 100 0.2
12 12 17 100 0.2
13 12 17 100 0.2
0 13 17 100 0.000125226
9 13 17 100 0.2
11 13 17 100 0.199828
12 13 17 100 0.39694
13 13 17 100 0.00303722
14 13 17 100 0.2
17 13 17 100 6.90626e-05
10 14 17 100 0.2
11 14 17 100 0.4
13 14 17 100 0.2
14 14 17 100 0.2
10 15 17 100 0.2
11 15 17 100 0.2
12 15 17 100 0.2
13 15 17 100 0.2
15 15 17 100 0.2
11 16 17 100 0.2
13 16 17 100 0.221816
14 16 17 100 0.178208
15 16 17 100 0.399977
14 17 17 100 0.4
15 17 17 100 0.4
16 17 17 100 0.2
13 18 17 100 0.2
14 18 17 100 0.000834853
15 18 17 100 0.399165
16 18 17 100 0.2
17 18 17 100 0.2
14 19 17 100 0.25
16 19 17 100 0.499604
17 19 17 100 0.250396
16 20 17 100 0.999224
17 20 17 100 0.000776161
16 21 17 100 0.999986
17 21 17 100 1.42324e-05
17 22 17 100 1
1 1 18 100 0.0138867
2 1 18 100 0.986113
2 2 18 100 0.49987
3 2 18 100 0.000130187
4 2 18 100 0.5
4 3 18 100 0.5
5 3 18 100 0.5
5 4 18 100 0.5
6 4 18 100 0.5
6 5 18 100 0.500009
7 5 18 100 0.499991
0 6 18 100 0.0625665
6 6 18 100 0.598962
7 6 18 100 0.338471
7 7 18 100 0.5
8 7 18 100 0.5
7 8 18 100 0.5
9 8 18 100 0.5
10 9 18 100 1
10 10 18 100 0.5
11 10 18 100 0.5
10 11 18 100 0.5
12 11 18 100 0.5
0 12 18 100 0.000186821
8 12 18 100 5.77159e-06
9 12 18 100 0.499807
13 12 18 100 0.5
11 13 18 100 0.500001
13 13 18 100 0.499862
14 13 18 100 0.000136491
12 14 18 100 0.5
14 14 18 100 0.5
0 15 18 100 5.05829e-06
11 15 18 100 0.5
14 15 18 100 0.499989
16 15 18 100 5.37564e-06
12 16 18 100 0.5
15 16 18 100 0.5
13 17 18 100 0.5
16 17 18 100 0.5
14 18 18 100 0.5
17 18 18 100 0.5
15 19 18 100 0.5
17 19 18 100 0.5
15 20 18 100 0.5
18 20 18 100 0.5
15 21 18 100 1
17 22 18 100 1
18 23 18 100 1
1 1 20 100 0.4
2 1 20 100 0.6
2 2 20 100 0.8
3 2 20 100 0.2
0 3 20 100 4.19715e-05
2 3 20 100 0.224324
3 3 20 100 0.741384
12 3 20 100 9.88354e-06
14 3 20 100 0.0342405
2 4 20 100 0.00202307
3 4 20 100 0.397977
4 4 20 100 0.6
4 5 20 100 0.6
5 5 20 100 0.4
0 6 20 100 0.000137744
4 6 20 100 0.399326
5 6 20 100 0.400536
6 6 20 100 0.2
5 7 20 100 0.4
6 7 20 100 0.4
7 7 20 100 0.2
0 8 20 100 0.0079337
6 8 20 100 0.392058
7 8 20 100 0.400006
8 8 20 100 0.2
9 8 20 100 2.37088e-06
5 9 20 100 0.2
6 9 20 100 0.2
8 9 20 100 0.4
9 9 20 100 0.2
0 10 20 100 3.21044e-05
6 10 20 100 3.08528e-05
7 10 20 100 0.2
9 10 20 100 0.599937
10 10 20 100 0.2
0 11 20 100 0.000110701
6 11 20 100 0.2
8 11 20 100 0.2
10 11 20 100 0.599889
7 12 20 100 0.2
9 12 20 100 0.2
10 12 20 100 0.00156631
11 12 20 100 0.598434
8 13 20 100 0.2
10 13 20 100 0.2
12 13 20 100 0.6
0 14 20 100 7.00899e-05
9 14 20 100 5.62961e-06
10 14 20 100 0.200261
11 14 20 100 0.195966
12 14 20 100 0.403697
13 14 20 100 0.200001
11 15 20 100 0.2
13 15 20 100 0.6
14 15 20 100 0.2
0 16 20 100 0.0416518
7 16 20 100 5.40948e-06
11 16 20 100 0.00101
12 16 20 100 0.000707097
13 16 20 100 0.209164
14 16 20 100 4.05735e-06
15 16 20 100 0.591328
16 16 20 100 0.00866664
20 16 20 100 0.147463
0 17 20 100 2.84809e-06
12 17 20 100 0.4
15 17 20 100 0.399997
16 17 20 100 0.2
0 18 20 100 0.000143815
12 18 20 100 9.43994e-06
13 18 20 100 0.199535
14 18 20 100 0.20024
16 18 20 100 0.400001
17 18 20 100 0.2
20 18 20 100 7.08535e-05
0 19 20 100 7.98924e-05
15 19 20 100 0.4
16 19 20 100 0.199915
17 19 20 100 0.2
18 19 20 100 0.2
20 19 20 100 5.3323e-06
0 20 20 100 3.70886e-05
16 20 20 100 0.4
17 20 20 100 0.2
18 20 20 100 0.199963
19 20 20 100 0.2
17 21 20 100 0.4
18 21 20 100 0.4
20 21 20 100 0.2
18 22 20 100 0.75
19 22 20 100 0.249607
20 22 20 100 0.000393234
18 23 20 100 0.333331
19 23 20 100 0.666166
20 23 20 100 0.000502458
19 24 20 100 1
20 25 20 100 1
1 1 21 100 0.25
2 1 21 100 0.75
2 2 21 100 0.753786
3 2 21 100 0.246214
0 3 21 100 0.498339
1 3 21 100 4.65264e-05
2 3 21 100 0.244593
3 3 21 100 0.00663169
4 3 21 100 0.25
21 3 21 100 0.000390523
0 4 21 100 0.000205683
3 4 21 100 0.75
4 4 21 100 0.249787
5 4 21 100 7.57558e-06
4 5 21 100 0.75
5 5 21 100 0.25
0 6 21 100 2.02627e-05
4 6 21 100 0.460997
5 6 21 100 0.288979
6 6 21 100 0.25
21 6 21 100 3.93292e-06
5 7 21 100 0.75
7 7 21 100 0.25
6 8 21 100 0.5
7 8 21 100 0.25
8 8 21 100 0.25
0 9 21 100 1.24198e-05
6 9 21 100 0.499988
8 9 21 100 0.25
9 9 21 100 0.25
7 10 21 100 0.500002
9 10 21 100 0.249997
10 10 21 100 0.250001
8 11 21 100 0.5
9 11 21 100 0.25
11 11 21 100 0.25
7 12 21 100 0.25
9 12 21 100 0.25
10 12 21 100 0.25
13 12 21 100 0.00084203
14 12 21 100 0.249158
0 13 21 100 1.10874e-05
9 13 21 100 0.25
10 13 21 100 0.25
11 13 21 100 0.25
15 13 21 100 0.249974
21 13 21 100 1.5126e-05
9 14 21 100 9.48224e-06
11 14 21 100 0.749991
12 14 21 100 0.0284137
16 14 21 100 0.221586
0 15 21 100 0.249684
4 15 21 100 0.000315764
11 15 21 100 0.25
12 15 21 100 0.5
11 16 21 100 0.25
12 16 21 100 0.499018
13 16 21 100 0.000981786
17 16 21 100 0.25
12 17 21 100 0.250001
13 17 21 100 0.500001
17 17 21 100 0.249998
0 18 21 100 1.50429e-05
13 18 21 100 0.499985
14 18 21 100 0.25
18 18 21 100 0.25
13 19 21 100 0.25
14 19 21 100 0.25
15 19 21 100 0.25
19 19 21 100 0.249999
14 20 21 100 0.25
15 20 21 100 0.25
16 20 21 100 0.25
19 20 21 100 0.25
0 21 21 100 0.0061585
1 21 21 100 6.08608e-05
11 21 21 100 0.236625
15 21 21 100 0.499999
20 21 21 100 0.249656
21 21 21 100 0.00749984
12 22 21 100 0.333334
16 22 21 100 0.666626
19 22 21 100 4.00146e-05
13 23 21 100 0.333333
17 23 21 100 0.666667
0 24 21 100 0.33327
6 24 21 100 6.32394e-05
17 24 21 100 0.333333
18 24 21 100 0.333333
18 25 21 100 0.666667
19 25 21 100 0.333333
17 26 21 100 0.333333
19 26 21 100 0.333333
20 26 21 100 0.332864
21 26 21 100 0.00046879
1 27 21 100 8.43134e-06
19 27 21 100 0.5
20 27 21 100 0.499239
21 27 21 100 0.000752282
20 28 21 100 1
20 29 21 100 1
21 30 21 100 1
1 1 22 100 0.2
2 1 22 100 0.8
0 2 22 100 0.199454
1 2 22 100 0.200546
2 2 22 100 0.200427
3 2 22 100 0.399573
2 3 22 100 0.2
3 3 22 100 0.4
4 3 22 100 0.4
0 4 22 100 0.0349733
1 4 22 100 0.162444
3 4 22 100 0.200614
4 4 22 100 0.39916
5 4 22 100 0.2
10 4 22 100 0.000226216
22 4 22 100 0.00258228
0 5 22 100 0.199998
4 5 22 100 0.200001
5 5 22 100 0.400001
6 5 22 100 0.200001
4 6 22 100 0.4
5 6 22 100 0.2
6 6 22 100 0.2
7 6 22 100 0.2
0 7 22 100 0.2
5 7 22 100 0.4
6 7 22 100 0.2
8 7 22 100 0.2
0 8 22 100 0.213207
5 8 22 100 0.2
6 8 22 100 0.186793
7 8 22 100 0.2
9 8 22 100 0.2
3 9 22 100 0.2
5 9 22 100 0.2
6 9 22 100 0.2
8 9 22 100 0.2
10 9 22 100 0.2
3 10 22 100 0.2
6 10 22 100 0.2
7 10 22 100 0.2
9 10 22 100 0.2
11 10 22 100 0.2
0 11 22 100 0.165128
4 11 22 100 0.2
7 11 22 100 0.2
8 11 22 100 0.2
9 11 22 100 0.199992
22 11 22 100 0.0348802
5 12 22 100 0.2
7 12 22 100 0.2
9 12 22 100 0.2
10 12 22 100 0.2
12 12 22 100 0.2
5 13 22 100 0.2
8 13 22 100 0.195907
9 13 22 100 0.00409291
11 13 22 100 0.2
13 13 22 100 0.4
6 14 22 100 0.2
9 14 22 100 0.2
12 14 22 100 0.4
14 14 22 100 0.2
0 15 22 100 0.000146906
7 15 22 100 0.2
11 15 22 100 0.2
12 15 22 100 0.2
13 15 22 100 0.199853
15 15 22 100 0.2
0 16 22 100 2.00174e-05
8 16 22 100 0.2
12 16 22 100 0.2
13 16 22 100 0.399973
14 16 22 100 4.11791e-06
15 16 22 100 0.00341541
16 16 22 100 0.196575
22 16 22 100 1.25644e-05
0 17 22 100 0.2
9 17 22 100 0.2
13 17 22 100 0.2
14 17 22 100 0.2
16 17 22 100 0.2
0 18 22 100 0.12092
1 18 22 100 0.00243501
10 18 22 100 0.2
14 18 22 100 0.425756
17 18 22 100 0.20644
22 18 22 100 0.0444487
2 19 22 100 2.13504e-06
10 19 22 100 0.2
15 19 22 100 0.599977
16 19 22 100 2.06562e-05
18 19 22 100 0.2
11 20 22 100 0.2
16 20 22 100 0.599999
19 20 22 100 0.2
0 21 22 100 3.14352e-05
12 21 22 100 0.199969
16 21 22 100 0.2
17 21 22 100 0.4
20 21 22 100 0.2
0 22 22 100 8.40943e-06
11 22 22 100 0.2
12 22 22 100 1.53532e-05
16 22 22 100 2.94597e-05
17 22 22 100 0.399992
18 22 22 100 0.199954
21 22 22 100 0.199743
22 22 22 100 0.000257048
0 23 22 100 0.00384479
12 23 22 100 0.246278
17 23 22 100 0.249877
18 23 22 100 0.25
19 23 22 100 0.25
8 24 22 100 0.00100114
9 24 22 100 0.00454423
12 24 22 100 0.251235
14 24 22 100 0.0593009
16 24 22 100 0.00268165
18 24 22 100 0.431236
19 24 22 100 0.25
13 25 22 100 0.25
19 25 22 100 0.75
0 26 22 100 0.248057
9 26 22 100 1.65686e-05
12 26 22 100 0.00191925
16 26 22 100 7.13035e-06
20 26 22 100 0.75
1 27 22 100 0.000141401
14 27 22 100 0.25
21 27 22 100 0.749442
22 27 22 100 0.00041644
2 28 22 100 4.18459e-06
15 28 22 100 0.666662
21 28 22 100 0.333333
17 29 22 100 0.5
22 29 22 100 0.5
18 30 22 100 1
15 31 22 100 1
16 32 22 100 1
17 33 22 100 1
9 34 22 100 6.63774e-05
18 34 22 100 0.999934
19 35 22 100 1
18 36 22 100 1
19 37 22 100 1
20 38 22 100 1
21 39 22 100 1
22 40 22 100 1
6 1 23 100 1
7 2 23 100 1
5 3 23 100 1
0 4 23 100 0.00144579
4 4 23 100 0.998554
5 5 23 100 1
0 6 23 100 0.00195207
4 6 23 100 0.998048
3 7 23 100 0.999969
5 7 23 100 3.06122e-05
6 8 23 100 1
6 9 23 100 1
10 10 23 100 1
11 11 23 100 1
11 12 23 100 1
12 13 23 100 1
13 14 23 100 1
14 15 23 100 1
14 16 23 100 1
15 17 23 100 1
16 18 23 100 1
17 19 23 100 1
0 20 23 100 0.994328
4 20 23 100 0.00567183
15 21 23 100 1.51826e-05
18 21 23 100 0.999985
0 22 23 100 0.0163879
16 22 23 100 2.14361e-05
23 22 23 100 0.983591
19 23 23 100 1
19 24 23 100 1
21 25 23 100 1
22 26 23 100 1
1 1 24 100 1
2 2 24 100 1
0 3 24 100 0.00701286
1 3 24 100 0.992987
2 4 24 100 1
3 5 24 100 1
4 6 24 100 1
5 7 24 100 1
5 8 24 100 1
6 9 24 100 1
7 10 24 100 1
8 11 24 100 1
8 12 24 100 1
9 13 24 100 1
9 14 24 100 1
10 15 24 100 1
10 16 24 100 1
11 17 24 100 1
12 18 24 100 1
13 19 24 100 1
14 20 24 100 1
15 21 24 100 1
16 22 24 100 1
17 23 24 100 1
19 24 24 100 1
18 25 24 100 1.03393e-05
21 25 24 100 0.99999
20 26 24 100 1
21 27 24 100 1
22 28 24 100 1
23 29 24 100 1
24 30 24 100 1
2 1 27 100 1
3 2 27 100 1
4 3 27 100 0.5
5 3 27 100 0.5
0 4 27 100 0.0478977
1 4 27 100 0.444009
6 4 27 100 0.499975
9 4 27 100 7.86943e-06
27 4 27 100 0.00811026
4 5 27 100 0.499947
5 5 27 100 5.25169e-05
6 5 27 100 0.5
0 6 27 100 8.38951e-05
4 6 27 100 0.799635
5 6 27 100 0.200281
5 7 27 100 0.5
6 7 27 100 0.5
6 8 27 100 0.5
7 8 27 100 0.5
0 9 27 100 0.00500429
7 9 27 100 0.500064
8 9 27 100 0.494529
9 9 27 100 1.24899e-05
27 9 27 100 0.000389384
7 10 27 100 0.00678488
8 10 27 100 0.993215
8 11 27 100 0.491493
9 11 27 100 0.508507
9 12 27 100 0.5
10 12 27 100 0.5
10 13 27 100 0.5
11 13 27 100 0.5
10 14 27 100 0.5
12 14 27 100 0.499964
14 14 27 100 3.59789e-05
11 15 27 100 0.5
13 15 27 100 0.5
12 16 27 100 0.5
15 16 27 100 0.5
13 17 27 100 0.0627968
15 17 27 100 0.937203
0 18 27 100 0.000159479
13 18 27 100 0.499707
16 18 27 100 0.500001
24 18 27 100 0.000123985
27 18 27 100 8.4296e-06
14 19 27 100 0.5
17 19 27 100 0.5
14 20 27 100 0.5
17 20 27 100 0.5
0 21 27 100 0.000204053
16 21 27 100 0.5
17 21 27 100 0.499676
27 21 27 100 0.000119556
16 22 27 100 6.25412e-06
17 22 27 100 0.5
18 22 27 100 0.499994
0 23 27 100 0.5
18 23 27 100 0.5
0 24 27 100 7.52656e-06
18 24 27 100 0.499991
19 24 27 100 0.500002
19 25 27 100 0.5
20 25 27 100 0.5
0 26 27 100 8.72608e-05
18 26 27 100 9.36082e-06
19 26 27 100 0.499866
21 26 27 100 0.5
27 26 27 100 3.71635e-05
19 27 27 100 0.5
22 27 27 100 0.5
0 28 27 100 0.499992
17 28 27 100 7.62187e-06
23 28 27 100 0.5
19 29 27 100 0.5
24 29 27 100 0.5
20 30 27 100 0.5
25 30 27 100 0.5
21 31 27 100 0.5
26 31 27 100 0.498189
27 31 27 100 0.00181128
22 32 27 100 1
23 33 27 100 0.998642
25 33 27 100 0.00135844
25 34 27 100 1
25 35 27 100 1
26 36 27 100 0.998663
27 36 27 100 0.00133749
2 1 28 100 1
2 2 28 100 0.5
6 2 28 100 0.5
0 3 28 100 0.804586
1 3 28 100 0.174515
10 3 28 100 5.51765e-06
17 3 28 100 3.53989e-05
28 3 28 100 0.0208581
0 4 28 100 3.53331e-05
2 4 28 100 0.5
23 4 28 100 0.499965
0 5 28 100 0.423005
1 5 28 100 0.0173911
7 5 28 100 0.500002
28 5 28 100 0.0596015
4 6 28 100 0.5
5 6 28 100 0.5
3 7 28 100 0.5
5 7 28 100 0.5
4 8 28 100 0.5
5 8 28 100 0.5
6 9 28 100 1
7 10 28 100 1
8 11 28 100 1
7 12 28 100 0.5
9 12 28 100 0.5
8 13 28 100 0.5
10 13 28 100 0.5
0 14 28 100 0.00368752
8 14 28 100 0.00175118
9 14 28 100 8.75297e-05
10 14 28 100 0.494474
11 14 28 100 0.5
9 15 28 100 0.5
12 15 28 100 0.5
10 16 28 100 0.5
13 16 28 100 0.5
11 17 28 100 0.5
14 17 28 100 0.5
12 18 28 100 0.5
15 18 28 100 0.5
13 19 28 100 0.5
16 19 28 100 0.5
14 20 28 100 0.5
17 20 28 100 0.5
16 21 28 100 0.5
17 21 28 100 0.5
16 22 28 100 0.5
18 22 28 100 0.5
0 23 28 100 3.40833e-05
17 23 28 100 0.499966
19 23 28 100 0.5
18 24 28 100 0.5
20 24 28 100 0.5
0 25 28 100 0.000114224
19 25 28 100 0.49984
21 25 28 100 0.5
28 25 28 100 4.61951e-05
8 26 28 100 5.82236e-06
19 26 28 100 0.499994
21 26 28 100 0.5
0 27 28 100 0.000376134
15 27 28 100 0.0880548
19 27 28 100 0.4113
22 27 28 100 0.500001
28 27 28 100 0.000267661
20 28 28 100 0.5
23 28 28 100 0.5
15 29 28 100 0.000182954
21 29 28 100 0.499819
23 29 28 100 0.499998
22 30 28 100 0.5
24 30 28 100 0.5
23 31 28 100 0.5
25 31 28 100 0.5
24 32 28 100 0.5
27 32 28 100 0.499516
28 32 28 100 0.000484208
23 33 28 100 1
24 34 28 100 1
25 35 28 100 1
27 36 28 100 0.998956
28 36 28 100 0.00104406
1 1 29 100 1
2 2 29 100 1
0 3 29 100 0.000371536
2 3 29 100 0.999628
3 4 29 100 1
3 5 29 100 1
0 6 29 100 2.97631e-05
3 6 29 100 0.00315074
10 6 29 100 0.996819
4 7 29 100 1
5 8 29 100 0.0448401
6 8 29 100 0.95516
7 9 29 100 1
0 10 29 100 0.716689
2 10 29 100 0.00034842
7 10 29 100 0.270437
8 10 29 100 0.0125257
8 11 29 100 1
8 12 29 100 1
9 13 29 100 1
9 14 29 100 1
11 15 29 100 1
12 16 29 100 1
0 17 29 100 0.980536
2 17 29 100 0.000351663
7 17 29 100 7.58167e-05
8 17 29 100 3.89212e-05
12 17 29 100 0.00756317
13 17 29 100 0.0114345
12 18 29 100 1
13 19 29 100 1
14 20 29 100 1
14 21 29 100 1
15 22 29 100 1
16 23 29 100 1
0 24 29 100 0.00090117
16 24 29 100 0.999099
17 25 29 100 1
18 26 29 100 1
19 27 29 100 1
20 28 29 100 1
21 29 29 100 1
25 30 29 100 1
21 31 29 100 1
22 32 29 100 1
23 33 29 100 1
24 34 29 100 1
26 35 29 100 1
27 36 29 100 1
28 37 29 100 1
29 38 29 100 1
2 1 30 100 1
3 2 30 100 1
0 3 30 100 0.000720989
1 3 30 100 0.000375481
8 3 30 100 0.998885
30 3 30 100 1.84867e-05
4 4 30 100 1
5 5 30 100 1
7 6 30 100 1
6 7 30 100 1
9 8 30 100 1
9 9 30 100 1
10 10 30 100 1
11 11 30 100 1
11 12 30 100 1
12 13 30 100 1
12 14 30 100 1
0 15 30 100 1.90841e-05
13 15 30 100 0.999981
14 16 30 100 1
16 17 30 100 1
17 18 30 100 1
21 19 30 100 1
21 20 30 100 1
19 21 30 100 1
0 22 30 100 0.000225452
19 22 30 100 0.999775
20 23 30 100 1
20 24 30 100 1
22 25 30 100 1
23 26 30 100 1
24 27 30 100 1
24 28 30 100 1
0 29 30 100 0.0195027
5 29 30 100 0.342083
24 29 30 100 0.638414
25 30 30 100 1
26 31 30 100 1
27 32 30 100 1
28 33 30 100 1
28 34 30 100 1
29 35 30 100 0.998987
30 35 30 100 0.00101272
2 1 33 100 1
2 2 33 100 0.999462
5 2 33 100 0.000538389
2 3 33 100 1
3 4 33 100 1
6 5 33 100 1
7 6 33 100 1
9 7 33 100 1
10 8 33 100 1
11 9 33 100 1
0 10 33 100 0.0141067
11 10 33 100 0.985893
12 11 33 100 1
13 12 33 100 1
14 13 33 100 1
15 14 33 100 1
14 15 33 100 1
15 16 33 100 1
15 17 33 100 1
8 18 33 100 0.0017634
16 18 33 100 0.998237
17 19 33 100 1
0 20 33 100 0.000321924
17 20 33 100 0.999678
18 21 33 100 1
19 22 33 100 1
20 23 33 100 1
0 24 33 100 0.97204
11 24 33 100 0.00201096
17 24 33 100 0.00045746
26 24 33 100 0.00110604
33 24 33 100 0.0243856
21 25 33 100 1
13 26 33 100 0.000118876
21 26 33 100 0.999881
14 27 33 100 1.47441e-05
21 27 33 100 0.999985
21 28 33 100 1
22 29 33 100 1
23 30 33 100 1
24 31 33 100 1
25 32 33 100 1
26 33 33 100 1
0 34 33 100 0.000267158
26 34 33 100 0.999733
27 35 33 100 1
28 36 33 100 1
29 37 33 100 1
0 38 33 100 0.15767
29 38 33 100 0.84233
14 39 33 100 0.000128792
29 39 33 100 0.99742
30 39 33 100 0.00245099
22 40 33 100 1.98801e-05
29 40 33 100 0.993185
30 40 33 100 0.0067952
0 41 33 100 0.205697
12 41 33 100 0.000434356
25 41 33 100 1.92843e-05
33 41 33 100 0.79385
30 42 33 100 1
31 43 33 100 1
32 44 33 100 1
