2 0 0.419765 0.366983 0.166064 0.0471866 0 0 0 0 0 
3 0.026105 0.515698 0.389028 0.0338129 0.0262652 0.00909039 0 0 0 0 
4 0.0207144 0.582714 0.143821 0.2417 0.0110509 0 0 0 0 0 
5 0.017262 0.651592 0.120519 0.0347514 0.175875 0 0 0 0 0 
6 0.0169431 0.982977 7.96549e-05 0 0 0 0 0 0 0 
7 0.0207144 0.782714 0.143819 0.0417014 0.0110508 0 0 0 0 0 
8 0.00737829 0.315569 0.375895 0.274698 0.0264587 0 0 0 0 0 
9 0.00865749 0.143641 0.847438 0.00026258 0 0 0 0 0 0 
10 0.387872 0.441672 0.158 0.00890077 0.0017778 0.0017778 0 0 0 0 
11 0.00633874 0.795217 0.153125 0.0348416 0.0078787 0.00259902 0 0 0 0 
12 0.0345958 0.958444 0.0054034 0.0011126 0.000222225 0.000222225 0 0 0 0 
13 0.0981795 0.80159 0.0778086 0.0160214 0.00320004 0.00320004 0 0 0 0 
14 0.0414378 0.900062 0.0532561 1.83193e-06 0.00524249 0 0 0 0 0 
15 0.0186465 0.775781 0.156167 0.0241521 0.0187608 0.00649314 0 0 0 0 
16 0.017262 0.818928 0.119849 0.0347512 0.00920901 0 0 0 0 0 
17 0.00614858 0.596307 0.31309 0.0630732 0.0213806 0 0 0 0 0 
18 0.184476 0.802673 0.00997673 0.00205402 0.000410262 0.000410262 0 0 0 0 
19 0.0848902 0.839505 0.0553151 0.016039 0.00425031 0 0 0 0 0 
20 0.0264522 0.841102 0.129109 1.16577e-06 0.00333613 0 0 0 0 0 
21 0 0.999999 0 0 0 0 0 0 0 0 
22 0.0138419 0.316656 0.339951 0.322763 7.87715e-06 0.00677974 0 0 0 0 
23 0.0301752 0.631326 0.256923 0.0627148 0.0141817 0.00467824 0 0 0 0 
24 0.0795869 0.737711 0.15067 0.0245777 0.00248454 0 0.00248453 0 0 0.00248453 
25 0.0263777 0.839244 0.131041 1.16577e-06 0.00333613 0 0 0 0 0 
26 0.070142 0.858251 0.0555913 0.0114438 0.00228574 0.00228574 0 0 0 0 
27 0.0138419 0.516656 0.339951 0.122763 7.87715e-06 0.00677974 0 0 0 0 
28 0.0663224 0.781346 0.125638 0.0204814 0.00207045 0 0.00207044 0 0 0.00207044 
29 0.058013 0.660182 0.274463 2.5647e-06 0.00733949 0 0 0 0 0 
30 0 0.25122 0.535529 0.166064 0.0471866 0 0 0 0 0 
31 0.0173116 0.817666 0.121062 0.0347512 0.00920901 0 0 0 0 0 
32 0 0.14928 0.77544 0.0300092 0.0150822 0.0301882 0 0 0 0 
33 0.0138419 0.516436 0.340171 0.122763 7.87715e-06 0.00677974 0 0 0 0 
34 0.0932016 0.776635 0.119487 0.00819257 0.00082818 0 0.000828176 0 0 0.000828176 
35 0.497153 0.476471 0.020476 0.00421615 0.000842116 0.000842116 0 0 0 0 
36 0.0109282 0.770855 0.198118 0.0136938 0.00381866 0.00174582 0.000840292 0 0 0 
37 0.0568478 0.812651 0.107622 0.0175555 0.00177467 0 0.00177466 0 0 0.00177466 
38 0.107992 0.872508 0.0177521 6.10643e-07 0.0017475 0 0 0 0 0 
39 0 0.224267 0.293434 0.482298 0 0 0 0 0 0 
40 0.261209 0.667036 0.069919 6.41176e-07 0.00183487 0 0 0 0 0 
41 0 0.472324 0.465124 0.0468653 0 0.0156863 0 0 0 0 
42 0.017262 0.818928 0.119849 0.0347512 0.00920901 0 0 0 0 0 
43 0.020035 0.74654 0.196577 0.0251052 0.00700088 0.00320066 0.00154054 0 0 0 
44 0.0795869 0.737711 0.15067 0.0245777 0.00248454 0 0.00248453 0 0 0.00248453 
45 0.0795869 0.737711 0.15067 0.0245777 0.00248454 0 0.00248453 0 0 0.00248453 
46 0.0490897 0.406036 0.533664 0.00801082 0.00160002 0.00160002 0 0 0 0 
47 0.0129465 0.864195 0.0898876 0.0260634 0.00690676 0 0 0 0 0 
48 0.0568478 0.812651 0.107622 0.0175555 0.00177467 0 0.00177466 0 0 0.00177466 
49 0.00835966 0.453143 0.456923 0.0627148 0.0141817 0.00467824 0 0 0 0 
50 0.0221079 0.927141 0.0418532 0.00682714 0.00069015 0 0.000690147 0 0 0.000690147 
51 0 0.227942 0.662678 0.102844 0 0.00653598 0 0 0 0 
52 0.00553675 0.942734 0.0378472 0.0109741 0.00290811 0 0 0 0 0 
53 0.00835966 0.45317 0.456896 0.0627148 0.0141817 0.00467824 0 0 0 0 
54 0.125613 0.714488 0.121473 0.018785 0.0145918 0.00505022 0 0 0 0 
55 0.0795869 0.737711 0.15067 0.0245777 0.00248454 0 0.00248453 0 0 0.00248453 
56 0 0.228554 0.719317 0.0390563 0 0.013072 0 0 0 0 
57 0.024042 0.495848 0.435893 0.0301263 0.00840105 0.00384079 0.00184864 0 0 0 
58 0.0568478 0.812651 0.107622 0.0175555 0.00177467 0 0.00177466 0 0 0.00177466 
59 0.00737829 0.515569 0.375708 0.0756879 0.0256568 0 0 0 0 0 
60 0.00768995 0.17592 0.744417 0.0682018 4.3762e-06 0.00376653 0 0 0 0 
61 0.024042 0.695848 0.235893 0.0301262 0.00840105 0.00384079 0.00184864 0 0 0 
62 0.0682257 0.542003 0.366715 0.011271 0.00875506 0.00303013 0 0 0 0 
63 0.161042 0.34813 0.441422 0.0241521 0.0187608 0.00649314 0 0 0 0 
64 0 0.0917951 0.736576 0.143335 0.00942635 0.0188676 0 0 0 0 
65 0 0.771577 0.115228 0.113195 0 0 0 0 0 0 
66 0.0613622 0.875994 0.0486304 0.0100134 0.00200003 0.00200003 0 0 0 0 
67 0.00464426 0.362857 0.161283 0.349553 0.119065 0.00259902 0 0 0 0 
68 0.0795869 0.737711 0.15067 0.0245777 0.00248454 0 0.00248453 0 0 0.00248453 
69 0.0217542 0.73771 0.182895 0.0281774 0.0218876 0.00757533 0 0 0 0 
70 0.0795869 0.737711 0.15067 0.0245777 0.00248454 0 0.00248453 0 0 0.00248453 
71 0.18734 0.750016 0.0486305 0.0100134 0.00200003 0.00200003 0 0 0 0 
72 0.0207144 0.582716 0.343817 0.0417014 0.0110508 0 0 0 0 0 
73 0.0109282 0.861749 0.107224 0.0136938 0.00381866 0.00174581 0.000840292 0 0 0 
74 0 0.346842 0.577919 0.0299674 0.0150822 0.0301882 0 0 0 0 
75 0.024042 0.51239 0.419351 0.0301262 0.00840105 0.00384079 0.00184864 0 0 0 
76 0.0138126 0.966687 0.017752 6.10643e-07 0.0017475 0 0 0 0 0 
77 0.0981795 0.80159 0.0778086 0.0160214 0.00320004 0.00320004 0 0 0 0 
78 0.0919699 0.826125 0.0599248 0.0173756 0.0046045 0 0 0 0 0 
79 0.00835966 0.453142 0.256933 0.262704 0.0141817 0.00467824 0 0 0 0 
80 0 0.453774 0.483674 0.0468653 0 0.0156863 0 0 0 0 
81 0.0497418 0.33607 0.232867 0.376663 0.00155284 0 0.00155283 0 0 0.00155283 
82 0.024042 0.695848 0.235893 0.0301262 0.00840105 0.00384079 0.00184864 0 0 0 
83 0.026105 0.486099 0.418627 0.0338129 0.0262652 0.00909039 0 0 0 0 
84 0.00835966 0.453142 0.257528 0.26211 0.0141819 0.00467824 0 0 0 0 
85 0.017262 0.818928 0.119849 0.0347512 0.00920901 0 0 0 0 0 
86 0.00835966 0.453158 0.456907 0.0627159 0.0141817 0.00467824 0 0 0 0 
87 0.026105 0.686093 0.218633 0.0338129 0.0262652 0.00909039 0 0 0 0 
88 0.00737829 0.512228 0.379049 0.0756879 0.0256568 0 0 0 0 0 
89 0.0138419 0.316656 0.340111 0.322603 7.87715e-06 0.00677974 0 0 0 0 
90 0.00835966 0.453142 0.456923 0.0627149 0.0141817 0.00467824 0 0 0 0 
91 0.00835966 0.453142 0.256923 0.262715 0.0141817 0.00467824 0 0 0 0 
92 0.0818162 0.834659 0.0648405 0.0133511 0.0026667 0.0026667 0 0 0 0 
93 0.0795869 0.737711 0.15067 0.0245777 0.00248454 0 0.00248453 0 0 0.00248453 
94 0.0186465 0.775781 0.156167 0.0241521 0.0187608 0.00649314 0 0 0 0 
95 0.418035 0.451463 0.107622 0.0175555 0.00177467 0 0.00177466 0 0 0.00177466 
96 0.0911759 0.675399 0.196577 0.0251052 0.00700088 0.00320066 0.00154054 0 0 0 
97 0 0.205943 0.616346 0.138388 0.0393222 0 0 0 0 0 
98 0.00835966 0.65313 0.256936 0.0627148 0.0141817 0.00467824 0 0 0 0 
99 0.024042 0.495848 0.235958 0.230061 0.00840105 0.00384079 0.00184864 0 0 0 
100 0.0207144 0.782661 0.143872 0.0417014 0.0110508 0 0 0 0 0 
101 0.0795869 0.737711 0.15067 0.0245777 0.00248454 0 0.00248453 0 0 0.00248453 
102 0.0218543 0.571709 0.348796 0.0281774 0.0218876 0.00757533 0 0 0 0 
103 0.024042 0.695745 0.235996 0.0301262 0.00840105 0.00384079 0.00184864 0 0 0 
104 0.0795869 0.537815 0.350567 0.0245777 0.00248454 0 0.00248453 0 0 0.00248453 
105 0.020035 0.74654 0.196577 0.0251052 0.00700088 0.00320066 0.00154054 0 0 0 
106 0.00614858 0.450165 0.459232 0.0630732 0.0213806 0 0 0 0 0 
107 0.0138419 0.316988 0.529878 0.132504 7.87715e-06 0.00677974 0 0 0 0 
108 0.0207144 0.582714 0.153561 0.231635 0.0113752 0 0 0 0 0 
109 0.119883 0.334453 0.537656 0.00614443 0.000621135 0 0.000621132 0 0 0.000621132 
110 0.0981795 0.80159 0.0778086 0.0160214 0.00320004 0.00320004 0 0 0 0 
111 0.00527021 0.225424 0.554049 0.19693 0.0183263 0 0 0 0 0 
112 0.0138419 0.316656 0.539951 0.122763 7.87715e-06 0.00677974 0 0 0 0 
113 0 0.122501 0.814747 0.0250265 0.0125685 0.0251568 0 0 0 0 
114 0.0138419 0.316656 0.339951 0.322763 7.87715e-06 0.00677974 0 0 0 0 
115 0 0.127889 0.805635 0.02875 0.0125685 0.0251568 0 0 0 0 
116 0.017262 0.652259 0.119852 0.0386569 0.17197 0 0 0 0 0 
117 0.524741 0.418164 0.0470845 0.00768053 0.000776419 0 0.000776415 0 0 0.000776415 
118 0 0.146843 0.577919 0.0299674 0.0150897 0.230181 0 0 0 0 
119 0 0.560265 0.387608 0.0390544 0 0.013072 0 0 0 0 
120 0.0115349 0.430557 0.449949 0.102303 6.56429e-06 0.00564979 0 0 0 0 
121 0.017262 0.817863 0.120915 0.0347512 0.00920901 0 0 0 0 0 
122 0.0795869 0.737711 0.15067 0.0245777 0.00248454 0 0.00248453 0 0 0.00248453 
123 0.0568478 0.526937 0.393336 0.0175555 0.00177467 0 0.00177466 0 0 0.00177466 
124 0.137879 0.739263 0.0898871 0.0260634 0.00690676 0 0 0 0 0 
125 0.00307429 0.700402 0.254297 0.0315366 0.0106903 0 0 0 0 0 
126 0.026105 0.486093 0.418633 0.0338129 0.0262652 0.00909039 0 0 0 0 
127 0.0207144 0.782714 0.143819 0.0417014 0.0110508 0 0 0 0 0 
128 0.0172649 0.652628 0.286147 0.0347512 0.00920901 0 0 0 0 0 
129 0.0442149 0.729486 0.208504 0.0136543 0.0013803 0 0.00138029 0 0 0.00138029 
130 0.00522479 0.783214 0.160577 0.0391968 0.00886354 0.0029239 0 0 0 0 
131 0.0663224 0.61393 0.293055 0.0204814 0.00207045 0 0.00207044 0 0 0.00207044 
132 0.0138419 0.316656 0.342003 0.320711 7.87715e-06 0.00677974 0 0 0 0 
133 0.0138419 0.516656 0.339951 0.122763 7.87715e-06 0.00677974 0 0 0 0 
134 0.00737829 0.315569 0.375708 0.275688 0.0256568 0 0 0 0 0 
135 0.0795869 0.737711 0.150671 0.0245777 0.00248454 0 0.00248453 0 0 0.00248453 
136 0.0138419 0.516463 0.340144 0.122763 7.87715e-06 0.00677974 0 0 0 0 
137 0.00614858 0.262974 0.326828 0.308202 0.0958467 0 0 0 0 0 
138 0.0795869 0.698103 0.190278 0.0245777 0.00248454 0 0.00248453 0 0 0.00248453 
139 0.024042 0.695779 0.235962 0.0301262 0.00840105 0.00384079 0.00184864 0 0 0 
140 0.0362047 0.790364 0.158872 0.0111717 0.00112934 0 0.00112933 0 0 0.00112933 
141 0.246257 0.662392 0.0753353 0.0122889 0.00124227 0 0.00124226 0 0 0.00124226 
142 0.00835966 0.653142 0.256923 0.0627148 0.0141817 0.00467824 0 0 0 0 
143 0.00737829 0.316008 0.575244 0.0757127 0.0256568 0 0 0 0 0 
144 0.0207144 0.582714 0.143819 0.0417309 0.211021 0 0 0 0 0 
145 0.0981795 0.801586 0.0778132 0.0160214 0.00320004 0.00320004 0 0 0 0 
146 0.232989 0.448093 0.292225 0.0204814 0.00207045 0 0.00207044 0 0 0.00207044 
147 0.00988707 0.654754 0.242822 0.0876879 5.62654e-06 0.00484267 0 0 0 0 
148 0.0568478 0.812641 0.107631 0.0175555 0.00177467 0 0.00177466 0 0 0.00177466 
149 0.0207144 0.782714 0.143819 0.0417014 0.0110508 0 0 0 0 0 
150 0 0.999999 0 0 0 0 0 0 0 0 
151 0.024042 0.695848 0.235893 0.0301262 0.00840105 0.00384079 0.00184864 0 0 0 
152 0.024042 0.518609 0.413132 0.0301263 0.00840105 0.00384079 0.00184864 0 0 0 
153 0 0.472327 0.465121 0.0468653 0 0.0156863 0 0 0 0 
154 0 0.279958 0.657488 0.0468671 0 0.0156863 0 0 0 0 
155 0.0414378 0.752262 0.201056 1.83193e-06 0.00524249 0 0 0 0 0 
156 0.276629 0.445459 0.0432601 0.231096 0.0017778 0.0017778 0 0 0 0 
157 0.00597118 0.752245 0.183516 0.0447963 0.0101298 0.0033416 0 0 0 0 
158 0.00369145 0.257811 0.687825 0.037844 0.0128284 0 0 0 0 0 
159 0.020035 0.746512 0.196605 0.0251052 0.00700088 0.00320066 0.00154054 0 0 0 
160 0.275654 0.667249 0.047087 0.00768053 0.000776419 0 0.000776415 0 0 0.000776415 
161 0.0217542 0.738411 0.182194 0.0281774 0.0218876 0.00757533 0 0 0 0 
162 0.0138419 0.513822 0.342785 0.122763 7.87715e-06 0.00677974 0 0 0 0 
163 0.0795869 0.737711 0.15067 0.0245777 0.00248454 0 0.00248453 0 0 0.00248453 
164 0.024042 0.505329 0.426412 0.0301262 0.00840105 0.00384079 0.00184864 0 0 0 
165 0.0138419 0.516655 0.339952 0.122763 7.87715e-06 0.00677974 0 0 0 0 
166 0.00597118 0.609387 0.183516 0.187653 0.0101298 0.0033416 0 0 0 0 
167 0 0.146843 0.777919 0.0299674 0.0150822 0.0301882 0 0 0 0 
168 0.026105 0.486093 0.262957 0.189489 0.0262653 0.00909039 0 0 0 0 
169 0.0933508 0.789937 0.0982887 0.0125526 0.00350044 0.00160033 0.000770268 0 0 0 
170 0.0663224 0.643766 0.263217 0.020483 0.00207045 0 0.00207044 0 0 0.00207044 
171 0.0797561 0.730091 0.158122 0.0245777 0.00248454 0 0.00248453 0 0 0.00248453 
172 0.00522635 0.368432 0.575252 0.0393025 0.00886354 0.0029239 0 0 0 0 
173 0.653278 0.3456 0.0011223 0 0 0 0 0 0 0 
174 0.0795869 0.537711 0.15067 0.224578 0.00248454 0 0.00248453 0 0 0.00248453 
175 0.0981795 0.80159 0.0778086 0.0160214 0.00320004 0.00320004 0 0 0 0 
176 0.024042 0.695848 0.235893 0.0301262 0.00840105 0.00384079 0.00184864 0 0 0 
177 0.026105 0.685296 0.21943 0.0338129 0.0262652 0.00909039 0 0 0 0 
178 0.024042 0.695848 0.235893 0.0301262 0.00840105 0.00384079 0.00184864 0 0 0 
179 0.0138419 0.516656 0.339951 0.122763 7.87715e-06 0.00677974 0 0 0 0 
180 0.024042 0.513792 0.417949 0.0301262 0.00840105 0.00384079 0.00184864 0 0 0 
181 0.00696638 0.710952 0.214102 0.0522624 0.011818 0.00389853 0 0 0 0 
182 0 0.272327 0.665121 0.0468653 0 0.0156863 0 0 0 0 
183 0.0138419 0.316957 0.539569 0.122844 7.87715e-06 0.00677974 0 0 0 0 
184 0.00835966 0.453223 0.456365 0.0631917 0.0141817 0.00467824 0 0 0 0 
185 0.026105 0.48657 0.418156 0.0338129 0.0262652 0.00909039 0 0 0 0 
186 0.026105 0.686093 0.218633 0.0338129 0.0262652 0.00909039 0 0 0 0 
187 0.0207144 0.582728 0.343805 0.0417014 0.0110508 0 0 0 0 0 
188 0.0795869 0.737311 0.15107 0.0245777 0.00248454 0 0.00248453 0 0 0.00248453 
189 0.0663224 0.612395 0.294589 0.0204814 0.00207045 0 0.00207044 0 0 0.00207044 
190 0.0795869 0.737711 0.15067 0.0245777 0.00248454 0 0.00248453 0 0 0.00248453 
191 0.0242704 0.835321 0.102728 0.0297867 0.00789343 0 0 0 0 0 
192 0.017262 0.8189 0.119877 0.0347512 0.00920901 0 0 0 0 0 
193 0.0931395 0.706779 0.168498 0.0215187 0.00600075 0.00274342 0.00132046 0 0 0 
194 0.0186465 0.490067 0.441877 0.0241558 0.0187608 0.00649314 0 0 0 0 
195 0.0171728 0.782749 0.168495 0.0215187 0.00600075 0.00274342 0.00132046 0 0 0 
196 0.0663224 0.781426 0.125559 0.0204814 0.00207045 0 0.00207044 0 0 0.00207044 
197 0.0207144 0.782714 0.143819 0.0417014 0.0110508 0 0 0 0 0 
198 0.0795869 0.737711 0.15067 0.0245777 0.00248454 0 0.00248453 0 0 0.00248453 
199 0.058013 0.860087 0.0745586 2.5647e-06 0.00733949 0 0 0 0 0 
200 0 0.38315 0.403598 0.166064 0.0471866 0 0 0 0 0 
201 0.0981795 0.601596 0.277803 0.0160214 0.00320004 0.00320004 0 0 0 0 
202 0.00835966 0.653142 0.256923 0.0627148 0.0141817 0.00467824 0 0 0 0 
203 0.00737829 0.315976 0.575301 0.0756879 0.0256568 0 0 0 0 0 
204 0.0981795 0.601591 0.277809 0.0160214 0.00320004 0.00320004 0 0 0 0 
205 0.024042 0.695848 0.235893 0.0301262 0.00840105 0.00384079 0.00184864 0 0 0 
206 0.026105 0.685773 0.218953 0.0338129 0.0262652 0.00909039 0 0 0 0 
207 0.0795869 0.538031 0.35035 0.0245777 0.00248454 0 0.00248453 0 0 0.00248453 
208 0 0.273044 0.664399 0.0468702 0 0.0156863 0 0 0 0 
209 0.0207144 0.62635 0.300183 0.0417014 0.0110508 0 0 0 0 0 
210 0.014796 0.844709 0.102814 0.0297867 0.00789343 0 0 0 0 0 
211 0.00835966 0.453697 0.456369 0.0627148 0.0141817 0.00467824 0 0 0 0 
212 0.0207144 0.782172 0.144361 0.0417014 0.0110508 0 0 0 0 0 
213 0 0.472327 0.465121 0.0468653 0 0.0156863 0 0 0 0 
214 0.0981795 0.80159 0.0778086 0.0160214 0.00320004 0.00320004 0 0 0 0 
215 0.0207144 0.782651 0.143882 0.0417014 0.0110508 0 0 0 0 0 
216 0.0150262 0.559477 0.397861 0.0188289 0.00525066 0.0024005 0.0011554 0 0 0 
217 0.0293127 0.929737 0.0372793 1.28235e-06 0.00366975 0 0 0 0 0 
218 0.0613622 0.875994 0.0486304 0.0100134 0.00200003 0.00200003 0 0 0 0 
219 0.024042 0.495848 0.435893 0.0301262 0.00840105 0.00384079 0.00184864 0 0 0 
220 0 0.53055 0.29174 0.138387 0.0393222 0 0 0 0 0 
221 0.0138419 0.516648 0.339959 0.122763 7.87715e-06 0.00677974 0 0 0 0 
222 0.0171728 0.356075 0.593265 0.0234222 0.00600075 0.00274342 0.00132046 0 0 0 
223 0.026105 0.686093 0.218633 0.0338129 0.0262652 0.00909039 0 0 0 0 
224 0.0207176 0.708084 0.218445 0.0417014 0.0110508 0 0 0 0 0 
225 0.017262 0.818928 0.119849 0.0347512 0.00920901 0 0 0 0 0 
226 0.00737829 0.515569 0.375708 0.0756879 0.0256568 0 0 0 0 0 
227 0.0207144 0.64133 0.285203 0.0417014 0.0110508 0 0 0 0 0 
228 0.026105 0.486635 0.418091 0.0338129 0.0262652 0.00909039 0 0 0 0 
229 0.0138419 0.51612 0.340487 0.122763 7.87715e-06 0.00677974 0 0 0 0 
230 0 0.228861 0.739739 0.0125372 0.00628423 0.0125784 0 0 0 0 
231 0.026105 0.486093 0.418633 0.0338129 0.0262652 0.00909039 0 0 0 0 
232 0.0981795 0.601591 0.277809 0.0160214 0.00320004 0.00320004 0 0 0 0 
233 0.00865749 0.14253 0.848737 7.50827e-05 0 0 0 0 0 0 
234 0.0130525 0.815148 0.137215 0.0169065 0.0131326 0.0045452 0 0 0 0 
235 0.026105 0.686093 0.218633 0.0338129 0.0262652 0.00909039 0 0 0 0 
236 0.0138419 0.516656 0.339951 0.122763 7.87715e-06 0.00677974 0 0 0 0 
237 0 0.272343 0.665023 0.0469471 0 0.0156863 0 0 0 0 
238 0 1.63632e-05 0.361798 0.598191 0.0399947 0 0 0 0 0 
239 0.0228099 0.507688 0.339951 0.122763 7.87715e-06 0.00677974 0 0 0 0 
240 0.00835966 0.453142 0.456923 0.0627148 0.0141817 0.00467824 0 0 0 0 
241 0.146397 0.852022 0.00158095 0 0 0 0 0 0 0 
242 0.00522479 0.662037 0.281754 0.0391968 0.00886354 0.0029239 0 0 0 0 
243 0 0.122369 0.813502 0.0264032 0.0125685 0.0251568 0 0 0 0 
244 0.08327 0.68938 0.20733 0.0153611 0.00155284 0 0.00155283 0 0 0.00155283 
245 0.0138419 0.316656 0.539951 0.122763 7.87715e-06 0.00677974 0 0 0 0 
246 0.0217542 0.406758 0.513847 0.0281779 0.0218876 0.00757533 0 0 0 0 
247 0.00696638 0.710952 0.214102 0.0522624 0.011818 0.00389853 0 0 0 0 
248 0.026105 0.486093 0.418633 0.0338129 0.0262652 0.00909039 0 0 0 0 
249 0.024042 0.695848 0.235893 0.0301262 0.00840105 0.00384079 0.00184864 0 0 0 
250 0.024042 0.695848 0.235893 0.0301262 0.00840105 0.00384079 0.00184864 0 0 0 
251 0.0981795 0.80159 0.0778086 0.0160214 0.00320004 0.00320004 0 0 0 0 
252 0.0663224 0.781426 0.125559 0.0204814 0.00207045 0 0.00207044 0 0 0.00207044 
253 0.0795869 0.737711 0.15067 0.0245777 0.00248454 0 0.00248453 0 0 0.00248453 
254 0.0795869 0.737711 0.15067 0.0245777 0.00248454 0 0.00248453 0 0 0.00248453 
255 0.026105 0.486093 0.218633 0.233813 0.0262652 0.00909039 0 0 0 0 
256 0.026105 0.682811 0.221915 0.0338129 0.0262652 0.00909039 0 0 0 0 
257 0.0795869 0.537711 0.350656 0.0245917 0.00248454 0 0.00248453 0 0 0.00248453 
258 0.00527021 0.36826 0.530188 0.0779543 0.0183263 0 0 0 0 0 
259 0.0663224 0.614761 0.292223 0.0204814 0.00207045 0 0.00207044 0 0 0.00207044 
260 0.014796 0.559081 0.388442 0.0297871 0.00789343 0 0 0 0 0 
261 0.058013 0.860028 0.0746168 2.5647e-06 0.00733949 0 0 0 0 0 
262 0 0.272385 0.665062 0.0468653 0 0.0156863 0 0 0 0 
263 0.818485 0.181515 0 0 0 0 0 0 0 0 
264 0 3.26915e-05 0.320797 0.59918 0.0799896 0 0 0 0 0 
265 0.0217542 0.576416 0.344189 0.0281774 0.0218876 0.00757533 0 0 0 0 
266 0 0.146843 0.777919 0.0299674 0.0150822 0.0301882 0 0 0 0 
267 0.0138419 0.316657 0.539245 0.123468 7.87715e-06 0.00677974 0 0 0 0 
268 0.00737829 0.515534 0.375743 0.0756879 0.0256568 0 0 0 0 0 
269 0.00835966 0.455352 0.454713 0.0627157 0.0141817 0.00467824 0 0 0 0 
270 0.0138419 0.516656 0.339951 0.122763 7.87715e-06 0.00677974 0 0 0 0 
271 0.266695 0.707726 0.0255785 0 0 0 0 0 0 0 
272 0.00835966 0.653142 0.256923 0.0627148 0.0141817 0.00467824 0 0 0 0 
273 0.0138419 0.516656 0.339951 0.122763 7.87715e-06 0.00677974 0 0 0 0 
274 0.024042 0.495848 0.435893 0.0301262 0.00840105 0.00384079 0.00184864 0 0 0 
275 0.0172626 0.65226 0.120114 0.201154 0.00920901 0 0 0 0 0 
276 0.0414378 0.900062 0.0532561 1.83193e-06 0.00524249 0 0 0 0 0 
277 0.026105 0.486093 0.25418 0.198266 0.0262661 0.00909039 0 0 0 0 
278 0.024042 0.695848 0.235893 0.0301262 0.00840105 0.00384079 0.00184864 0 0 0 
279 0.00835966 0.653142 0.256923 0.0627148 0.0141817 0.00467824 0 0 0 0 
280 0.0207144 0.582714 0.343819 0.0417014 0.0110508 0 0 0 0 0 
281 0.024042 0.495848 0.435893 0.0301262 0.00840105 0.00384079 0.00184864 0 0 0 
282 0.024042 0.695848 0.235893 0.0301262 0.00840105 0.00384079 0.00184864 0 0 0 
283 0.155327 0.743017 0.0838608 0.0136543 0.0013803 0 0.00138029 0 0 0.00138029 
284 0.18258 0.75892 0.0532561 1.83193e-06 0.00524249 0 0 0 0 0 
285 0.00835966 0.453142 0.337056 0.182582 0.0141817 0.00467824 0 0 0 0 
286 0.125244 0.759583 0.0951528 0.0153611 0.00155284 0 0.00155283 0 0 0.00155283 
287 0.00696638 0.710886 0.214168 0.0522624 0.011818 0.00389853 0 0 0 0 
288 0.00696638 0.391944 0.53311 0.0522629 0.011818 0.00389853 0 0 0 0 
289 0.0188057 0.775604 0.156184 0.0241521 0.0187608 0.00649314 0 0 0 0 
290 0.020035 0.746526 0.196592 0.0251052 0.00700088 0.00320066 0.00154054 0 0 0 
291 0 0.346842 0.577919 0.0299674 0.0150822 0.0301882 0 0 0 0 
292 0.0138419 0.516656 0.339951 0.122763 7.87715e-06 0.00677974 0 0 0 0 
293 0.024042 0.495848 0.435893 0.0301262 0.00840105 0.00384079 0.00184864 0 0 0 
294 0.0115349 0.430544 0.449961 0.102303 6.56429e-06 0.00564979 0 0 0 0 
295 0.0138419 0.316656 0.340081 0.322633 7.87715e-06 0.00677974 0 0 0 0 
296 0.0207169 0.782711 0.143819 0.0417014 0.0110508 0 0 0 0 0 
297 0 0.472327 0.465121 0.0468653 0 0.0156863 0 0 0 0 
298 0.0207144 0.782714 0.143819 0.0417014 0.0110508 0 0 0 0 0 
299 0.0663224 0.781426 0.125559 0.0204814 0.00207045 0 0.00207044 0 0 0.00207044 
300 0.00696638 0.710952 0.214102 0.0522624 0.011818 0.00389853 0 0 0 0 
301 0.184369 0.745361 0.0579502 0.00945296 0.000955592 0 0.000955588 0 0 0.000955588 
302 0.024042 0.695848 0.235893 0.0301262 0.00840105 0.00384079 0.00184864 0 0 0 
303 0.0770636 0.919794 0.00314244 0 0 0 0 0 0 0 
304 0.020035 0.74654 0.196577 0.0251052 0.00700088 0.00320066 0.00154054 0 0 0 
305 0.0217542 0.738411 0.182194 0.0281774 0.0218876 0.00757533 0 0 0 0 
306 0.00835966 0.453149 0.456916 0.0627155 0.0141817 0.00467824 0 0 0 0 
307 0.024042 0.495848 0.236645 0.229374 0.00840105 0.00384079 0.00184864 0 0 0 
308 0.0207144 0.782016 0.144517 0.0417014 0.0110508 0 0 0 0 0 
309 0.024042 0.695848 0.235893 0.0301262 0.00840105 0.00384079 0.00184864 0 0 0 
310 0.0795869 0.737711 0.15067 0.0245777 0.00248454 0 0.00248453 0 0 0.00248453 
311 0 0.232037 0.705265 0.0249728 0.0125685 0.0251568 0 0 0 0 
312 0.020035 0.74654 0.196577 0.0251052 0.00700088 0.00320066 0.00154054 0 0 0 
313 0.020035 0.579874 0.363244 0.0251052 0.00700088 0.00320066 0.00154054 0 0 0 
314 0 0.226939 0.720934 0.0390544 0 0.013072 0 0 0 0 
315 0.0663742 0.781361 0.125572 0.0204814 0.00207045 0 0.00207044 0 0 0.00207044 
316 0.026105 0.486093 0.418633 0.0338129 0.0262652 0.00909039 0 0 0 0 
317 0.00527021 0.3661 0.55624 0.0540628 0.0183263 0 0 0 0 0 
318 0.0138465 0.516651 0.339951 0.122763 7.87715e-06 0.00677974 0 0 0 0 
319 0.0568478 0.812651 0.107622 0.0175555 0.00177467 0 0.00177466 0 0 0.00177466 
320 0.0663224 0.781426 0.125559 0.0204814 0.00207045 0 0.00207044 0 0 0.00207044 
321 0.0130201 0.473678 0.480332 0.0260634 0.00690676 0 0 0 0 0 
322 0.00737829 0.315569 0.575707 0.0756879 0.0256568 0 0 0 0 0 
323 0 0.643197 0.262473 0.0943289 0 0 0 0 0 0 
324 0.00835966 0.653142 0.256923 0.0627148 0.0141817 0.00467824 0 0 0 0 
325 0.026105 0.486093 0.290951 0.161495 0.0262652 0.00909039 0 0 0 0 
326 0.0497418 0.830934 0.099305 0.0153611 0.00155284 0 0.00155283 0 0 0.00155283 
327 0.014796 0.844795 0.102728 0.0297867 0.00789343 0 0 0 0 0 
328 0.0207144 0.582714 0.343819 0.0417014 0.0110508 0 0 0 0 0 
329 0.024042 0.4959 0.435841 0.0301262 0.00840105 0.00384079 0.00184864 0 0 0 
330 0.0795869 0.537711 0.35067 0.0245777 0.00248454 0 0.00248453 0 0 0.00248453 
331 0 0.146843 0.777868 0.030019 0.0150822 0.0301882 0 0 0 0 
332 0.0545442 0.889773 0.043227 0.00890076 0.0017778 0.0017778 0 0 0 0 
333 0.0171728 0.365078 0.586165 0.0215187 0.00600075 0.00274342 0.00132046 0 0 0 
334 0.017262 0.650547 0.28823 0.0347513 0.00920901 0 0 0 0 0 
335 0.024042 0.499627 0.432114 0.0301262 0.00840105 0.00384079 0.00184864 0 0 0 
336 0.024042 0.692365 0.239376 0.0301262 0.00840105 0.00384079 0.00184864 0 0 0 
337 0.020035 0.74654 0.196577 0.0251052 0.00700088 0.00320066 0.00154054 0 0 0 
338 0.0795869 0.737711 0.15067 0.0245777 0.00248454 0 0.00248453 0 0 0.00248453 
339 0.017262 0.818928 0.119849 0.0347512 0.00920901 0 0 0 0 0 
340 0.0795869 0.737711 0.15067 0.0245777 0.00248454 0 0.00248453 0 0 0.00248453 
341 0.0138419 0.515195 0.341412 0.122763 7.87715e-06 0.00677974 0 0 0 0 
342 0.024042 0.495848 0.435893 0.0301262 0.00840105 0.00384079 0.00184864 0 0 0 
343 0.0568478 0.812651 0.107622 0.0175555 0.00177467 0 0.00177466 0 0 0.00177466 
344 0.00835966 0.453142 0.456923 0.062715 0.0141817 0.00467824 0 0 0 0 
345 0.026105 0.486093 0.418628 0.0338179 0.0262652 0.00909039 0 0 0 0 
346 0.00835966 0.453143 0.456922 0.0627151 0.0141817 0.00467824 0 0 0 0 
347 0.026105 0.486093 0.218633 0.233813 0.0262652 0.00909039 0 0 0 0 
348 0.0207144 0.739846 0.186686 0.0417014 0.0110508 0 0 0 0 0 
349 0 0.315194 0.622254 0.0468653 0 0.0156863 0 0 0 0 
350 0.024042 0.695846 0.235895 0.0301262 0.00840105 0.00384079 0.00184864 0 0 0 
351 0 0.186889 0.57786 0.235251 0 0 0 0 0 0 
352 0.0207144 0.582989 0.343544 0.0417014 0.0110508 0 0 0 0 0 
353 0.00737829 0.315569 0.379432 0.271688 0.0259318 0 0 0 0 0 
354 0.0129465 0.620962 0.333121 0.0260634 0.00690676 0 0 0 0 0 
355 0 0.272329 0.665119 0.0468653 0 0.0156863 0 0 0 0 
356 0 0.234564 0.0795551 0.601008 0.0848727 0 0 0 0 0 
357 0.00835966 0.653142 0.256923 0.0627148 0.0141817 0.00467824 0 0 0 0 
358 0 0.205923 0.283034 0.138478 0.372565 0 0 0 0 0 
359 0 0.455702 0.481599 0.0249728 0.0125685 0.0251568 0 0 0 0 
360 0.0138419 0.316656 0.339954 0.32276 7.87715e-06 0.00677974 0 0 0 0 
361 0 0.272328 0.665117 0.046868 0 0.0156863 0 0 0 0 
362 0.0663671 0.614812 0.292125 0.0204846 0.00207045 0 0.00207044 0 0 0.00207044 
363 0.00737829 0.515568 0.375709 0.0756879 0.0256568 0 0 0 0 0 
364 0.0701282 0.858174 0.0556822 0.0114438 0.00228574 0.00228574 0 0 0 0 
365 0.0701282 0.858279 0.0555776 0.0114438 0.00228574 0.00228574 0 0 0 0 
366 0.0747897 0.794691 0.10764 0.0175555 0.00177467 0 0.00177466 0 0 0.00177466 
367 0 0.227048 0.720825 0.0390548 0 0.013072 0 0 0 0 
368 0.00835966 0.653142 0.256923 0.0627148 0.0141817 0.00467824 0 0 0 0 
369 0.0663224 0.781425 0.12556 0.0204814 0.00207045 0 0.00207044 0 0 0.00207044 
370 0.0217542 0.738411 0.182194 0.0281774 0.0218876 0.00757533 0 0 0 0 
371 0.104373 0.715204 0.0655359 0.109853 0.00503473 0 0 0 0 0 
372 0.137946 0.739184 0.0898991 0.0260634 0.00690676 0 0 0 0 0 
373 0.170242 0.429379 0.315925 0.0630732 0.0213806 0 0 0 0 0 
374 0.0138419 0.316656 0.339951 0.122763 7.87715e-06 0.20678 0 0 0 0 
375 0.0207144 0.585827 0.340682 0.0417258 0.0110508 0 0 0 0 0 
376 0.0818162 0.834593 0.0649064 0.0133511 0.0026667 0.0026667 0 0 0 0 
377 0.017262 0.652326 0.286451 0.0347512 0.00920901 0 0 0 0 0 
378 0.157309 0.692239 0.112772 0.0297867 0.00789343 0 0 0 0 0 
379 0.0138774 0.516619 0.339952 0.122763 7.87715e-06 0.00677974 0 0 0 0 
380 0.026105 0.486093 0.418633 0.0338129 0.0262652 0.00909039 0 0 0 0 
381 0.0138419 0.316656 0.339961 0.322753 7.87715e-06 0.00677974 0 0 0 0 
382 0 0.43185 0.082269 0.401008 0.0848727 0 0 0 0 0 
383 0 0.272327 0.665121 0.0468653 0 0.0156863 0 0 0 0 
384 0.0138419 0.516656 0.339951 0.122763 7.87715e-06 0.00677974 0 0 0 0 
385 0.109887 0.790042 0.0842796 0.0107594 0.00300038 0.00137171 0.000660229 0 0 0 
386 0.0115349 0.430442 0.450061 0.102306 6.56429e-06 0.00564979 0 0 0 0 
387 0.0243136 0.695576 0.235893 0.0301262 0.00840105 0.00384079 0.00184864 0 0 0 
388 0.017262 0.485595 0.28629 0.201644 0.00920901 0 0 0 0 0 
389 0.14909 0.800795 0.0389043 0.00801069 0.00160002 0.00160002 0 0 0 0 
390 0.00737829 0.315569 0.574928 0.0764674 0.0256568 0 0 0 0 0 
391 0.014796 0.416252 0.531272 0.0297867 0.00789343 0 0 0 0 0 
392 0.024042 0.495848 0.435893 0.0301262 0.00840105 0.00384079 0.00184864 0 0 0 
393 0.026105 0.486093 0.218633 0.0338129 0.0262664 0.209089 0 0 0 0 
394 0.0808525 0.736445 0.15067 0.0245777 0.00248454 0 0.00248453 0 0 0.00248453 
395 0.0138419 0.516656 0.339951 0.122763 7.87715e-06 0.00677974 0 0 0 0 
396 0.00696649 0.710921 0.214133 0.0522624 0.011818 0.00389853 0 0 0 0 
397 0.0207144 0.582714 0.143858 0.241663 0.0110508 0 0 0 0 0 
398 0.024042 0.51456 0.417181 0.0301262 0.00840105 0.00384079 0.00184864 0 0 0 
399 0.156085 0.741617 0.084503 0.0136543 0.0013803 0 0.00138029 0 0 0.00138029 
400 0.024042 0.695848 0.235893 0.0301262 0.00840105 0.00384079 0.00184864 0 0 0 
401 0.0818162 0.661553 0.237946 0.0133516 0.0026667 0.0026667 0 0 0 0 
402 0.0795869 0.737711 0.15067 0.0245777 0.00248454 0 0.00248453 0 0 0.00248453 
403 0.0981795 0.601591 0.0778086 0.0160214 0.2032 0.00320004 0 0 0 0 
404 0.0138419 0.516656 0.339951 0.122763 7.87715e-06 0.00677974 0 0 0 0 
405 0.00941563 0.901232 0.065374 0.0189552 0.0050231 0 0 0 0 0 
406 0.0217542 0.738411 0.182194 0.0281774 0.0218876 0.00757533 0 0 0 0 
407 0.212898 0.572652 0.198435 0.0114438 0.00228574 0.00228574 0 0 0 0 
408 0.0207144 0.782714 0.143819 0.0417014 0.0110508 0 0 0 0 0 
409 0.0568478 0.8126 0.107673 0.0175555 0.00177467 0 0.00177466 0 0 0.00177466 
410 0.026105 0.486093 0.218633 0.0340073 0.226071 0.00909039 0 0 0 0 
411 0.017262 0.818924 0.119853 0.0347512 0.00920901 0 0 0 0 0 
412 0.020035 0.413493 0.529625 0.0251052 0.00700088 0.00320066 0.00154054 0 0 0 
413 0.0497418 0.336072 0.594166 0.0153611 0.00155284 0 0.00155283 0 0 0.00155283 
414 0.017262 0.818926 0.119851 0.0347512 0.00920901 0 0 0 0 0 
415 0.0217542 0.405078 0.515527 0.0281774 0.0218876 0.00757533 0 0 0 0 
416 0.00835966 0.653142 0.256923 0.0627148 0.0141817 0.00467824 0 0 0 0 
417 0.00835966 0.653142 0.256923 0.0627148 0.0141817 0.00467824 0 0 0 0 
418 0.024042 0.495848 0.435893 0.0301262 0.00840105 0.00384079 0.00184864 0 0 0 
419 0 0.224266 0.293432 0.482301 0 0 0 0 0 0 
420 0.0270705 0.692819 0.235893 0.0301262 0.00840105 0.00384079 0.00184864 0 0 0 
421 0.00409905 0.286538 0.652819 0.0422908 0.0142538 0 0 0 0 0 
422 0.0207144 0.782714 0.143819 0.0417014 0.0110508 0 0 0 0 0 
423 0.024042 0.695848 0.235893 0.0301262 0.00840105 0.00384079 0.00184864 0 0 0 
424 0.0207144 0.782714 0.143819 0.0417014 0.0110508 0 0 0 0 0 
425 0.024042 0.695848 0.235893 0.0301262 0.00840105 0.00384079 0.00184864 0 0 0 
426 0.213168 0.31733 0.339951 0.122763 7.87715e-06 0.00677974 0 0 0 0 
427 0.0802605 0.737038 0.15067 0.0245777 0.00248454 0 0.00248453 0 0 0.00248453 
428 0.0818337 0.668039 0.231443 0.0133511 0.0026667 0.0026667 0 0 0 0 
429 0.0207144 0.782712 0.143821 0.0417014 0.0110508 0 0 0 0 0 
430 0.0207144 0.58282 0.343713 0.0417014 0.0110508 0 0 0 0 0 
431 0.00835966 0.653142 0.256923 0.0627148 0.0141817 0.00467824 0 0 0 0 
432 0 0.234564 0.0797459 0.571979 0.113711 0 0 0 0 0 
433 0.0207144 0.782487 0.144046 0.0417014 0.0110508 0 0 0 0 0 
434 0.020035 0.74654 0.196578 0.0251052 0.00700088 0.00320066 0.00154054 0 0 0 
435 0.0138419 0.455202 0.401405 0.122763 7.87715e-06 0.00677974 0 0 0 0 
436 0.166457 0.384794 0.214157 0.218875 0.011818 0.00389853 0 0 0 0 
437 0.024042 0.495848 0.235893 0.0301262 0.00840105 0.0739789 0.13171 0 0 0 
438 0.0207144 0.582714 0.343819 0.0417014 0.0110508 0 0 0 0 0 
439 0.248483 0.501325 0.0648405 0.180018 0.0026667 0.0026667 0 0 0 0 
440 0.0207144 0.782714 0.143819 0.0417014 0.0110508 0 0 0 0 0 
441 0.014796 0.844795 0.102728 0.0297867 0.00789343 0 0 0 0 0 
442 0.0207144 0.782714 0.143819 0.0417014 0.0110508 0 0 0 0 0 
443 0.0217542 0.738411 0.182194 0.0281774 0.0218876 0.00757533 0 0 0 0 
444 0.00835966 0.653142 0.256923 0.0627148 0.0141817 0.00467824 0 0 0 0 
445 0.147627 0.773647 0.0653787 0.0102407 0.00103522 0 0.00103522 0 0 0.00103522 
446 0.00835966 0.653142 0.256923 0.0627148 0.0141817 0.00467824 0 0 0 0 
447 0.00835966 0.649727 0.260338 0.0627148 0.0141817 0.00467824 0 0 0 0 
448 0.024042 0.499274 0.432467 0.0301262 0.00840105 0.00384079 0.00184864 0 0 0 
449 0.026105 0.686093 0.218633 0.0338129 0.0262652 0.00909039 0 0 0 0 
450 0.024042 0.695848 0.235893 0.0301262 0.00840105 0.00384079 0.00184864 0 0 0 
451 0.024042 0.695848 0.235893 0.0301262 0.00840105 0.00384079 0.00184864 0 0 0 
452 0.014796 0.703381 0.244142 0.029787 0.00789343 0 0 0 0 0 
453 0.00597118 0.609387 0.326373 0.0447963 0.0101298 0.0033416 0 0 0 0 
454 0.0207144 0.782714 0.143819 0.0417014 0.0110508 0 0 0 0 0 
455 0.0795869 0.736335 0.152047 0.0245777 0.00248454 0 0.00248453 0 0 0.00248453 
456 0.0207144 0.58409 0.342443 0.0417014 0.0110508 0 0 0 0 0 
457 0.00696638 0.710952 0.214102 0.0522624 0.011818 0.00389853 0 0 0 0 
458 0.0207144 0.782714 0.143819 0.0417014 0.0110508 0 0 0 0 0 
459 0.271393 0.545905 0.15067 0.0245777 0.00248454 0 0.00248453 0 0 0.00248453 
460 0.0165531 0.644949 0.256923 0.0627148 0.0141817 0.00467824 0 0 0 0 
461 0.0795869 0.737711 0.15067 0.0245777 0.00248454 0 0.00248453 0 0 0.00248453 
462 0.0795869 0.537711 0.150778 0.22447 0.00248454 0 0.00248453 0 0 0.00248453 
463 0.026105 0.686093 0.218633 0.0338129 0.0262652 0.00909039 0 0 0 0 
464 0.0795869 0.737711 0.15067 0.0245777 0.00248454 0 0.00248453 0 0 0.00248453 
465 0.0795869 0.737711 0.15067 0.0245777 0.00248454 0 0.00248453 0 0 0.00248453 
466 0.0763391 0.920518 0.00314244 0 0 0 0 0 0 0 
467 0.0138419 0.319431 0.53682 0.123119 7.87715e-06 0.00677974 0 0 0 0 
468 0.00737829 0.515545 0.375731 0.0756879 0.0256568 0 0 0 0 0 
469 0.017262 0.650722 0.288031 0.0347754 0.00920901 0 0 0 0 0 
470 0.0207144 0.582714 0.143819 0.241701 0.0110508 0 0 0 0 0 
471 0 0.272356 0.665036 0.0469212 0 0.0156863 0 0 0 0 
472 0.024042 0.695848 0.235893 0.0301262 0.00840105 0.00384079 0.00184864 0 0 0 
473 0 0.472327 0.465121 0.0468653 0 0.0156863 0 0 0 0 
474 0 3.26915e-05 0.320797 0.399207 0.279963 0 0 0 0 0 
475 0 0.447102 0.339647 0.166064 0.0471866 0 0 0 0 0 
476 0.0138419 0.516656 0.339951 0.122763 7.87715e-06 0.00677974 0 0 0 0 
477 0.026105 0.486116 0.418419 0.034004 0.0262652 0.00909039 0 0 0 0 
478 0.0795869 0.737711 0.15067 0.0245777 0.00248454 0 0.00248453 0 0 0.00248453 
479 0.026105 0.486093 0.218633 0.0672263 0.19285 0.00909171 0 0 0 0 
480 0.044627 0.909814 0.0353676 0.00728244 0.00145456 0.00145456 0 0 0 0 
481 0.0130525 0.843047 0.109317 0.0169065 0.0131326 0.0045452 0 0 0 0 
482 0.024042 0.695848 0.235893 0.0301262 0.00840105 0.00384079 0.00184864 0 0 0 
483 0.026105 0.685525 0.219201 0.0338129 0.0262652 0.00909039 0 0 0 0 
484 0.0207144 0.583383 0.34315 0.0417014 0.0110508 0 0 0 0 0 
485 0.0207144 0.782675 0.143858 0.0417014 0.0110508 0 0 0 0 0 
486 0.064897 0.877287 0.0423002 0.0122651 0.00325024 0 0 0 0 0 
487 0.017262 0.818928 0.119849 0.0347512 0.00920901 0 0 0 0 0 
488 0 0.234719 0.279399 0.401008 0.0848727 0 0 0 0 0 
489 0.0138419 0.316656 0.539951 0.122763 7.87715e-06 0.00677974 0 0 0 0 
490 0.0207144 0.582714 0.143821 0.2417 0.0110508 0 0 0 0 0 
491 0 0.234564 0.0795671 0.600996 0.0848727 0 0 0 0 0 
492 0.026105 0.68609 0.218637 0.0338129 0.0262652 0.00909039 0 0 0 0 
493 0.024042 0.695848 0.235893 0.0301262 0.00840105 0.00384079 0.00184864 0 0 0 
494 0.00835966 0.653142 0.256923 0.0627148 0.0141817 0.00467824 0 0 0 0 
495 0.024042 0.695848 0.235893 0.0301262 0.00840105 0.00384079 0.00184864 0 0 0 
496 0.026105 0.486093 0.418633 0.0338129 0.0262652 0.00909039 0 0 0 0 
497 0.0207144 0.582714 0.343819 0.0417014 0.0110508 0 0 0 0 0 
498 0.212985 0.616874 0.154118 0.0114515 0.00228574 0.00228574 0 0 0 0 
499 0.0138419 0.316667 0.511571 0.151132 7.87715e-06 0.00677974 0 0 0 0 
500 0.024042 0.495848 0.235893 0.0301372 0.20839 0.00384079 0.00184864 0 0 0 
501 0.020035 0.74654 0.196578 0.0251052 0.00700088 0.00320066 0.00154054 0 0 0 
502 0.00721457 0.118775 0.873948 6.25689e-05 0 0 0 0 0 0 
503 0.00379985 0.206018 0.753102 0.0285067 0.00644621 0.00212647 0 0 0 0 
504 0.00737829 0.316803 0.574472 0.0756892 0.0256568 0 0 0 0 0 
505 0 0.146843 0.577919 0.0299674 0.0150822 0.230188 0 0 0 0 
506 0.026105 0.686084 0.218642 0.0338129 0.0262652 0.00909039 0 0 0 0 
507 0.00835966 0.465851 0.444214 0.0627148 0.0141817 0.00467824 0 0 0 0 
508 0.0207144 0.582714 0.343819 0.0417014 0.0110508 0 0 0 0 0 
509 0.0138419 0.516656 0.339951 0.122763 7.87715e-06 0.00677974 0 0 0 0 
510 0.058013 0.860087 0.0745586 2.5647e-06 0.00733949 0 0 0 0 0 
511 0.00737829 0.326269 0.565008 0.0756879 0.0256568 0 0 0 0 0 
512 0.024042 0.495848 0.235894 0.230125 0.00840105 0.00384079 0.00184864 0 0 0 
513 0.0669196 0.614162 0.292225 0.0204814 0.00207045 0 0.00207044 0 0 0.00207044 
514 0.0207144 0.782714 0.143819 0.0417014 0.0110508 0 0 0 0 0 
515 0.026105 0.686093 0.218633 0.0338129 0.0262652 0.00909039 0 0 0 0 
516 0.026105 0.686093 0.218633 0.0338129 0.0262652 0.00909039 0 0 0 0 
517 0.0981795 0.80159 0.0778086 0.0160214 0.00320004 0.00320004 0 0 0 0 
518 0.00835966 0.653142 0.256923 0.0627148 0.0141817 0.00467824 0 0 0 0 
519 0.0568832 0.669758 0.250479 0.0175555 0.00177467 0 0.00177466 0 0 0.00177466 
520 0.03853 0.870992 0.0665 0.0189552 0.0050231 0 0 0 0 0 
521 0 0.247107 0.539641 0.166064 0.0471866 0 0 0 0 0 
522 0.00835966 0.453747 0.456318 0.0627149 0.0141817 0.00467824 0 0 0 0 
523 0.0981795 0.601591 0.277808 0.0160217 0.00320004 0.00320004 0 0 0 0 
524 0.0217542 0.571611 0.348994 0.0281774 0.0218876 0.00757533 0 0 0 0 
525 0.058013 0.860087 0.0745586 2.5647e-06 0.00733949 0 0 0 0 0 
526 0.024042 0.496008 0.435733 0.0301262 0.00840105 0.00384079 0.00184864 0 0 0 
527 0.00835966 0.45648 0.453585 0.0627148 0.0141817 0.00467824 0 0 0 0 
528 0.0795869 0.537712 0.35067 0.0245777 0.00248454 0 0.00248453 0 0 0.00248453 
529 0.020035 0.579874 0.363244 0.0251052 0.00700088 0.00320066 0.00154054 0 0 0 
530 0 0.272499 0.664949 0.0468653 0 0.0156863 0 0 0 0 
531 0.024042 0.695848 0.235893 0.0301262 0.00840105 0.00384079 0.00184864 0 0 0 
532 0.0795869 0.537711 0.35067 0.0245777 0.00248454 0 0.00248453 0 0 0.00248453 
533 0.0795869 0.537711 0.35067 0.0245777 0.00248454 0 0.00248453 0 0 0.00248453 
534 0.0186315 0.781287 0.168498 0.0215188 0.00600075 0.00274342 0.00132046 0 0 0 
535 0.026105 0.486093 0.418612 0.0338346 0.0262652 0.00909039 0 0 0 0 
536 0.0663404 0.614741 0.125559 0.0204814 0.168737 0 0.00207044 0 0 0.00207044 
537 0.0795869 0.537713 0.350669 0.0245777 0.00248454 0 0.00248453 0 0 0.00248453 
538 0.024042 0.67588 0.255861 0.0301262 0.00840105 0.00384079 0.00184864 0 0 0 
539 0.024042 0.515817 0.415924 0.0301262 0.00840105 0.00384079 0.00184864 0 0 0 
540 0 0.27233 0.665118 0.0468653 0 0.0156863 0 0 0 0 
541 0.015036 0.809895 0.147433 0.0188289 0.00525066 0.0024005 0.0011554 0 0 0 
542 0.058013 0.660333 0.274312 2.5647e-06 0.00733949 0 0 0 0 0 
543 0.011866 0.857315 0.0993789 0.0153695 0.0119387 0.004132 0 0 0 0 
544 0.026105 0.486093 0.218633 0.0445453 0.215533 0.00909039 0 0 0 0 
545 0.017262 0.818928 0.119849 0.0347512 0.00920901 0 0 0 0 0 
546 0 0.122732 0.81011 0.0294329 0.0125685 0.0251568 0 0 0 0 
547 0.00835966 0.453142 0.456923 0.0627148 0.0141817 0.00467824 0 0 0 0 
548 0.0795869 0.537711 0.15067 0.224578 0.00248454 0 0.00248453 0 0 0.00248453 
549 0.00831723 0.7095 0.214204 0.0522624 0.011818 0.00389853 0 0 0 0 
550 0.0207144 0.782711 0.143822 0.0417014 0.0110508 0 0 0 0 0 
551 0.00988707 0.226191 0.671385 0.0876879 5.62654e-06 0.00484267 0 0 0 0 
552 0.058013 0.660086 0.274559 2.5647e-06 0.00733949 0 0 0 0 0 
553 0.00865119 0.321897 0.588483 0.076727 4.92322e-06 0.00423734 0 0 0 0 
554 0.28544 0.314322 0.380035 0.0137986 0.00381866 0.00174581 0.000840292 0 0 0 
555 0.0818162 0.834659 0.0648405 0.0133511 0.0026667 0.0026667 0 0 0 0 
556 0.00835966 0.453161 0.456904 0.0627148 0.0141817 0.00467824 0 0 0 0 
557 0.024042 0.496224 0.435499 0.030145 0.00840105 0.00384079 0.00184864 0 0 0 
558 0.00835966 0.453142 0.456923 0.0627148 0.0141817 0.00467824 0 0 0 0 
559 0.0795869 0.537712 0.35067 0.0245777 0.00248454 0 0.00248453 0 0 0.00248453 
560 0 0.146843 0.777919 0.0299674 0.0150822 0.0301882 0 0 0 0 
561 0.00696638 0.710952 0.214102 0.0522624 0.011818 0.00389853 0 0 0 0 
562 0.0795869 0.537711 0.150704 0.224544 0.00248454 0 0.00248453 0 0 0.00248453 
563 0.0795869 0.737677 0.150704 0.0245777 0.00248454 0 0.00248453 0 0 0.00248453 
564 0.0795869 0.688066 0.200316 0.0245777 0.00248454 0 0.00248453 0 0 0.00248453 
565 0.0795869 0.587357 0.301025 0.0245777 0.00248454 0 0.00248453 0 0 0.00248453 
566 0.0138419 0.316931 0.539676 0.122763 7.87715e-06 0.00677974 0 0 0 0 
567 0.0207144 0.582716 0.343817 0.0417014 0.0110508 0 0 0 0 0 
568 0.0171728 0.782638 0.168606 0.0215188 0.00600075 0.00274342 0.00132046 0 0 0 
569 0.00835966 0.453142 0.456923 0.0627148 0.0141817 0.00467824 0 0 0 0 
570 0.026105 0.686093 0.218633 0.0338129 0.0262652 0.00909039 0 0 0 0 
571 0.024042 0.695848 0.235893 0.0301262 0.00840105 0.00384079 0.00184864 0 0 0 
572 0.0795869 0.737711 0.15067 0.0245777 0.00248454 0 0.00248453 0 0 0.00248453 
573 0.026105 0.486103 0.418623 0.0338129 0.0262652 0.00909039 0 0 0 0 
574 0.026105 0.486093 0.219491 0.232955 0.0262652 0.00909039 0 0 0 0 
575 0.0207144 0.782714 0.143819 0.0417014 0.0110508 0 0 0 0 0 
576 0.0982092 0.801561 0.0778086 0.0160214 0.00320004 0.00320004 0 0 0 0 
577 0.0981795 0.601591 0.0778253 0.216005 0.00320004 0.00320004 0 0 0 0 
578 0 3.26915e-05 0.520797 0.39918 0.0799894 0 0 0 0 0 
579 0.024042 0.695848 0.235893 0.0301262 0.00840105 0.00384079 0.00184864 0 0 0 
580 0.024042 0.500804 0.430934 0.0301287 0.00840105 0.00384079 0.00184864 0 0 0 
581 0.00614858 0.596302 0.313095 0.0630732 0.0213806 0 0 0 0 0 
582 0.0207144 0.782714 0.143819 0.0417014 0.0110508 0 0 0 0 0 
583 0.024042 0.695848 0.235893 0.0301262 0.00840105 0.00384079 0.00184864 0 0 0 
584 0.020035 0.74654 0.196577 0.0251052 0.00700088 0.00320066 0.00154054 0 0 0 
585 0.00737829 0.316003 0.575036 0.0759251 0.0256568 0 0 0 0 0 
586 0.024042 0.495848 0.236129 0.229886 0.00840514 0.00384079 0.00184864 0 0 0 
587 0.020035 0.413207 0.529911 0.0251052 0.00700088 0.00320066 0.00154054 0 0 0 
588 0 0.224267 0.320786 0.454947 0 0 0 0 0 0 
589 0.00696638 0.710913 0.214141 0.0522624 0.011818 0.00389853 0 0 0 0 
590 0.020035 0.413207 0.202113 0.186236 0.00727401 0.169594 0.00154054 0 0 0 
591 0.0795869 0.737711 0.15067 0.0245777 0.00248454 0 0.00248453 0 0 0.00248453 
592 0.00835966 0.653142 0.256923 0.0627148 0.0141817 0.00467824 0 0 0 0 
593 0.00737829 0.315569 0.575707 0.0756879 0.0256568 0 0 0 0 0 
594 0.0115349 0.264109 0.461487 0.257213 6.56429e-06 0.00564979 0 0 0 0 
595 0.0818162 0.834656 0.0648434 0.0133511 0.0026667 0.0026667 0 0 0 0 
596 0.0207144 0.582714 0.343819 0.0417014 0.0110508 0 0 0 0 0 
597 0 0.234564 0.0795551 0.40102 0.28486 0 0 0 0 0 
598 0.00835966 0.453314 0.456743 0.0627236 0.0141817 0.00467824 0 0 0 0 
599 0.00835966 0.653142 0.256923 0.0627148 0.0141817 0.00467824 0 0 0 0 
600 0.0207144 0.582714 0.343637 0.0418835 0.0110508 0 0 0 0 0 
601 0.0795869 0.737711 0.150671 0.0245777 0.00248454 0 0.00248453 0 0 0.00248453 
602 0.00835966 0.453146 0.45692 0.0627148 0.0141817 0.00467824 0 0 0 0 
603 0.026105 0.486094 0.41863 0.0338155 0.0262652 0.00909039 0 0 0 0 
604 0.024042 0.695848 0.235893 0.0301262 0.00840105 0.00384079 0.00184864 0 0 0 
605 0.024042 0.695848 0.235893 0.0301262 0.00840105 0.00384079 0.00184864 0 0 0 
606 0.024042 0.695842 0.235899 0.0301262 0.00840105 0.00384079 0.00184864 0 0 0 
607 0.00835966 0.453148 0.455825 0.0638067 0.0141817 0.00467824 0 0 0 0 
608 0 0.272327 0.467715 0.244271 0 0.0156863 0 0 0 0 
609 0.058013 0.860003 0.0746418 2.5647e-06 0.00733949 0 0 0 0 0 
610 0.00988707 0.22622 0.671356 0.0876879 5.62654e-06 0.00484267 0 0 0 0 
611 0.017262 0.485696 0.453081 0.0347512 0.00920901 0 0 0 0 0 
612 0.026105 0.686093 0.218633 0.0338129 0.0262652 0.00909039 0 0 0 0 
613 0.0483441 0.883405 0.0621321 2.13725e-06 0.00611624 0 0 0 0 0 
614 0.00835966 0.453142 0.256923 0.0627182 0.214178 0.00467824 0 0 0 0 
615 0.00835966 0.653139 0.256926 0.0627148 0.0141817 0.00467824 0 0 0 0 
616 0.00748532 0.710301 0.214234 0.0522624 0.011818 0.00389853 0 0 0 0 
617 0.311362 0.625994 0.0486304 0.0100134 0.00200003 0.00200003 0 0 0 0 
618 0 0.472327 0.465121 0.0468653 0 0.0156863 0 0 0 0 
619 0.00835966 0.453142 0.256923 0.0627148 0.0141903 0.20467 0 0 0 0 
620 0 0.600073 0.399926 0 0 0 0 0 0 0 
621 0 0.146843 0.777919 0.0299674 0.0150822 0.0301882 0 0 0 0 
622 0.0568478 0.812651 0.107622 0.0175555 0.00177467 0 0.00177466 0 0 0.00177466 
623 0.0207144 0.782714 0.143819 0.0417014 0.0110508 0 0 0 0 0 
624 0.0207144 0.657524 0.267993 0.0427176 0.0110508 0 0 0 0 0 
625 0.283154 0.64072 0.0627794 0.0102407 0.00103522 0 0.00103522 0 0 0.00103522 
626 0.024042 0.495848 0.435893 0.0301262 0.00840105 0.00384079 0.00184864 0 0 0 
627 0.0207144 0.782714 0.143819 0.0417014 0.0110508 0 0 0 0 0 
628 0.024042 0.495849 0.336532 0.129486 0.00840105 0.00384079 0.00184864 0 0 0 
629 0.024042 0.595208 0.336532 0.0301272 0.00840105 0.00384079 0.00184864 0 0 0 
630 0.026105 0.486093 0.418633 0.0338129 0.0262652 0.00909039 0 0 0 0 
631 0.0981795 0.801569 0.0778303 0.0160214 0.00320004 0.00320004 0 0 0 0 
632 0.0138419 0.316678 0.539929 0.122763 7.87715e-06 0.00677974 0 0 0 0 
633 0 0.447082 0.339667 0.166064 0.0471866 0 0 0 0 0 
634 0.026105 0.486118 0.418608 0.0338129 0.0262652 0.00909039 0 0 0 0 
635 0.0377613 0.923689 0.0299264 0.00616207 0.00123079 0.00123078 0 0 0 0 
636 0.00835966 0.653142 0.256923 0.0627148 0.0141817 0.00467824 0 0 0 0 
637 0.0795942 0.737703 0.150671 0.0245777 0.00248454 0 0.00248453 0 0 0.00248453 
638 0.00835966 0.453143 0.456922 0.062715 0.0141817 0.00467824 0 0 0 0 
639 0.0981795 0.601591 0.277294 0.016536 0.00320004 0.00320004 0 0 0 0 
640 0 0.224267 0.293435 0.482298 0 0 0 0 0 0 
641 0 0.455702 0.481599 0.0249728 0.0125685 0.0251568 0 0 0 0 
642 0.00737829 0.315821 0.574592 0.0765512 0.0256568 0 0 0 0 0 
643 0.00835966 0.454006 0.45599 0.0627842 0.0141817 0.00467824 0 0 0 0 
644 0.00835966 0.453208 0.456858 0.0627148 0.0141817 0.00467824 0 0 0 0 
645 0.00696638 0.709117 0.215937 0.0522624 0.011818 0.00389853 0 0 0 0 
646 0.0981795 0.603688 0.275711 0.0160214 0.00320004 0.00320004 0 0 0 0 
647 0.058013 0.860083 0.0745615 2.5647e-06 0.00733949 0 0 0 0 0 
648 0.0795869 0.737711 0.15067 0.0245777 0.00248454 0 0.00248453 0 0 0.00248453 
649 0.024042 0.695848 0.235893 0.0301262 0.00840105 0.00384079 0.00184864 0 0 0 
650 0.0207144 0.782714 0.143819 0.0417014 0.0110508 0 0 0 0 0 
651 0.026105 0.48617 0.414532 0.037837 0.0262652 0.00909039 0 0 0 0 
652 0.00737829 0.319898 0.571379 0.0756879 0.0256568 0 0 0 0 0 
653 0.00835966 0.453152 0.456912 0.0627166 0.0141817 0.00467824 0 0 0 0 
654 0.0663224 0.521803 0.385182 0.0204814 0.00207045 0 0.00207044 0 0 0.00207044 
655 0.0207144 0.782713 0.14382 0.0417014 0.0110508 0 0 0 0 0 
656 0.058013 0.860084 0.0745606 2.5647e-06 0.00733949 0 0 0 0 0 
657 0.00835966 0.453149 0.45691 0.0627209 0.0141817 0.00467824 0 0 0 0 
658 0 0.234564 0.0795749 0.599636 0.086225 0 0 0 0 0 
659 0.024042 0.608751 0.32299 0.0301262 0.00840105 0.00384079 0.00184864 0 0 0 
660 0.00368915 0.757785 0.187854 0.0378439 0.0128284 0 0 0 0 0 
661 0.0981795 0.601591 0.277809 0.0160214 0.00320004 0.00320004 0 0 0 0 
662 0 0.434564 0.0795551 0.401008 0.0848727 0 0 0 0 0 
663 0.017262 0.818928 0.119849 0.0347512 0.00920901 0 0 0 0 0 
664 0.00835966 0.453142 0.256923 0.0627148 0.214182 0.00467828 0 0 0 0 
665 0.0207144 0.782714 0.143819 0.0417014 0.0110508 0 0 0 0 0 
666 0.024042 0.695848 0.235893 0.0301262 0.00840105 0.00384079 0.00184864 0 0 0 
667 0.00835966 0.653142 0.256923 0.0627148 0.0141817 0.00467824 0 0 0 0 
668 0.026105 0.686093 0.218633 0.0338129 0.0262652 0.00909039 0 0 0 0 
669 0.026105 0.486093 0.418632 0.0338137 0.0262652 0.00909039 0 0 0 0 
670 0.00835966 0.653142 0.256923 0.0627148 0.0141817 0.00467824 0 0 0 0 
671 0 0.434018 0.080101 0.401008 0.0848727 0 0 0 0 0 
672 0.0138419 0.316656 0.339951 0.322763 7.87715e-06 0.00677974 0 0 0 0 
673 0.00737829 0.315569 0.575708 0.0756879 0.0256568 0 0 0 0 0 
674 0 0.453249 0.0568359 0.429292 0.0606233 0 0 0 0 0 
675 0.00835966 0.653142 0.256923 0.0627148 0.0141817 0.00467824 0 0 0 0 
676 0 0.346842 0.577919 0.0299674 0.0150822 0.0301882 0 0 0 0 
677 0 0.800036 0.199963 0 0 0 0 0 0 0 
678 0.017262 0.652261 0.286516 0.0347513 0.00920901 0 0 0 0 0 
679 0.00737829 0.315569 0.575707 0.0756879 0.0256568 0 0 0 0 0 
680 0.0138419 0.316656 0.341653 0.320831 0.000237863 0.00677974 0 0 0 0 
681 0 0.833364 0.166636 0 0 0 0 0 0 0 
682 0.0207144 0.782713 0.14382 0.0417014 0.0110508 0 0 0 0 0 
683 0.017262 0.652261 0.286516 0.0347512 0.00920901 0 0 0 0 0 
684 0.0483964 0.883341 0.0621442 2.13725e-06 0.00611624 0 0 0 0 0 
685 0.0795869 0.537711 0.150684 0.224564 0.00248454 0 0.00248453 0 0 0.00248453 
686 0.0663224 0.448093 0.458892 0.0204814 0.00207045 0 0.00207044 0 0 0.00207044 
687 0.0207144 0.782714 0.143819 0.0417014 0.0110508 0 0 0 0 0 
688 0 0.17654 0.529252 0.260503 0.0337047 0 0 0 0 0 
689 0 0.000114235 0.519992 0.399904 0.0799894 0 0 0 0 0 
690 0 0.147566 0.777196 0.0299674 0.0150822 0.0301882 0 0 0 0 
691 0 0.224266 0.493432 0.282301 0 0 0 0 0 0 
692 0.0795869 0.73771 0.150672 0.0245777 0.00248454 0 0.00248453 0 0 0.00248453 
693 0.00835966 0.453144 0.456922 0.0627148 0.0141817 0.00467824 0 0 0 0 
694 0 0.146843 0.777919 0.0299678 0.0150822 0.0301882 0 0 0 0 
695 0 0.247108 0.539627 0.166078 0.0471866 0 0 0 0 0 
696 0 0 0 0.989882 0.0101169 0 0 0 0 0 
697 0.199304 0.798452 0.0022446 0 0 0 0 0 0 0 
698 0 0.771577 0.115228 0.113195 0 0 0 0 0 0 
699 0.0795869 0.737711 0.15067 0.0245777 0.00248454 0 0.00248453 0 0 0.00248453 
700 0 0.424265 0.293433 0.282301 0 0 0 0 0 0 
701 0.00614858 0.596307 0.31309 0.0630732 0.0213806 0 0 0 0 0 
702 0.0171728 0.354178 0.597065 0.0215188 0.00600075 0.00274342 0.00132046 0 0 0 
703 0.0207144 0.582714 0.343819 0.0417014 0.0110508 0 0 0 0 0 
704 0.024042 0.495934 0.435807 0.0301262 0.00840105 0.00384079 0.00184864 0 0 0 
705 0.00696638 0.710952 0.214102 0.0522624 0.011818 0.00389853 0 0 0 0 
706 0.0795869 0.737711 0.15067 0.0245777 0.00248454 0 0.00248453 0 0 0.00248453 
707 0 0.12238 0.809636 0.030259 0.0125685 0.0251568 0 0 0 0 
708 0.026105 0.686093 0.218633 0.0338129 0.0262652 0.00909039 0 0 0 0 
709 0.024042 0.695848 0.235893 0.0301262 0.00840105 0.00384079 0.00184864 0 0 0 
710 0.0818162 0.501342 0.398158 0.0133511 0.0026667 0.0026667 0 0 0 0 
711 0 0.771577 0.115228 0.113195 0 0 0 0 0 0 
712 0.026105 0.487122 0.417561 0.0338557 0.0262652 0.00909039 0 0 0 0 
713 0 0.571577 0.117137 0.311285 0 0 0 0 0 0 
714 0.0171728 0.782749 0.168495 0.0215187 0.00600075 0.00274342 0.00132046 0 0 0 
715 0.0217542 0.737568 0.183037 0.0281774 0.0218876 0.00757533 0 0 0 0 
716 0 0.146843 0.777785 0.0301012 0.0150822 0.0301882 0 0 0 0 
717 0.0795869 0.537898 0.350484 0.0245777 0.00248454 0 0.00248453 0 0 0.00248453 
718 0 0.224293 0.493405 0.282301 0 0 0 0 0 0 
719 0.0171728 0.523517 0.427727 0.0215188 0.00600075 0.00274342 0.00132046 0 0 0 
720 0.024042 0.495848 0.435893 0.0301263 0.00840105 0.00384079 0.00184864 0 0 0 
721 0 0.274332 0.663105 0.0468757 0 0.0156863 0 0 0 0 
722 0 0.999999 0 0 0 0 0 0 0 0 
723 0.882627 0.117373 0 0 0 0 0 0 0 0 
724 0.017262 0.818928 0.119849 0.0347512 0.00920901 0 0 0 0 0 
725 0.0129465 0.864196 0.0898871 0.0260634 0.00690676 0 0 0 0 0 
726 0.00737829 0.315569 0.375708 0.0757134 0.225631 0 0 0 0 0 
727 0.0207144 0.582725 0.343808 0.0417014 0.0110508 0 0 0 0 0 
728 0.0981795 0.80159 0.0778088 0.0160214 0.00320004 0.00320004 0 0 0 0 
729 0.0981795 0.80159 0.0778086 0.0160214 0.00320004 0.00320004 0 0 0 0 
730 0.0163157 0.803808 0.136646 0.0211331 0.0164157 0.0056815 0 0 0 0 
731 0.00865749 0.14253 0.848737 7.50827e-05 0 0 0 0 0 0 
732 0.020035 0.74654 0.196577 0.0251052 0.00700088 0.00320066 0.00154054 0 0 0 
733 0.0207144 0.582714 0.143824 0.241697 0.0110509 0 0 0 0 0 
734 0.0207144 0.582714 0.343819 0.0417014 0.0110508 0 0 0 0 0 
735 0 0.247107 0.339641 0.366064 0.0471866 0 0 0 0 0 
736 0 0.999999 0 0 0 0 0 0 0 0 
737 0 0.247125 0.539619 0.166069 0.0471866 0 0 0 0 0 
738 0.00835966 0.653142 0.256923 0.0627148 0.0141817 0.00467824 0 0 0 0 
739 0.0207144 0.782714 0.143819 0.0417014 0.0110508 0 0 0 0 0 
740 0.00865749 0.14253 0.848737 7.50827e-05 0 0 0 0 0 0 
741 0 0.234564 0.079687 0.600876 0.0848727 0 0 0 0 0 
742 0.024042 0.50379 0.42792 0.0301568 0.00840105 0.00384079 0.00184864 0 0 0 
743 0.00737829 0.515563 0.375714 0.0756879 0.0256568 0 0 0 0 0 
744 0.02072 0.782708 0.143819 0.0417014 0.0110508 0 0 0 0 0 
745 0.0115349 0.431488 0.449018 0.102303 6.56429e-06 0.00564979 0 0 0 0 
746 0.0795869 0.737711 0.150671 0.0245777 0.00248454 0 0.00248453 0 0 0.00248453 
747 0.00696638 0.710952 0.214103 0.0522624 0.011818 0.00389853 0 0 0 0 
748 0.026105 0.686093 0.218633 0.0338129 0.0262652 0.00909039 0 0 0 0 
749 0.00835966 0.453145 0.456921 0.0627148 0.0141817 0.00467824 0 0 0 0 
750 0.024042 0.695848 0.235893 0.0301262 0.00840105 0.00384079 0.00184864 0 0 0 
751 0.0207144 0.782714 0.143819 0.0417014 0.0110508 0 0 0 0 0 
752 0.00865749 0.298701 0.692566 7.50827e-05 0 0 0 0 0 0 
753 0.0138419 0.360562 0.496045 0.122763 7.87715e-06 0.00677974 0 0 0 0 
754 0.0981795 0.601591 0.0778086 0.0160214 0.00320004 0.2032 0 0 0 0 
755 0.024042 0.495893 0.435848 0.0301262 0.00840105 0.00384079 0.00184864 0 0 0 
756 0.00835966 0.653123 0.256942 0.0627148 0.0141817 0.00467824 0 0 0 0 
757 0.00835966 0.653134 0.256931 0.0627148 0.0141817 0.00467824 0 0 0 0 
758 0.00835966 0.453559 0.456506 0.0627148 0.0141817 0.00467824 0 0 0 0 
759 0.024042 0.69544 0.236301 0.0301262 0.00840105 0.00384079 0.00184864 0 0 0 
760 0.0483441 0.883405 0.0621321 2.13725e-06 0.00611624 0 0 0 0 0 
761 0.024042 0.695848 0.235893 0.0301262 0.00840105 0.00384079 0.00184864 0 0 0 
762 0.0186465 0.775781 0.156167 0.0241521 0.0187608 0.00649314 0 0 0 0 
763 0.026105 0.486093 0.418633 0.0338129 0.0262652 0.00909039 0 0 0 0 
764 0 0.146843 0.777919 0.0299674 0.0150822 0.0301882 0 0 0 0 
765 0.026105 0.686093 0.218633 0.0338129 0.0262652 0.00909039 0 0 0 0 
766 0.0207144 0.782714 0.143819 0.0417014 0.0110508 0 0 0 0 0 
767 0.0795869 0.737711 0.15067 0.0245777 0.00248454 0 0.00248453 0 0 0.00248453 
768 0.024042 0.695848 0.235893 0.0301262 0.00840105 0.00384079 0.00184864 0 0 0 
769 0 0.472327 0.465121 0.0468653 0 0.0156863 0 0 0 0 
770 0.026105 0.486093 0.418633 0.0338129 0.0262652 0.00909039 0 0 0 0 
771 0.00835966 0.453142 0.256939 0.262699 0.0141817 0.00467824 0 0 0 0 
772 0.024042 0.508432 0.423309 0.0301262 0.00840105 0.00384079 0.00184864 0 0 0 
773 0.0663224 0.769898 0.137086 0.0204814 0.00207045 0 0.00207044 0 0 0.00207044 
774 0.0483441 0.883405 0.0621321 2.13725e-06 0.00611624 0 0 0 0 0 
775 0.0115349 0.597213 0.283292 0.102303 6.56429e-06 0.00564979 0 0 0 0 
776 0.020035 0.74654 0.196577 0.0251052 0.00700088 0.00320066 0.00154054 0 0 0 
777 0 0.146843 0.577919 0.0301371 0.214912 0.0301882 0 0 0 0 
778 0 0.771577 0.115228 0.113195 0 0 0 0 0 0 
779 0.024042 0.695848 0.235893 0.0301262 0.00840105 0.00384079 0.00184864 0 0 0 
780 0.0138419 0.516656 0.339951 0.122763 7.87715e-06 0.00677974 0 0 0 0 
781 0.024042 0.695846 0.235895 0.0301262 0.00840105 0.00384079 0.00184864 0 0 0 
782 0.00835966 0.453329 0.456737 0.0627148 0.0141817 0.00467824 0 0 0 0 
783 0 0.247107 0.539635 0.166071 0.0471866 0 0 0 0 0 
784 0.024042 0.495855 0.435886 0.0301262 0.00840105 0.00384079 0.00184864 0 0 0 
785 0.0795869 0.537712 0.350669 0.0245777 0.00248454 0 0.00248453 0 0 0.00248453 
786 0.0138419 0.32105 0.535556 0.122765 7.87715e-06 0.00677974 0 0 0 0 
787 0.00835966 0.648489 0.261576 0.0627148 0.0141817 0.00467824 0 0 0 0 
788 0.026105 0.686093 0.218634 0.0338129 0.0262652 0.00909039 0 0 0 0 
789 0.026105 0.686093 0.218633 0.0338129 0.0262652 0.00909039 0 0 0 0 
790 0.178202 0.430547 0.283293 0.102303 6.56429e-06 0.00564979 0 0 0 0 
791 0 0.272474 0.664973 0.0468653 0 0.0156863 0 0 0 0 
792 0 0.424266 0.293432 0.282301 0 0 0 0 0 0 
793 0 0.447107 0.339641 0.166064 0.0471866 0 0 0 0 0 
794 0.00737829 0.315597 0.57568 0.0756879 0.0256568 0 0 0 0 0 
795 0.00835966 0.653115 0.256951 0.0627148 0.0141817 0.00467824 0 0 0 0 
796 0.0147961 0.844791 0.102733 0.0297867 0.00789343 0 0 0 0 0 
797 0.024042 0.495848 0.435893 0.0301262 0.00840105 0.00384079 0.00184864 0 0 0 
798 0.0138419 0.316656 0.437063 0.225651 7.87715e-06 0.00677974 0 0 0 0 
799 0.00835966 0.55603 0.354035 0.0627148 0.0141817 0.00467824 0 0 0 0 
800 0.0138419 0.316656 0.539951 0.122763 7.87715e-06 0.00677974 0 0 0 0 
801 0.0138419 0.316656 0.539951 0.122763 7.87715e-06 0.00677974 0 0 0 0 
802 0.024042 0.518045 0.413696 0.0301262 0.00840105 0.00384079 0.00184864 0 0 0 
803 0.026105 0.685828 0.218898 0.0338129 0.0262652 0.00909039 0 0 0 0 
804 0 0.247114 0.517703 0.187996 0.0471866 0 0 0 0 0 
805 0.0138419 0.31916 0.537447 0.122763 7.87715e-06 0.00677974 0 0 0 0 
806 0.0207144 0.780371 0.146162 0.0417014 0.0110508 0 0 0 0 0 
807 0.0981795 0.80159 0.0778086 0.0160214 0.00320004 0.00320004 0 0 0 0 
808 0 0.447107 0.339641 0.166064 0.0471866 0 0 0 0 0 
809 0.0795869 0.737711 0.15067 0.0245777 0.00248454 0 0.00248453 0 0 0.00248453 
810 0.0138419 0.479255 0.377351 0.122763 7.87715e-06 0.00677974 0 0 0 0 
811 0.0138419 0.516656 0.339951 0.122763 7.87715e-06 0.00677974 0 0 0 0 
812 0.0138419 0.316656 0.375663 0.287051 7.87715e-06 0.00677974 0 0 0 0 
813 0.0138419 0.316656 0.511595 0.151119 7.87715e-06 0.00677974 0 0 0 0 
814 0.020035 0.74654 0.196577 0.0251052 0.00700088 0.00320066 0.00154054 0 0 0 
815 0.0568478 0.669794 0.250479 0.0175555 0.00177467 0 0.00177466 0 0 0.00177466 
816 0 0.147936 0.776826 0.0299674 0.0150822 0.0301882 0 0 0 0 
817 0 0.424264 0.293434 0.282301 0 0 0 0 0 0 
818 0.00737829 0.315611 0.575665 0.0756879 0.0256568 0 0 0 0 0 
819 0.024042 0.695806 0.235935 0.0301262 0.00840105 0.00384079 0.00184864 0 0 0 
820 0 0.146843 0.777919 0.0299674 0.0150822 0.0301882 0 0 0 0 
821 0 0.272327 0.665121 0.0468653 0 0.0156863 0 0 0 0 
822 0.024042 0.695848 0.235893 0.0301262 0.00840105 0.00384079 0.00184864 0 0 0 
823 0.00847034 0.651465 0.258489 0.0627148 0.0141817 0.00467824 0 0 0 0 
824 0 0.247107 0.339713 0.365537 0.0476424 0 0 0 0 0 
825 0.00614858 0.565743 0.343654 0.0630732 0.0213806 0 0 0 0 0 
826 0.0818162 0.834659 0.0648405 0.0133511 0.0026667 0.0026667 0 0 0 0 
827 0.0129465 0.864196 0.0898871 0.0260634 0.00690676 0 0 0 0 0 
828 0.0663224 0.614421 0.292564 0.0204814 0.00207045 0 0.00207044 0 0 0.00207044 
829 0.0115349 0.264236 0.615741 0.102832 6.56429e-06 0.00564979 0 0 0 0 
830 0 0.224267 0.294271 0.481461 0 0 0 0 0 0 
831 0.0795869 0.737711 0.15067 0.0245777 0.00248454 0 0.00248453 0 0 0.00248453 
832 0.00835966 0.653142 0.256923 0.0627148 0.0141817 0.00467824 0 0 0 0 
833 0.00737829 0.315596 0.575681 0.0756879 0.0256568 0 0 0 0 0 
834 0.0138419 0.316656 0.531159 0.131555 7.87715e-06 0.00677974 0 0 0 0 
835 0.0701282 0.484764 0.428469 0.0120674 0.00228574 0.00228574 0 0 0 0 
836 0 0.247107 0.539641 0.166065 0.0471866 0 0 0 0 0 
837 0.0138419 0.316656 0.339951 0.322763 7.87715e-06 0.00677974 0 0 0 0 
838 0.020035 0.74654 0.196577 0.0251052 0.00700088 0.00320066 0.00154054 0 0 0 
839 0.024042 0.695848 0.235893 0.0301262 0.00840105 0.00384079 0.00184864 0 0 0 
840 0.026105 0.49721 0.407516 0.0338129 0.0262652 0.00909039 0 0 0 0 
841 0.0795869 0.737607 0.150774 0.0245777 0.00248454 0 0.00248453 0 0 0.00248453 
842 0.0795869 0.537714 0.350667 0.0245777 0.00248454 0 0.00248453 0 0 0.00248453 
843 0.00696774 0.544284 0.215968 0.217063 0.011818 0.00389853 0 0 0 0 
844 0 0.226939 0.554262 0.205726 0 0.013072 0 0 0 0 
845 0.00737829 0.315569 0.575707 0.0756879 0.0256568 0 0 0 0 0 
846 0.248483 0.667992 0.0648405 0.0133511 0.0026667 0.0026667 0 0 0 0 
847 0.0240481 0.695842 0.235893 0.0301262 0.00840105 0.00384079 0.00184864 0 0 0 
848 0.0981795 0.601591 0.0778086 0.216021 0.00320004 0.00320004 0 0 0 0 
849 0.024042 0.695848 0.235893 0.0301262 0.00840105 0.00384079 0.00184864 0 0 0 
850 0.024042 0.495848 0.435893 0.0301263 0.00840105 0.00384079 0.00184864 0 0 0 
851 0.026105 0.686093 0.218633 0.0338129 0.0262652 0.00909039 0 0 0 0 
852 0.00835966 0.453143 0.456923 0.0627148 0.0141817 0.00467824 0 0 0 0 
853 0.0663249 0.781421 0.125561 0.0204814 0.00207045 0 0.00207044 0 0 0.00207044 
854 0.026105 0.686093 0.218633 0.0338129 0.0262652 0.00909039 0 0 0 0 
855 0.0207144 0.582714 0.343819 0.0417014 0.0110508 0 0 0 0 0 
856 0.00527021 0.510817 0.411523 0.0540628 0.0183263 0 0 0 0 0 
857 0.0663224 0.552351 0.354634 0.0204814 0.00207045 0 0.00207044 0 0 0.00207044 
858 0.0217542 0.738407 0.182199 0.0281774 0.0218876 0.00757533 0 0 0 0 
859 0.024042 0.495848 0.235893 0.0302077 0.20832 0.00384079 0.00184864 0 0 0 
860 0.0149053 0.844686 0.102728 0.0297867 0.00789343 0 0 0 0 0 
861 0.00421517 0.826536 0.128461 0.0313574 0.00709083 0.00233912 0 0 0 0 
862 0.141239 0.765287 0.0787357 0.0100421 0.00280035 0.00128026 0.000616214 0 0 0 
863 0.026105 0.486093 0.226478 0.225968 0.0262652 0.00909039 0 0 0 0 
864 0.00461143 0.198445 0.733604 0.0473049 0.0160355 0 0 0 0 0 
865 0.014796 0.701889 0.245635 0.0297867 0.00789343 0 0 0 0 0 
866 0 0.146953 0.777737 0.0300393 0.0150822 0.0301882 0 0 0 0 
867 0.0663224 0.448093 0.458892 0.0204814 0.00207045 0 0.00207044 0 0 0.00207044 
868 0.0138419 0.516656 0.339951 0.122763 7.87715e-06 0.00677974 0 0 0 0 
869 0.024042 0.695848 0.235893 0.0301262 0.00840105 0.00384079 0.00184864 0 0 0 
870 0.0663224 0.614759 0.125573 0.187133 0.00207045 0 0.00207044 0 0 0.00207044 
871 0.232989 0.448093 0.125559 0.187147 0.00207106 0 0.00207044 0 0 0.00207044 
872 0 0.472327 0.465121 0.0468653 0 0.0156863 0 0 0 0 
873 0.0207144 0.582714 0.143819 0.044441 0.208311 0 0 0 0 0 
874 0.020035 0.74654 0.196577 0.0251052 0.00700088 0.00320066 0.00154054 0 0 0 
875 0.0795869 0.737711 0.15067 0.0245777 0.00248454 0 0.00248453 0 0 0.00248453 
876 0.024042 0.495866 0.435875 0.0301262 0.00840105 0.00384079 0.00184864 0 0 0 
877 0.0795869 0.737644 0.150738 0.0245777 0.00248454 0 0.00248453 0 0 0.00248453 
878 0.017262 0.818928 0.119849 0.0347512 0.00920901 0 0 0 0 0 
879 0 0 0.999999 0 0 0 0 0 0 0 
880 0.0138419 0.516656 0.339951 0.122763 7.87715e-06 0.00677974 0 0 0 0 
881 0.058013 0.660086 0.0745586 2.5647e-06 0.207339 0 0 0 0 0 
882 0.00835966 0.453143 0.456554 0.0630837 0.0141817 0.00467824 0 0 0 0 
883 0.0795872 0.661482 0.226899 0.0245777 0.00248454 0 0.00248453 0 0 0.00248453 
884 0.00835966 0.529387 0.3791 0.0642928 0.0141817 0.00467824 0 0 0 0 
885 0.0795869 0.737711 0.15067 0.0245777 0.00248454 0 0.00248453 0 0 0.00248453 
886 0.024042 0.495906 0.435835 0.0301262 0.00840105 0.00384079 0.00184864 0 0 0 
887 0.0207144 0.782656 0.143877 0.0417014 0.0110508 0 0 0 0 0 
888 0.0207144 0.782714 0.143819 0.0417014 0.0110508 0 0 0 0 0 
889 0.00737829 0.515569 0.375708 0.0756879 0.0256568 0 0 0 0 0 
890 0.0138419 0.316717 0.53989 0.122763 7.87715e-06 0.00677974 0 0 0 0 
891 0 0.447107 0.339642 0.166064 0.0471866 0 0 0 0 0 
892 0.058013 0.860087 0.0745586 2.5647e-06 0.00733949 0 0 0 0 0 
893 0.0981795 0.80159 0.0778086 0.0160214 0.00320004 0.00320004 0 0 0 0 
894 0 0.247107 0.341009 0.364696 0.0471866 0 0 0 0 0 
895 0.024042 0.498417 0.433324 0.0301262 0.00840105 0.00384079 0.00184864 0 0 0 
896 0 0.445015 0.341734 0.166064 0.0471866 0 0 0 0 0 
897 0 0.234579 0.214113 0.466435 0.0848727 0 0 0 0 0 
898 0.00865119 0.198018 0.628214 0.160875 4.92322e-06 0.00423734 0 0 0 0 
899 0.024042 0.495849 0.435892 0.0301263 0.00840105 0.00384079 0.00184864 0 0 0 
900 0.0207144 0.782714 0.143819 0.0417014 0.0110508 0 0 0 0 0 
901 0.0207144 0.782597 0.143936 0.0417014 0.0110508 0 0 0 0 0 
902 0.020035 0.413213 0.529903 0.0251073 0.00700088 0.00320066 0.00154054 0 0 0 
903 0.024042 0.695848 0.235893 0.0301262 0.00840105 0.00384079 0.00184864 0 0 0 
904 0.00737829 0.315569 0.575707 0.0756885 0.0256568 0 0 0 0 0 
905 0.0109282 0.498311 0.470661 0.0136949 0.00381866 0.00174581 0.000840292 0 0 0 
906 0 0.234564 0.0796308 0.600268 0.0855376 0 0 0 0 0 
907 0.058013 0.663358 0.271219 7.12679e-05 0.00733949 0 0 0 0 0 
908 0.0207144 0.780108 0.146425 0.0417014 0.0110508 0 0 0 0 0 
909 0.0795869 0.537715 0.350666 0.0245777 0.00248454 0 0.00248453 0 0 0.00248453 
910 0.0150262 0.426826 0.530513 0.0188289 0.00525066 0.0024005 0.0011554 0 0 0 
911 0 0.432615 0.504833 0.0468653 0 0.0156863 0 0 0 0 
912 0.00737829 0.315569 0.375708 0.275688 0.0256568 0 0 0 0 0 
913 0 0.247107 0.539641 0.166064 0.0471866 0 0 0 0 0 
914 0.00835966 0.453143 0.456923 0.0627148 0.0141817 0.00467824 0 0 0 0 
915 0.0138419 0.516656 0.339951 0.122763 7.87715e-06 0.00677974 0 0 0 0 
916 0.0207144 0.582714 0.143819 0.241701 0.0110508 0 0 0 0 0 
917 0.026105 0.486093 0.418633 0.0338129 0.0262652 0.00909039 0 0 0 0 
918 0.0138419 0.316656 0.539951 0.122763 7.87715e-06 0.00677974 0 0 0 0 
919 0.024042 0.495854 0.435887 0.0301262 0.00840105 0.00384079 0.00184864 0 0 0 
920 0.026105 0.486093 0.418633 0.0338129 0.0262652 0.00909039 0 0 0 0 
921 0.026105 0.686093 0.218633 0.0338129 0.0262652 0.00909039 0 0 0 0 
922 0.024042 0.495848 0.410854 0.0551653 0.00840105 0.00384079 0.00184864 0 0 0 
923 0.024042 0.495848 0.435893 0.0301262 0.00840105 0.00384079 0.00184864 0 0 0 
924 0.020035 0.579908 0.36321 0.0251052 0.00700088 0.00320066 0.00154054 0 0 0 
925 0.0663224 0.781426 0.125559 0.0204814 0.00207045 0 0.00207044 0 0 0.00207044 
926 0 0.272327 0.465121 0.0468653 0 0.215686 0 0 0 0 
927 0.026105 0.486093 0.418633 0.0338129 0.0262652 0.00909039 0 0 0 0 
928 0.0207144 0.582714 0.143819 0.241701 0.0110508 0 0 0 0 0 
929 0.0207144 0.582714 0.143819 0.241701 0.0110508 0 0 0 0 0 
930 0.00737829 0.315569 0.375708 0.275688 0.0256568 0 0 0 0 0 
931 0.0207144 0.582714 0.14382 0.241701 0.0110508 0 0 0 0 0 
932 0.00782918 0.497445 0.393381 0.0756879 0.0256568 0 0 0 0 0 
933 0.026105 0.503766 0.40096 0.0338129 0.0262652 0.00909039 0 0 0 0 
934 0.026105 0.680058 0.224669 0.0338129 0.0262652 0.00909039 0 0 0 0 
935 0.0795869 0.543746 0.344627 0.0245854 0.00248454 0 0.00248453 0 0 0.00248453 
936 0.058013 0.660094 0.274551 2.5647e-06 0.00733949 0 0 0 0 0 
937 0.026105 0.686093 0.218633 0.0338129 0.0262652 0.00909039 0 0 0 0 
938 0.026105 0.535988 0.368738 0.0338129 0.0262652 0.00909039 0 0 0 0 
939 0.0207144 0.732819 0.193714 0.0417014 0.0110508 0 0 0 0 0 
940 0.058013 0.660086 0.274559 2.5647e-06 0.00733949 0 0 0 0 0 
941 0.0207144 0.782714 0.143819 0.0417014 0.0110508 0 0 0 0 0 
942 0.0795869 0.737704 0.150678 0.0245777 0.00248454 0 0.00248453 0 0 0.00248453 
943 0.024042 0.695848 0.235893 0.0301262 0.00840105 0.00384079 0.00184864 0 0 0 
944 0 0.472327 0.465121 0.0468653 0 0.0156863 0 0 0 0 
945 0 0.472321 0.465127 0.0468653 0 0.0156863 0 0 0 0 
946 0 0.234564 0.0795569 0.600998 0.0848807 0 0 0 0 0 
947 0.024042 0.495848 0.435893 0.0301262 0.00840105 0.00384079 0.00184864 0 0 0 
948 0.259985 0.549461 0.147324 0.0211331 0.0164157 0.0056815 0 0 0 0 
949 0.026105 0.68458 0.220146 0.0338129 0.0262652 0.00909039 0 0 0 0 
950 0.00835966 0.454771 0.455294 0.0627148 0.0141817 0.00467824 0 0 0 0 
951 0.024042 0.695732 0.236009 0.0301262 0.00840105 0.00384079 0.00184864 0 0 0 
952 0.0678621 0.615099 0.289874 0.0209531 0.00207045 0 0.00207044 0 0 0.00207044 
953 0.0795869 0.538277 0.350104 0.0245777 0.00248454 0 0.00248453 0 0 0.00248453 
954 0.0207144 0.582714 0.143819 0.241701 0.0110509 0 0 0 0 0 
955 0.026105 0.486093 0.218633 0.0338246 0.226253 0.00909039 0 0 0 0 
956 0.0138419 0.316656 0.339951 0.322763 7.87715e-06 0.00677974 0 0 0 0 
957 0.0795869 0.537711 0.15067 0.0245777 0.00248454 0 0.00248453 0 0 0.202484 
958 0.0795869 0.685543 0.202839 0.0245777 0.00248454 0 0.00248453 0 0 0.00248453 
959 0.0818162 0.834659 0.0648405 0.0133511 0.0026667 0.0026667 0 0 0 0 
960 0.00835966 0.653142 0.256923 0.0627148 0.0141817 0.00467824 0 0 0 0 
961 0.0795869 0.537711 0.15067 0.0245777 0.00248454 0 0.202484 0 0 0.00248453 
962 0.0207144 0.582714 0.343819 0.0417014 0.0110508 0 0 0 0 0 
963 0.0795869 0.737711 0.15067 0.0245777 0.00248454 0 0.00248453 0 0 0.00248453 
964 0.0795869 0.737711 0.15067 0.0245777 0.00248454 0 0.00248453 0 0 0.00248453 
965 0.00737829 0.515569 0.375708 0.0756879 0.0256568 0 0 0 0 0 
966 0.0138419 0.316656 0.375502 0.287212 7.87715e-06 0.00677974 0 0 0 0 
967 0.024042 0.671477 0.260264 0.0301262 0.00840105 0.00384079 0.00184864 0 0 0 
968 0.0207144 0.782714 0.143819 0.0417014 0.0110508 0 0 0 0 0 
969 0.00835966 0.453142 0.256923 0.262715 0.0141817 0.00467824 0 0 0 0 
970 0.024042 0.695821 0.23592 0.0301262 0.00840105 0.00384079 0.00184864 0 0 0 
971 0.0981795 0.601618 0.277781 0.0160214 0.00320004 0.00320004 0 0 0 0 
972 0 0.472327 0.465121 0.0468653 0 0.0156863 0 0 0 0 
973 0.00737829 0.315569 0.375708 0.0797111 0.221633 0 0 0 0 0 
974 0.00835966 0.453142 0.256923 0.256591 0.0203056 0.00467824 0 0 0 0 
975 0.00835966 0.45316 0.456905 0.062715 0.0141817 0.00467824 0 0 0 0 
976 0.024042 0.495848 0.435891 0.030128 0.00840105 0.00384079 0.00184864 0 0 0 
977 0.00737829 0.315569 0.375708 0.0757583 0.225586 0 0 0 0 0 
978 0.026105 0.486093 0.218633 0.0338214 0.226257 0.00909039 0 0 0 0 
979 0.0795869 0.537711 0.35067 0.0245777 0.00248454 0 0.00248453 0 0 0.00248453 
980 0.0138419 0.514725 0.341882 0.122763 7.87715e-06 0.00677974 0 0 0 0 
981 0.024042 0.495848 0.235893 0.0401956 0.198332 0.00384079 0.00184864 0 0 0 
982 0.0207144 0.582714 0.343819 0.0417014 0.0110508 0 0 0 0 0 
983 0.026105 0.686093 0.218633 0.0338129 0.0262652 0.00909039 0 0 0 0 
984 0.00737829 0.315572 0.575704 0.0756879 0.0256568 0 0 0 0 0 
985 0.026105 0.486093 0.218633 0.0338129 0.226265 0.00909039 0 0 0 0 
986 0.024042 0.695848 0.235893 0.0301262 0.00840105 0.00384079 0.00184864 0 0 0 
987 0.020719 0.706447 0.220082 0.0417014 0.0110508 0 0 0 0 0 
988 0.024042 0.689015 0.242726 0.0301262 0.00840105 0.00384079 0.00184864 0 0 0 
989 0.026105 0.686093 0.218633 0.0338129 0.0262652 0.00909039 0 0 0 0 
990 0.014796 0.701939 0.245584 0.0297867 0.00789343 0 0 0 0 0 
991 0.024042 0.495848 0.235893 0.230126 0.00840105 0.00384079 0.00184864 0 0 0 
992 0.0668095 0.802634 0.107677 0.0175555 0.00177467 0 0.00177466 0 0 0.00177466 
993 0.0217542 0.738411 0.182194 0.0281774 0.0218876 0.00757533 0 0 0 0 
994 0.024042 0.695848 0.235893 0.0301262 0.00840105 0.00384079 0.00184864 0 0 0 
995 0.0207144 0.782683 0.14385 0.0417014 0.0110508 0 0 0 0 0 
996 0.026105 0.48682 0.417906 0.0338129 0.0262652 0.00909039 0 0 0 0 
997 0 0.205923 0.287777 0.466372 0.039928 0 0 0 0 0 
998 0.00835966 0.599769 0.310296 0.0627148 0.0141817 0.00467824 0 0 0 0 
999 0.00835966 0.50675 0.403315 0.0627148 0.0141817 0.00467824 0 0 0 0 
1000 0.026105 0.486093 0.218633 0.0338129 0.026291 0.209064 0 0 0 0 
1001 0.024042 0.495865 0.435876 0.0301262 0.00840105 0.00384079 0.00184864 0 0 0 
1002 0.00737829 0.316771 0.524748 0.125445 0.0256568 0 0 0 0 0 
1003 0.0138419 0.316656 0.477205 0.185509 7.87715e-06 0.00677974 0 0 0 0 
1004 0.0138419 0.316656 0.40605 0.256664 7.87715e-06 0.00677974 0 0 0 0 
1005 0.0795869 0.587509 0.300873 0.0245777 0.00248454 0 0.00248453 0 0 0.00248453 
1006 0.0981795 0.601591 0.277809 0.0160214 0.00320004 0.00320004 0 0 0 0 
1007 0.0207144 0.782714 0.143819 0.0417014 0.0110508 0 0 0 0 0 
1008 0 0.247107 0.340476 0.365217 0.0471986 0 0 0 0 0 
1009 0.00835966 0.652454 0.257611 0.0627148 0.0141817 0.00467824 0 0 0 0 
1010 0.026105 0.686093 0.218633 0.0338129 0.0262652 0.00909039 0 0 0 0 
1011 0.00737829 0.511133 0.380143 0.0756879 0.0256568 0 0 0 0 0 
1012 0 0.272327 0.665121 0.0468653 0 0.0156863 0 0 0 0 
1013 0.00835966 0.453146 0.456918 0.0627157 0.0141817 0.00467824 0 0 0 0 
1014 0.0138419 0.516637 0.33997 0.122763 7.87715e-06 0.00677974 0 0 0 0 
1015 0.024042 0.495863 0.435878 0.0301262 0.00840105 0.00384079 0.00184864 0 0 0 
1016 0.00835966 0.652758 0.257307 0.0627148 0.0141817 0.00467824 0 0 0 0 
1017 0.026105 0.486472 0.418246 0.0338208 0.0262652 0.00909039 0 0 0 0 
1018 0.024042 0.495848 0.435893 0.0301262 0.00840105 0.00384079 0.00184864 0 0 0 
1019 0.024042 0.495856 0.435885 0.0301263 0.00840105 0.00384079 0.00184864 0 0 0 
1020 0 0.146843 0.777919 0.0299674 0.0150822 0.0301882 0 0 0 0 
1021 0 0.146843 0.598866 0.20902 0.0150822 0.0301882 0 0 0 0 
1022 0.0818162 0.834659 0.0648405 0.0133511 0.0026667 0.0026667 0 0 0 0 
1023 0.0138419 0.316656 0.340026 0.322688 7.87715e-06 0.00677974 0 0 0 0 
1024 0.0207144 0.782714 0.143819 0.0417014 0.0110508 0 0 0 0 0 
1025 0.00737829 0.315597 0.575679 0.0756879 0.0256568 0 0 0 0 0 
1026 0.0795869 0.737711 0.15067 0.0245777 0.00248454 0 0.00248453 0 0 0.00248453 
1027 0.00835966 0.653142 0.256923 0.0627148 0.0141817 0.00467824 0 0 0 0 
1028 0.024042 0.507426 0.424315 0.0301262 0.00840105 0.00384079 0.00184864 0 0 0 
1029 0.026105 0.686093 0.218633 0.0338129 0.0262652 0.00909039 0 0 0 0 
1030 0.00614858 0.268814 0.640583 0.0630732 0.0213806 0 0 0 0 0 
1031 0.0138419 0.316694 0.539913 0.122763 7.87715e-06 0.00677974 0 0 0 0 
1032 0.0171728 0.782749 0.168495 0.0215187 0.00600075 0.00274342 0.00132046 0 0 0 
1033 0.0568478 0.812651 0.107622 0.0175555 0.00177467 0 0.00177466 0 0 0.00177466 
1034 0.0115349 0.597213 0.283292 0.102303 6.56429e-06 0.00564979 0 0 0 0 
1035 0.020035 0.579874 0.363243 0.0251052 0.00700088 0.00320066 0.00154054 0 0 0 
1036 0.0207144 0.782714 0.143819 0.0417014 0.0110508 0 0 0 0 0 
1037 0.0207144 0.782714 0.143819 0.0417014 0.0110508 0 0 0 0 0 
1038 0.0795869 0.537711 0.35067 0.0245777 0.00248454 0 0.00248453 0 0 0.00248453 
1039 0.024042 0.695848 0.235893 0.0301262 0.00840105 0.00384079 0.00184864 0 0 0 
1040 0.024042 0.497552 0.434189 0.0301262 0.00840105 0.00384079 0.00184864 0 0 0 
1041 0.0207144 0.780994 0.145539 0.0417014 0.0110508 0 0 0 0 0 
1042 0 0.146858 0.777904 0.0299674 0.0150822 0.0301882 0 0 0 0 
1043 0.0663224 0.781426 0.125559 0.0204814 0.00207045 0 0.00207044 0 0 0.00207044 
1044 0.0201787 0.551955 0.391019 0.0251052 0.00700088 0.00320066 0.00154054 0 0 0 
1045 0.00835966 0.653142 0.256923 0.0627148 0.0141817 0.00467824 0 0 0 0 
1046 0.014796 0.701959 0.245054 0.0302974 0.00789343 0 0 0 0 0 
1047 0.00737829 0.316284 0.574917 0.0757635 0.0256568 0 0 0 0 0 
1048 0.024042 0.495848 0.235893 0.230126 0.00840105 0.00384079 0.00184864 0 0 0 
1049 0.024042 0.695848 0.235893 0.0301262 0.00840105 0.00384079 0.00184864 0 0 0 
1050 0.024042 0.685067 0.246674 0.0301262 0.00840105 0.00384079 0.00184864 0 0 0 
1051 0.0795869 0.548492 0.339889 0.0245777 0.00248454 0 0.00248453 0 0 0.00248453 
1052 0.0795869 0.537711 0.35067 0.0245777 0.00248454 0 0.00248453 0 0 0.00248453 
1053 0.0981795 0.800014 0.0793853 0.0160214 0.00320004 0.00320004 0 0 0 0 
1054 0.0207144 0.58386 0.342673 0.0417014 0.0110508 0 0 0 0 0 
1055 0.0207144 0.782714 0.143819 0.0417014 0.0110508 0 0 0 0 0 
1056 0.10141 0.79836 0.0778087 0.0160214 0.00320004 0.00320004 0 0 0 0 
1057 0.0138419 0.516656 0.339951 0.122763 7.87715e-06 0.00677974 0 0 0 0 
1058 0.0207144 0.782669 0.143863 0.0417014 0.0110508 0 0 0 0 0 
1059 0.0483441 0.883405 0.0621321 2.13725e-06 0.00611624 0 0 0 0 0 
1060 0 0.409148 0.30855 0.282301 0 0 0 0 0 0 
1061 0.00737829 0.315569 0.375716 0.27568 0.0256568 0 0 0 0 0 
1062 0.0981795 0.601591 0.277808 0.0160214 0.00320004 0.00320004 0 0 0 0 
1063 0.0795869 0.737711 0.15067 0.0245777 0.00248454 0 0.00248453 0 0 0.00248453 
1064 0.0252509 0.284642 0.690044 6.25689e-05 0 0 0 0 0 0 
1065 0.0217542 0.738411 0.182194 0.0281774 0.0218876 0.00757533 0 0 0 0 
1066 0.024042 0.695848 0.235893 0.0301262 0.00840105 0.00384079 0.00184864 0 0 0 
1067 0.024042 0.495848 0.235896 0.230123 0.00840113 0.00384079 0.00184864 0 0 0 
1068 0.00737829 0.515569 0.375708 0.0756879 0.0256568 0 0 0 0 0 
1069 0.00737829 0.322658 0.568609 0.0756973 0.0256568 0 0 0 0 0 
1070 0.024042 0.495848 0.235926 0.230093 0.00840105 0.00384079 0.00184864 0 0 0 
1071 0.0207144 0.582714 0.343819 0.0417015 0.0110508 0 0 0 0 0 
1072 0.0981796 0.80159 0.0778086 0.0160214 0.00320004 0.00320004 0 0 0 0 
1073 0.026105 0.486093 0.418633 0.0338129 0.0262652 0.00909039 0 0 0 0 
1074 0.0207144 0.782713 0.14382 0.0417014 0.0110508 0 0 0 0 0 
1075 0.00737829 0.315571 0.575706 0.0756879 0.0256568 0 0 0 0 0 
1076 0.024042 0.693806 0.237935 0.0301262 0.00840105 0.00384079 0.00184864 0 0 0 
1077 0.0207144 0.582714 0.343819 0.0417014 0.0110508 0 0 0 0 0 
1078 0 0.472327 0.465121 0.0468653 0 0.0156863 0 0 0 0 
1079 0.0207144 0.582714 0.15098 0.234541 0.0110508 0 0 0 0 0 
1080 0.00737829 0.315569 0.575707 0.0756879 0.0256568 0 0 0 0 0 
1081 0.058013 0.860086 0.0745588 2.5647e-06 0.00733949 0 0 0 0 0 
1082 0 0.272334 0.665114 0.0468653 0 0.0156863 0 0 0 0 
1083 0.026105 0.686086 0.21864 0.0338129 0.0262652 0.00909039 0 0 0 0 
1084 0.0207144 0.782705 0.143828 0.0417014 0.0110508 0 0 0 0 0 
1085 0.026105 0.486102 0.418624 0.0338129 0.0262652 0.00909039 0 0 0 0 
1086 0.00835966 0.652426 0.257639 0.0627148 0.0141817 0.00467824 0 0 0 0 
1087 0.028488 0.691402 0.235893 0.0301262 0.00840105 0.00384079 0.00184864 0 0 0 
1088 0.0207144 0.782714 0.143819 0.0417014 0.0110508 0 0 0 0 0 
1089 0.0207144 0.782714 0.143819 0.0417014 0.0110508 0 0 0 0 0 
1090 0 0.146843 0.777919 0.0299674 0.0150822 0.0301882 0 0 0 0 
1091 0.00614858 0.429882 0.411806 0.130782 0.0213806 0 0 0 0 0 
1092 0.00737829 0.315569 0.41148 0.239915 0.0256568 0 0 0 0 0 
1093 0.172157 0.421341 0.182197 0.194842 0.0218876 0.00757533 0 0 0 0 
1094 0 0.224294 0.477148 0.298557 0 0 0 0 0 0 
1095 0.00835966 0.453142 0.456923 0.0627148 0.0141817 0.00467824 0 0 0 0 
1096 0.00835966 0.453142 0.456923 0.0627148 0.0141817 0.00467824 0 0 0 0 
1097 0.00835966 0.453142 0.25693 0.262708 0.0141817 0.00467824 0 0 0 0 
1098 0.024042 0.695848 0.235893 0.0301262 0.00840105 0.00384079 0.00184864 0 0 0 
1099 0.026105 0.686065 0.218661 0.0338129 0.0262652 0.00909039 0 0 0 0 
1100 0.0795869 0.737536 0.150845 0.0245777 0.00248454 0 0.00248453 0 0 0.00248453 
1101 0.0207144 0.582889 0.343644 0.0417014 0.0110508 0 0 0 0 0 
1102 0.0991816 0.659033 0.183518 0.0447963 0.0101298 0.0033416 0 0 0 0 
1103 0.00737829 0.315574 0.575703 0.0756879 0.0256568 0 0 0 0 0 
1104 0 0.447105 0.339643 0.166064 0.0471866 0 0 0 0 0 
1105 0.0115349 0.264551 0.615954 0.102303 6.56429e-06 0.00564979 0 0 0 0 
1106 0 0.247107 0.539641 0.166064 0.0471866 0 0 0 0 0 
1107 0.00988707 0.36904 0.52851 0.0877143 5.62654e-06 0.00484267 0 0 0 0 
1108 0.00865749 0.14253 0.848737 7.50827e-05 0 0 0 0 0 0 
1109 0 0.146843 0.777919 0.0299674 0.0150822 0.0301882 0 0 0 0 
1110 0.00737829 0.396996 0.494032 0.0759364 0.0256568 0 0 0 0 0 
1111 0.024042 0.495848 0.249304 0.216715 0.00840105 0.00384079 0.00184864 0 0 0 
1112 0.0795869 0.737711 0.15067 0.0245777 0.00248454 0 0.00248453 0 0 0.00248453 
1113 0.0138419 0.516656 0.339951 0.122763 7.87715e-06 0.00677974 0 0 0 0 
1114 0.058013 0.860087 0.0745586 2.5647e-06 0.00733949 0 0 0 0 0 
1115 0.0207144 0.782714 0.143819 0.0417014 0.0110508 0 0 0 0 0 
1116 0.00835966 0.653142 0.256923 0.0627148 0.0141817 0.00467824 0 0 0 0 
1117 0.026105 0.672146 0.23258 0.0338129 0.0262652 0.00909039 0 0 0 0 
1118 0.024042 0.49599 0.435751 0.0301262 0.00840105 0.00384079 0.00184864 0 0 0 
1119 0.024042 0.695848 0.235893 0.0301262 0.00840105 0.00384079 0.00184864 0 0 0 
1120 0 0.247183 0.539566 0.166064 0.0471866 0 0 0 0 0 
1121 0.0138419 0.316656 0.339951 0.322763 7.87715e-06 0.00677974 0 0 0 0 
1122 0.024042 0.68824 0.243501 0.0301262 0.00840105 0.00384079 0.00184864 0 0 0 
1123 0.024042 0.496733 0.435008 0.0301262 0.00840105 0.00384079 0.00184864 0 0 0 
1124 0 0.146843 0.777875 0.0300113 0.0150822 0.0301882 0 0 0 0 
1125 0.024042 0.695848 0.235893 0.0301262 0.00840105 0.00384079 0.00184864 0 0 0 
1126 0.024042 0.695848 0.235893 0.0301262 0.00840105 0.00384079 0.00184864 0 0 0 
1127 0 0.234564 0.0795551 0.471151 0.21473 0 0 0 0 0 
