2 0.442381 0.224286 0.333333 0 0 0 0 0 0 0 
3 0.956755 0.0428375 0.000370327 0 3.77276e-05 0 0 0 0 0 
4 0.293397 0.649073 0.0404813 0.0149114 0.00213827 0 0 0 0 0 
5 0.983998 0.0153668 0.000576585 0 5.87405e-05 0 0 0 0 0 
6 0.365638 0.562449 0.0506016 0.0186393 0.00267284 0 0 0 0 0 
7 0.417738 0.58183 0.000392682 0 4.00043e-05 0 0 0 0 0 
8 0.154749 0.749365 0.0674687 0.0248523 0.00356379 0 0 0 0 0 
9 0.196569 0.520671 0.282698 6.19299e-05 0 0 0 0 0 0 
10 0.18502 0.499918 0.280962 0.0298228 0.00427655 0 0 0 0 0 
11 0.120578 0.828498 0.0334149 0.0138031 0.00370648 0 0 0 0 0 
12 0.924629 0.0735305 0.00168764 7.66743e-05 1.94025e-06 7.4736e-05 0 0 0 0 
13 0.221865 0.714212 0.0449792 0.0165682 0.00237586 0 0 0 0 0 
14 0.964492 0.0346834 0.00074849 0 7.60738e-05 0 0 0 0 0 
15 0.361426 0.58765 0.0334149 0.0138031 0.00370648 0 0 0 0 0 
16 0.192512 0.749957 0.0404813 0.0149114 0.00213827 0 0 0 0 0 
17 0.0123388 0.987556 8.77994e-06 0 9.6605e-05 0 0 0 0 0 
18 0.317869 0.648086 0.0312078 0.00141847 3.58945e-05 0.00138262 0 0 0 0 
19 0.544811 0.448019 0.00650717 0 0.000662929 0 0 0 0 0 
20 0.544811 0.448019 0.00650717 0 0.000662929 0 0 0 0 0 
21 0.189269 0.781559 0.029043 0 0.000128903 0 0 0 0 0 
22 0.381443 0.577704 0.0374493 0.00170217 4.30735e-05 0.00165914 0 0 0 0 
23 0.26889 0.693042 0.0380601 8.14595e-06 0 0 0 0 0 0 
24 0.115638 0.812449 0.0506016 0.0186393 0.00267284 0 0 0 0 0 
25 0.279837 0.690982 0.0267495 0.00121583 3.07668e-05 0.0011851 0 0 0 0 
26 0.130191 0.746685 0.109862 0.00483166 0.00407277 0.00435732 0 0 0 0 
27 0.936386 0.0630687 0.000495174 0 5.04402e-05 0 0 0 0 0 
28 0.318903 0.613198 0.0445531 0.0184041 0.00494197 0 0 0 0 0 
29 0.103027 0.767007 0.0941856 0.025852 0.00657926 0.00334837 0 0 0 0 
30 0.0976427 0.482296 0.410114 0.00362374 0.00305458 0.00326799 0 0 0 0 
31 0.562735 0.427227 0.00911004 0 0.0009281 0 0 0 0 0 
32 0.18502 0.699829 0.081051 0.0298228 0.00427655 0 0 0 0 0 
33 0.0623576 0.83291 0.0810358 0.0236962 0 0 0 0 0 0 
34 0.18502 0.50013 0.28075 0.0298228 0.00427655 0 0 0 0 0 
35 0.423625 0.570799 0.00506113 0 0.000515611 0 0 0 0 0 
36 1.73276e-06 0.911174 0.0443798 0.0444444 0 0 0 0 0 0 
37 0.488407 0.486059 0.0234058 0.00106386 2.69209e-05 0.00103696 0 0 0 0 
38 0.156228 0.695405 0.132453 0.00579799 0.00488733 0.00522878 0 0 0 0 
39 0.103027 0.567626 0.293566 0.025852 0.00657926 0.00334837 0 0 0 0 
40 0.77651 0.218252 0.00480119 0.000218227 5.52224e-06 0.00021271 0 0 0 0 
41 0.190721 0.689419 0.118158 0.000851084 2.15367e-05 0.00082957 0 0 0 0 
42 0.390721 0.588852 0.0187247 0.000851084 2.15367e-05 0.00082957 0 0 0 0 
43 0.4884 0.486066 0.0234058 0.00106386 2.69209e-05 0.00103696 0 0 0 0 
44 0.276842 0.720768 0.00216906 0 0.000220976 0 0 0 0 0 
45 0.0623576 0.83291 0.0810358 0.0236962 0 0 0 0 0 0 
46 0.562735 0.427227 0.00911004 0 0.0009281 0 0 0 0 0 
47 0.196983 0.672371 0.0948658 0.025852 0.00657926 0.00334837 0 0 0 0 
48 0.385724 0.582934 0.0205674 0.0084942 0.00228091 0 0 0 0 0 
49 0.365077 0.576723 0.0381884 0.0157749 0.00423597 0 0 0 0 0 
50 0.491831 0.457244 0.0334149 0.0138031 0.00370648 0 0 0 0 0 
51 0.327437 0.604664 0.0445531 0.0184041 0.00494197 0 0 0 0 0 
52 0.260689 0.725693 0.0124831 0.000567389 1.43578e-05 0.000553046 0 0 0 0 
53 0.115638 0.812449 0.0506016 0.0186393 0.00267284 0 0 0 0 0 
54 0.156228 0.696023 0.131835 0.00579799 0.00488733 0.00522878 0 0 0 0 
55 0.908509 0.0895609 0.00175193 0 0.000178481 0 0 0 0 0 
56 0.427857 0.56035 0.00800794 0.00298445 0.0008014 0 0 0 0 0 
57 0.213666 0.705106 0.0588654 0.0161575 0.00411204 0.00209273 0 0 0 0 
58 0.358614 0.638744 0.00239738 0 0.000244237 0 0 0 0 0 
59 0.440196 0.541826 0.0126504 0.00465982 0.000668211 0 0 0 0 0 
60 0.423517 0.518283 0.0381884 0.0157749 0.00423597 0 0 0 0 0 
61 0.0389735 0.895569 0.0506474 0.0148101 0 0 0 0 0 0 
62 0.192924 0.725597 0.0534638 0.0220849 0.00593036 0 0 0 0 0 
63 0.120581 0.828494 0.0334149 0.0138031 0.00370648 0 0 0 0 0 
64 0.495577 0.453498 0.0334149 0.0138031 0.00370648 0 0 0 0 0 
65 0.0858562 0.80584 0.0784872 0.0215434 0.00548272 0.00279031 0 0 0 0 
66 0.238402 0.736065 0.0234058 0.00106386 2.69209e-05 0.00103696 0 0 0 0 
67 0.0623576 0.83291 0.0810358 0.0236962 0 0 0 0 0 0 
68 0.506265 0.464635 0.0190942 0.00788748 0.00211799 0 0 0 0 0 
69 0.484366 0.474894 0.0267319 0.0110425 0.00296518 0 0 0 0 0 
70 0.0841001 0.863599 0.0368011 0.0135558 0.00194389 0 0 0 0 0 
71 0.137507 0.821399 0.0289152 0.010651 0.00152734 0 0 0 0 0 
72 0.0447905 0.936689 0.0121529 0.0050193 0.00134781 0 0 0 0 0 
73 0.959358 0.0396577 0.000893141 0 9.09902e-05 0 0 0 0 0 
74 0.0248761 0.94418 0.0224249 0.00615525 0.00156649 0.000797232 0 0 0 0 
75 0.196569 0.714859 0.0885098 6.19092e-05 0 0 0 0 0 0 
76 0.238402 0.736065 0.0234058 0.00106386 2.69209e-05 0.00103696 0 0 0 0 
77 0.280655 0.661145 0.0381884 0.0157749 0.00423597 0 0 0 0 0 
78 0.327437 0.437997 0.0445531 0.185071 0.00494202 0 0 0 0 0 
79 0.330474 0.429049 0.240425 5.17401e-05 0 0 0 0 0 0 
80 0.381443 0.577704 0.0374493 0.00170217 4.30735e-05 0.00165914 0 0 0 0 
81 0.275007 0.642806 0.0578304 0.021302 0.00305468 0 0 0 0 0 
82 0.0519647 0.860758 0.0675299 0.0197469 0 0 0 0 0 0 
83 0.103027 0.767007 0.0941852 0.025852 0.00657926 0.00334837 0 0 0 0 
84 0.393789 0.604538 0.00151834 0 0.000154683 0 0 0 0 0 
85 0.192924 0.725597 0.0534638 0.0220849 0.00593036 0 0 0 0 0 
86 0.327306 0.604795 0.0445531 0.0184041 0.00494197 0 0 0 0 0 
87 0.575773 0.406979 0.015829 0.000709237 1.79473e-05 0.000691308 0 0 0 0 
88 0.861246 0.135407 0.00303668 0 0.000309367 0 0 0 0 0 
89 0.381893 0.586769 0.020563 0.0084942 0.00228091 0 0 0 0 0 
90 0.320383 0.650262 0.0186024 0.0107527 0 0 0 0 0 0 
91 0.192924 0.725597 0.0534638 0.0220849 0.00593036 0 0 0 0 0 
92 0.154184 0.749931 0.0674687 0.0248523 0.00356379 0 0 0 0 0 
93 0.192924 0.714548 0.0645129 0.0220849 0.00593036 0 0 0 0 0 
94 0.293231 0.638869 0.0445531 0.0184041 0.00494197 0 0 0 0 0 
95 0.408769 0.588722 0.00227751 0 0.000232025 0 0 0 0 0 
96 0.103027 0.767008 0.0941846 0.025852 0.00657926 0.00334837 0 0 0 0 
97 0.691561 0.301261 0.00651515 0 0.000662929 0 0 0 0 0 
98 0.327437 0.437997 0.0445531 0.0527541 0.137258 0 0 0 0 0 
99 0.120578 0.828498 0.0334149 0.0138031 0.00370648 0 0 0 0 0 
100 0.240637 0.437449 0.300602 0.0186393 0.00267284 0 0 0 0 0 
101 0.0389735 0.895569 0.0506474 0.0148101 0 0 0 0 0 0 
102 0.156228 0.696023 0.131835 0.00579799 0.00488733 0.00522878 0 0 0 0 
103 0.4904 0.478819 0.0274655 0.00120791 0.00101819 0.00108933 0 0 0 0 
104 0.92155 0.0772547 0.00108453 0 0.000110488 0 0 0 0 0 
105 0.103027 0.567008 0.0998983 0.220138 0.00657926 0.00334837 0 0 0 0 
106 0.192924 0.725595 0.0534648 0.0220849 0.00593036 0 0 0 0 0 
107 0.291048 0.650753 0.0381884 0.0157749 0.00423597 0 0 0 0 0 
108 0.103494 0.766541 0.0941848 0.025852 0.00657926 0.00334837 0 0 0 0 
109 0.327164 0.604937 0.0445531 0.0184041 0.00494197 0 0 0 0 0 
110 0.18502 0.499918 0.280962 0.0298228 0.00427655 0 0 0 0 0 
111 0.18502 0.499936 0.280944 0.0298228 0.00427655 0 0 0 0 0 
112 0.137803 0.51827 0.323916 0.0157749 0.00423597 0 0 0 0 0 
113 0.0623576 0.83291 0.0810358 0.0236962 0 0 0 0 0 0 
114 0.403133 0.567685 0.0267495 0.00121583 3.07668e-05 0.0011851 0 0 0 0 
115 0.16077 0.77133 0.0445532 0.0184041 0.00494197 0 0 0 0 0 
116 0.626374 0.339582 0.0312078 0.00141847 3.58945e-05 0.00138262 0 0 0 0 
117 0.327437 0.604664 0.0445531 0.0184041 0.00494197 0 0 0 0 0 
118 0.450467 0.530963 0.0170224 0.000773713 1.95788e-05 0.000754154 0 0 0 0 
119 6.84411e-06 0.923859 0.0380385 0.0380952 0 0 0 0 0 0 
120 0.195391 0.736703 0.0445594 0.0184041 0.00494197 0 0 0 0 0 
121 0.192924 0.725597 0.0534638 0.0220849 0.00593036 0 0 0 0 0 
122 0.18502 0.499918 0.280962 0.0298228 0.00427655 0 0 0 0 0 
123 0.434309 0.541239 0.0225601 0.000945649 2.39297e-05 0.000921744 0 0 0 0 
124 0.18502 0.699917 0.0809625 0.0298228 0.00427655 0 0 0 0 0 
125 0.137282 0.732262 0.112273 0.0181819 0 0 0 0 0 0 
126 0.154184 0.417089 0.400311 0.0248523 0.00356379 0 0 0 0 0 
127 0.18502 0.699889 0.0809906 0.0298228 0.00427655 0 0 0 0 0 
128 0.943907 0.0540015 0.00189793 0 0.000193354 0 0 0 0 0 
129 0.192924 0.725596 0.0534638 0.0220849 0.00593036 0 0 0 0 0 
130 0.240638 0.687449 0.0506016 0.0186393 0.00267284 0 0 0 0 0 
131 0.18502 0.499918 0.280962 0.0298228 0.00427655 0 0 0 0 0 
132 0.65475 0.342113 0.00284689 0 0.000290031 0 0 0 0 0 
133 0.0976427 0.810014 0.0823966 0.00362374 0.00305458 0.00326799 0 0 0 0 
134 0.363389 0.611077 0.0234058 0.00106386 2.69209e-05 0.00103696 0 0 0 0 
135 0.103027 0.567136 0.294054 0.0258547 0.00657926 0.00334837 0 0 0 0 
136 0.130193 0.746574 0.109971 0.00483166 0.00407277 0.00435732 0 0 0 0 
137 0.801812 0.193625 0.00414093 0 0.000421864 0 0 0 0 0 
138 0.768266 0.229801 0.00175445 0 0.000178481 0 0 0 0 0 
139 0.214814 0.670123 0.0809628 0.0298228 0.00427655 0 0 0 0 0 
140 0.18502 0.699917 0.0809625 0.0298228 0.00427655 0 0 0 0 0 
141 0.723303 0.222045 0.0538784 0.000386856 9.78942e-06 0.000377077 0 0 0 0 
142 0.103027 0.767008 0.0941846 0.025852 0.00657926 0.00334837 0 0 0 0 
143 0.103027 0.758627 0.102566 0.025852 0.00657926 0.00334837 0 0 0 0 
144 0.360132 0.633526 0.00576273 0 0.000580063 0 0 0 0 0 
145 0.468946 0.522689 0.0075917 0 0.000773417 0 0 0 0 0 
146 0.384459 0.580315 0.0223229 0.0129033 0 0 0 0 0 0 
147 0.381443 0.577704 0.0374493 0.00170217 4.30735e-05 0.00165914 0 0 0 0 
148 0.381443 0.577704 0.0374493 0.00170217 4.30735e-05 0.00165914 0 0 0 0 
149 0.192924 0.725597 0.0534638 0.0220849 0.00593036 0 0 0 0 0 
150 0.381443 0.399007 0.216146 0.00170217 4.30735e-05 0.00165914 0 0 0 0 
151 0.218292 0.736437 0.0297069 0.0122694 0.00329465 0 0 0 0 0 
152 0.240638 0.687449 0.0506016 0.0186393 0.00267284 0 0 0 0 0 
153 0.18502 0.678626 0.102254 0.0298228 0.00427655 0 0 0 0 0 
154 0.54524 0.432064 0.0208052 0.000945649 2.39297e-05 0.000921744 0 0 0 0 
155 0.545425 0.431879 0.0208052 0.000945649 2.39297e-05 0.000921744 0 0 0 0 
156 0.251711 0.639985 0.0784872 0.0215434 0.00548272 0.00279031 0 0 0 0 
157 0.0858562 0.80584 0.0784872 0.0215434 0.00548272 0.00279031 0 0 0 0 
158 0.137282 0.732823 0.111713 0.0181819 0 0 0 0 0 0 
159 3.021e-07 0.867547 0.0988393 0 0.0336135 0 0 0 0 0 
160 0.178467 0.784497 0.0243018 0.0100386 0.00269562 0 0 0 0 0 
161 0.111592 0.782873 0.0941675 0.00414142 0.00349095 0.00373485 0 0 0 0 
162 0.0858562 0.472517 0.41181 0.0215434 0.00548272 0.00279031 0 0 0 0 
163 0.0519647 0.860758 0.0675299 0.0197469 0 0 0 0 0 0 
164 0.192924 0.725329 0.0537313 0.0220849 0.00593036 0 0 0 0 0 
165 0.154184 0.749931 0.067469 0.0248523 0.00356379 0 0 0 0 0 
166 0.226491 0.750812 0.0208052 0.000945649 2.39297e-05 0.000921744 0 0 0 0 
167 0.137282 0.706582 0.137953 0.0181819 0 0 0 0 0 0 
168 0.330385 0.429236 0.239632 0.000746689 0 0 0 0 0 0 
169 0.111592 0.782873 0.0941675 0.00414142 0.00349095 0.00373485 0 0 0 0 
170 0.37506 0.593571 0.0205941 0.0084942 0.00228091 0 0 0 0 0 
171 0.484438 0.481517 0.0312078 0.00141847 3.58945e-05 0.00138262 0 0 0 0 
172 0.303683 0.60033 0.0675704 0.0248523 0.00356379 0 0 0 0 0 
173 0.0572375 0.87056 0.0523248 0.0143623 0.00365515 0.00186021 0 0 0 0 
174 0.196083 0.722123 0.0537781 0.0220849 0.00593036 0 0 0 0 0 
175 0.319348 0.607759 0.072561 0 0.000331464 0 0 0 0 0 
176 0.594577 0.367069 0.0269876 0.00994094 0.00142552 0 0 0 0 0 
177 0.0623576 0.832902 0.0810432 0.0236962 0 0 0 0 0 0 
178 0.163809 0.762382 0.0737582 5.1591e-05 0 0 0 0 0 0 
179 0.192924 0.725597 0.0534638 0.0220849 0.00593036 0 0 0 0 0 
180 0.0094484 0.986661 6.74559e-06 0 0.00388352 0 0 0 0 0 
181 0.103027 0.767008 0.0941846 0.025852 0.00657926 0.00334837 0 0 0 0 
182 0.192924 0.725597 0.0534638 0.0220849 0.00593036 0 0 0 0 0 
183 0.0623576 0.83291 0.0810358 0.0236962 0 0 0 0 0 0 
184 0.381443 0.577704 0.0374493 0.00170217 4.30735e-05 0.00165914 0 0 0 0 
185 0.0858562 0.80584 0.0784872 0.0215434 0.00548272 0.00279031 0 0 0 0 
186 0.183065 0.744733 0.0523248 0.0143623 0.00365515 0.00186021 0 0 0 0 
187 0.192924 0.699107 0.0799533 0.0220849 0.00593036 0 0 0 0 0 
188 0.156228 0.496023 0.331834 0.00579799 0.00488733 0.00522878 0 0 0 0 
189 0.68902 0.305961 0.00455502 0 0.00046405 0 0 0 0 0 
190 0.280656 0.661144 0.0381884 0.0157749 0.00423597 0 0 0 0 0 
191 0.484535 0.48142 0.0312078 0.00141847 3.58945e-05 0.00138262 0 0 0 0 
192 0.103033 0.767003 0.0941846 0.025852 0.00657926 0.00334837 0 0 0 0 
193 0.18502 0.499918 0.0809971 0.229788 0.00427655 0 0 0 0 0 
194 0.32577 0.440734 0.210145 0.0184085 0.00494197 0 0 0 0 0 
195 0.194889 0.723632 0.0534638 0.0220849 0.00593036 0 0 0 0 0 
196 0.192924 0.725597 0.0534638 0.0220849 0.00593036 0 0 0 0 0 
197 0 0 0 0 0 0.999999 0 0 0 0 
198 0.18502 0.699917 0.0809625 0.0298228 0.00427655 0 0 0 0 0 
199 0.073591 0.833577 0.0672747 0.0184657 0.00469947 0.00239169 0 0 0 0 
200 0 0 0 0 0 0.999999 0 0 0 0 
201 0.18502 0.699917 0.0809625 0.0298228 0.00427655 0 0 0 0 0 
202 0.192924 0.525597 0.253464 0.0220849 0.00593036 0 0 0 0 0 
203 0.381443 0.577704 0.0374494 0.00170217 4.30735e-05 0.00165914 0 0 0 0 
204 0.156228 0.696023 0.131835 0.00579799 0.00488733 0.00522878 0 0 0 0 
205 0.363402 0.611064 0.0234058 0.00106386 2.69209e-05 0.00103696 0 0 0 0 
206 0.18502 0.699917 0.0809625 0.0298228 0.00427655 0 0 0 0 0 
207 0.381443 0.577704 0.0374493 0.00170217 4.30735e-05 0.00165914 0 0 0 0 
208 0.185021 0.699917 0.0809625 0.0298228 0.00427655 0 0 0 0 0 
209 0.415316 0.555503 0.0267495 0.00121583 3.07668e-05 0.0011851 0 0 0 0 
210 0.0858562 0.639173 0.245154 0.0215434 0.00548272 0.00279031 0 0 0 0 
211 0.317869 0.48142 0.0312078 0.168085 3.61715e-05 0.00138262 0 0 0 0 
212 0.132157 0.785655 0.0578304 0.021302 0.00305468 0 0 0 0 0 
213 0.18502 0.6999 0.0809801 0.0298228 0.00427655 0 0 0 0 0 
214 0.415232 0.581183 0.00325359 0 0.000331464 0 0 0 0 0 
215 0 0 0.999999 0 0 0 0 0 0 0 
216 0.18502 0.699917 0.0809625 0.0298228 0.00427655 0 0 0 0 0 
217 0.18502 0.699917 0.0809625 0.0298228 0.00427655 0 0 0 0 0 
218 0.281069 0.44402 0.25976 0.0151516 0 0 0 0 0 0 
219 0.154184 0.749931 0.0674687 0.0248523 0.00356379 0 0 0 0 0 
220 0.192924 0.725596 0.0534644 0.0220849 0.00593036 0 0 0 0 0 
221 0.185021 0.699917 0.0809625 0.0298228 0.00427655 0 0 0 0 0 
222 0.156228 0.696023 0.131835 0.00579799 0.00488733 0.00522878 0 0 0 0 
223 0 0.999999 0 0 0 0 0 0 0 0 
224 0.156228 0.696023 0.131835 0.00579799 0.00488733 0.00522878 0 0 0 0 
225 0.16077 0.771331 0.0445531 0.0184041 0.00494197 0 0 0 0 0 
226 0.192924 0.525597 0.253464 0.0220849 0.00593036 0 0 0 0 0 
227 0.332024 0.569651 0.0975145 0.000405278 1.02556e-05 0.000395033 0 0 0 0 
228 0.67993 0.313959 0.00388654 0.0022247 0 0 0 0 0 0 
229 0.286493 0.682165 0.0205673 0.0084942 0.00228091 0 0 0 0 0 
230 0.137282 0.732823 0.111712 0.0181819 0 0 0 0 0 0 
231 0.137803 0.8034 0.0387855 0.0157749 0.00423597 0 0 0 0 0 
232 0.415316 0.555503 0.0267495 0.00121583 3.07668e-05 0.0011851 0 0 0 0 
233 0.198116 0.719801 0.0732414 0.00322111 0.00271518 0.00290488 0 0 0 0 
234 0.256662 0.685145 0.0450284 0.0131646 0 0 0 0 0 0 
235 0.16077 0.771331 0.0445531 0.0184041 0.00494197 0 0 0 0 0 
236 0.160782 0.771318 0.0445531 0.0184041 0.00494197 0 0 0 0 0 
237 0.280658 0.661143 0.0381884 0.0157749 0.00423597 0 0 0 0 0 
238 0.245577 0.703498 0.0334149 0.0138031 0.00370648 0 0 0 0 0 
239 0.13019 0.746686 0.109862 0.00483166 0.00407277 0.00435732 0 0 0 0 
240 0.33033 0.63572 0.0222766 0.00920206 0.00247098 0 0 0 0 0 
241 0.103027 0.567008 0.0941846 0.025852 0.206579 0.00334837 0 0 0 0 
242 0.121064 0.803738 0.0576884 0.0138031 0.00370648 0 0 0 0 0 
243 0.192924 0.725597 0.0534638 0.0220849 0.00593036 0 0 0 0 0 
244 0.327437 0.604664 0.0445531 0.0184041 0.00494197 0 0 0 0 0 
245 0.451044 0.421011 0.115211 0.0100386 0.00269562 0 0 0 0 0 
246 0.103027 0.767008 0.0941846 0.025852 0.00657926 0.00334837 0 0 0 0 
247 0.408934 0.574043 0.0156039 0.000709237 1.79473e-05 0.000691308 0 0 0 0 
248 0.18502 0.499918 0.0809625 0.029971 0.204128 0 0 0 0 0 
249 0.0623576 0.83291 0.0810358 0.0236962 0 0 0 0 0 0 
250 0.372941 0.505893 0.108051 0.0114703 0.00164483 0 0 0 0 0 
251 0.160772 0.771328 0.0445531 0.0184041 0.00494197 0 0 0 0 0 
252 0.539896 0.41925 0.0374493 0.00170217 4.30735e-05 0.00165914 0 0 0 0 
253 0.381443 0.577704 0.0374493 0.00170217 4.30735e-05 0.00165914 0 0 0 0 
254 4.2294e-07 0.81452 0.13842 0 0.0470589 0 0 0 0 0 
255 0.185065 0.699873 0.0809625 0.0298228 0.00427655 0 0 0 0 0 
256 0.192924 0.525597 0.0534637 0.222085 0.00593036 0 0 0 0 0 
257 0.279694 0.697673 0.014851 0.0061347 0.00164732 0 0 0 0 0 
258 0.13019 0.746686 0.109862 0.00483166 0.00407277 0.00435732 0 0 0 0 
259 0.137282 0.532958 0.311577 0.0181819 0 0 0 0 0 0 
260 0.240638 0.687449 0.0506016 0.0186393 0.00267284 0 0 0 0 0 
261 0.613402 0.236065 0.148406 0.00106386 2.69209e-05 0.00103696 0 0 0 0 
262 0.356094 0.496157 0.131835 0.00579799 0.00488733 0.00522878 0 0 0 0 
263 0.156228 0.696023 0.131835 0.00579799 0.00488733 0.00522878 0 0 0 0 
264 0.137282 0.732823 0.111712 0.0181819 0 0 0 0 0 0 
265 0.00788898 0.988869 5.62133e-06 0 0.00323627 0 0 0 0 0 
266 0.103027 0.567008 0.294185 0.025852 0.00657926 0.00334837 0 0 0 0 
267 0.476709 0.517017 0.00569378 0 0.000580063 0 0 0 0 0 
268 0.0623576 0.63291 0.281036 0.0236962 0 0 0 0 0 0 
269 0.156228 0.496023 0.331834 0.00579799 0.00488733 0.00522878 0 0 0 0 
270 0.18502 0.499918 0.28096 0.0298253 0.00427655 0 0 0 0 0 
271 0.103027 0.767008 0.0941846 0.025852 0.00657926 0.00334837 0 0 0 0 
272 0.401953 0.590876 0.00650717 0 0.000662929 0 0 0 0 0 
273 0.381443 0.577704 0.0374493 0.00170217 4.30735e-05 0.00165914 0 0 0 0 
274 0.317869 0.648085 0.031209 0.00141847 3.58945e-05 0.00138262 0 0 0 0 
275 0.899077 0.0967408 0.00379585 0 0.000386708 0 0 0 0 0 
276 0.16077 0.437997 0.377886 0.0184041 0.00494197 0 0 0 0 0 
277 0.0858562 0.80584 0.0784872 0.0215434 0.00548272 0.00279031 0 0 0 0 
278 2.07932e-06 0.89341 0.0532539 0.0533333 0 0 0 0 0 0 
279 0.103027 0.767008 0.0941846 0.025852 0.00657926 0.00334837 0 0 0 0 
280 0.156228 0.498857 0.329001 0.00579799 0.00488733 0.00522878 0 0 0 0 
281 0.115638 0.687449 0.175602 0.0186393 0.00267284 0 0 0 0 0 
282 0.132157 0.785655 0.0578304 0.021302 0.00305468 0 0 0 0 0 
283 0.422587 0.495225 0.0578304 0.021302 0.00305468 0 0 0 0 0 
284 0.16077 0.604664 0.21122 0.0184041 0.00494197 0 0 0 0 0 
285 0.16077 0.604552 0.211332 0.0184041 0.00494197 0 0 0 0 0 
286 0.13019 0.746686 0.109862 0.00483166 0.00407277 0.00435732 0 0 0 0 
287 0.208665 0.769893 0.0140694 0.00581182 0.00156062 0 0 0 0 0 
288 0.613443 0.361023 0.0234058 0.00106386 2.69209e-05 0.00103696 0 0 0 0 
289 0.192924 0.725597 0.0534638 0.0220849 0.00593036 0 0 0 0 0 
290 0.381444 0.577702 0.0374493 0.00170217 4.30735e-05 0.00165914 0 0 0 0 
291 0.103027 0.767007 0.0941859 0.025852 0.00657926 0.00334837 0 0 0 0 
292 0.192924 0.725597 0.0534638 0.0220849 0.00593036 0 0 0 0 0 
293 0.103027 0.767008 0.0941846 0.025852 0.00657926 0.00334837 0 0 0 0 
294 0.562735 0.427227 0.00911004 0 0.0009281 0 0 0 0 0 
295 0.347643 0.560014 0.0823966 0.00362374 0.00305458 0.00326799 0 0 0 0 
296 0.103027 0.567008 0.0941846 0.225852 0.00657926 0.00334837 0 0 0 0 
297 0.525558 0.225465 0.241743 0.00263545 0.00222151 0.00237672 0 0 0 0 
298 0.494725 0.493922 0.0104076 0.000472825 1.19649e-05 0.000460872 0 0 0 0 
299 0.100907 0.858812 0.0311676 0.00911394 0 0 0 0 0 0 
300 0.28066 0.518332 0.180996 0.0157749 0.00423597 0 0 0 0 0 
301 0.566054 0.392852 0.0289152 0.010651 0.00152734 0 0 0 0 0 
302 0.214608 0.549703 0.210132 0.0184657 0.00469947 0.00239169 0 0 0 0 
303 0.16077 0.603558 0.212325 0.0184041 0.00494197 0 0 0 0 0 
304 0.28066 0.661141 0.0381884 0.0157749 0.00423597 0 0 0 0 0 
305 0.280657 0.661144 0.0381884 0.0157749 0.00423597 0 0 0 0 0 
306 0.156228 0.496023 0.131835 0.00579799 0.00488877 0.205227 0 0 0 0 
307 0.323025 0.654278 0.0208052 0.000945649 2.39297e-05 0.000921744 0 0 0 0 
308 0.18502 0.699917 0.0809625 0.0298228 0.00427655 0 0 0 0 0 
309 0.722368 0.202261 0.0749842 0 0.000386708 0 0 0 0 0 
310 0.103027 0.767008 0.0941846 0.025852 0.00657926 0.00334837 0 0 0 0 
311 0.18502 0.699917 0.0809629 0.0298228 0.00427655 0 0 0 0 0 
312 0.381443 0.377704 0.237449 0.00170217 4.30735e-05 0.00165914 0 0 0 0 
313 0.312632 0.681792 0.00506119 0 0.000515611 0 0 0 0 0 
314 0.324373 0.630361 0.0297021 0.0122694 0.00329465 0 0 0 0 0 
315 0.103027 0.767008 0.0941846 0.025852 0.00657926 0.00334837 0 0 0 0 
316 0.0858562 0.639548 0.244779 0.0215434 0.00548272 0.00279031 0 0 0 0 
317 0.192924 0.525597 0.253464 0.0220849 0.00593036 0 0 0 0 0 
318 0.192924 0.725597 0.0534638 0.0220849 0.00593036 0 0 0 0 0 
319 0.137282 0.732823 0.111712 0.0181819 0 0 0 0 0 0 
320 0.103027 0.755956 0.105236 0.025852 0.00657926 0.00334837 0 0 0 0 
321 0.178352 0.656465 0.152449 0.0100386 0.00269562 0 0 0 0 0 
322 0.316832 0.663991 0.0134938 0.00497047 0.000712758 0 0 0 0 0 
323 0.156228 0.496023 0.132763 0.204869 0.00488733 0.00522878 0 0 0 0 
324 0.421487 0.377456 0.181045 0.0157749 0.00423597 0 0 0 0 0 
325 0.476709 0.517017 0.00569378 0 0.000580063 0 0 0 0 0 
326 0.534853 0.459571 0.00506113 0 0.000515611 0 0 0 0 0 
327 0.18502 0.500508 0.280372 0.0298228 0.00427655 0 0 0 0 0 
328 0.0623576 0.832357 0.0815882 0.0236962 0 0 0 0 0 0 
329 0.156228 0.696023 0.131835 0.00579799 0.00488733 0.00522878 0 0 0 0 
330 0.16077 0.771331 0.0445531 0.0184041 0.00494197 0 0 0 0 0 
331 0.18502 0.699917 0.0809625 0.0298228 0.00427655 0 0 0 0 0 
332 0.18502 0.699917 0.0809625 0.0298228 0.00427655 0 0 0 0 0 
333 0.103027 0.567008 0.294184 0.025852 0.00657926 0.00334837 0 0 0 0 
334 0.0445424 0.880648 0.0578829 0.0169259 0 0 0 0 0 0 
335 0.103027 0.764478 0.0967148 0.025852 0.00657926 0.00334837 0 0 0 0 
336 0.156228 0.498553 0.329304 0.00579799 0.00488733 0.00522878 0 0 0 0 
337 0.562735 0.427227 0.00911004 0 0.0009281 0 0 0 0 0 
338 0.156228 0.496023 0.331834 0.00579799 0.00488733 0.00522878 0 0 0 0 
339 0.272459 0.69836 0.0267496 0.00121583 3.07668e-05 0.0011851 0 0 0 0 
340 0.272459 0.69836 0.0267495 0.00121583 3.07668e-05 0.0011851 0 0 0 0 
341 1.73276e-06 0.911175 0.0443782 0.0444444 0 0 0 0 0 0 
342 0.103027 0.567008 0.0942911 0.225745 0.00657926 0.00334837 0 0 0 0 
343 0.192924 0.725597 0.0534638 0.0220849 0.00593036 0 0 0 0 0 
344 0.402948 0.576625 0.0187247 0.000851084 2.15367e-05 0.00082957 0 0 0 0 
345 0.18502 0.699917 0.0809625 0.0298228 0.00427655 0 0 0 0 0 
346 0.163808 0.762383 0.0737582 5.1591e-05 0 0 0 0 0 0 
347 0.137282 0.532823 0.111712 0.218182 0 0 0 0 0 0 
348 2.58478e-07 0.999999 0 0 0 0 0 0 0 0 
349 0.317869 0.648086 0.0312078 0.00141847 3.58945e-05 0.00138262 0 0 0 0 
350 0.544875 0.432428 0.0208052 0.000945649 2.39297e-05 0.000921744 0 0 0 0 
351 0.0623576 0.633537 0.280409 0.0236962 0 0 0 0 0 0 
352 0.18502 0.499977 0.280903 0.0298228 0.00427655 0 0 0 0 0 
353 0.103027 0.766949 0.0942436 0.025852 0.00657926 0.00334837 0 0 0 0 
354 0.3358 0.583017 0.06982 0.0113637 0 0 0 0 0 0 
355 0.192924 0.725597 0.0534638 0.0220849 0.00593036 0 0 0 0 0 
356 0.156228 0.696023 0.131835 0.00579799 0.00488733 0.00522878 0 0 0 0 
357 0.0623576 0.83288 0.0810655 0.0236962 0 0 0 0 0 0 
358 0.310289 0.664249 0.0167074 0.00690154 0.00185324 0 0 0 0 0 
359 0.13019 0.746686 0.109862 0.00483166 0.00407277 0.00435732 0 0 0 0 
360 0.272459 0.69836 0.0267495 0.00121583 3.07668e-05 0.0011851 0 0 0 0 
361 0.390721 0.588852 0.0187247 0.000851084 2.15367e-05 0.00082957 0 0 0 0 
362 0.31731 0.448124 0.21122 0.0184041 0.00494197 0 0 0 0 0 
363 0.137803 0.803998 0.0381884 0.0157749 0.00423597 0 0 0 0 0 
364 0.229913 0.688608 0.0534638 0.0220849 0.00593036 0 0 0 0 0 
365 0.323302 0.595218 0.0534638 0.0220849 0.00593036 0 0 0 0 0 
366 0.558173 0.405815 0.0335796 0.00121583 3.07668e-05 0.0011851 0 0 0 0 
367 0.234233 0.684288 0.0534638 0.0220849 0.00593036 0 0 0 0 0 
368 0.18502 0.699917 0.0809629 0.0298228 0.00427655 0 0 0 0 0 
369 0.137282 0.532823 0.311712 0.0181819 0 0 0 0 0 0 
370 0.13019 0.746674 0.109874 0.00483166 0.00407277 0.00435732 0 0 0 0 
371 0.103027 0.767008 0.0941846 0.025852 0.00657926 0.00334837 0 0 0 0 
372 0.537833 0.45659 0.00506113 0 0.000515611 0 0 0 0 0 
373 0.18502 0.699917 0.0809625 0.0298228 0.00427655 0 0 0 0 0 
374 0.16077 0.771331 0.0445531 0.0184041 0.00494197 0 0 0 0 0 
375 0 0.999999 0 0 0 0 0 0 0 0 
376 0.196569 0.514859 0.28851 6.19092e-05 0 0 0 0 0 0 
377 0.18502 0.49992 0.28096 0.0298228 0.00427655 0 0 0 0 0 
378 0.195501 0.72302 0.0534638 0.0220849 0.00593036 0 0 0 0 0 
379 0.196569 0.714859 0.0885098 6.19092e-05 0 0 0 0 0 0 
380 0.0519647 0.860758 0.0675299 0.0197469 0 0 0 0 0 0 
381 0.32085 0.416598 0.234135 0.0248523 0.00356379 0 0 0 0 0 
382 0.137803 0.803998 0.0381884 0.0157749 0.00423597 0 0 0 0 0 
383 0.16077 0.771312 0.0445717 0.0184041 0.00494197 0 0 0 0 0 
384 0.154184 0.729264 0.0881353 0.0248523 0.00356379 0 0 0 0 0 
385 0.079892 0.83888 0.0588655 0.0161575 0.00411204 0.00209273 0 0 0 0 
386 0.18502 0.699917 0.0809625 0.0298228 0.00427655 0 0 0 0 0 
387 0.562735 0.427227 0.00911004 0 0.0009281 0 0 0 0 0 
388 0 0 0.999999 0 0 0 0 0 0 0 
389 0.18502 0.50002 0.28086 0.0298228 0.00427655 0 0 0 0 0 
390 0.103027 0.767008 0.0941846 0.025852 0.00657926 0.00334837 0 0 0 0 
391 0.344391 0.559685 0.0675075 0.0248523 0.00356379 0 0 0 0 0 
392 0.317869 0.648086 0.0312078 0.00141847 3.58945e-05 0.00138262 0 0 0 0 
393 0.13019 0.746686 0.109862 0.00483166 0.00407277 0.00435732 0 0 0 0 
394 0.192924 0.525597 0.0534637 0.0220849 0.20593 0 0 0 0 0 
395 0.317869 0.648086 0.0312078 0.00141847 3.58945e-05 0.00138262 0 0 0 0 
396 0.562735 0.227227 0.20911 0 0.0009281 0 0 0 0 0 
397 0.156228 0.696002 0.131855 0.00579799 0.00488733 0.00522878 0 0 0 0 
398 0.103027 0.765778 0.095415 0.025852 0.00657926 0.00334837 0 0 0 0 
399 0.67757 0.286461 0.0253127 0.00931963 0.00133642 0 0 0 0 0 
400 0.317869 0.481531 0.197762 0.00141847 3.58945e-05 0.00138262 0 0 0 0 
401 0.18502 0.699917 0.0809625 0.0298228 0.00427655 0 0 0 0 0 
402 0.154184 0.749931 0.0674687 0.0248523 0.00356379 0 0 0 0 0 
403 0.18502 0.699917 0.0809625 0.0298228 0.00427655 0 0 0 0 0 
404 0.137803 0.661465 0.180721 0.0157752 0.00423597 0 0 0 0 0 
405 0.137282 0.732823 0.111712 0.0181819 0 0 0 0 0 0 
406 0.18502 0.699915 0.080965 0.0298228 0.00427655 0 0 0 0 0 
407 0.103027 0.767008 0.0941846 0.025852 0.00657926 0.00334837 0 0 0 0 
408 0.381443 0.377704 0.237449 0.00170217 4.30735e-05 0.00165914 0 0 0 0 
409 0.10303 0.767005 0.0941846 0.025852 0.00657926 0.00334837 0 0 0 0 
410 0.280045 0.661755 0.0381884 0.0157749 0.00423597 0 0 0 0 0 
411 0.192924 0.725597 0.0534638 0.0220849 0.00593036 0 0 0 0 0 
412 0.192924 0.725597 0.0534638 0.0220849 0.00593036 0 0 0 0 0 
413 0.0858562 0.80584 0.0784872 0.0215434 0.00548272 0.00279031 0 0 0 0 
414 0.192924 0.725597 0.0534638 0.0220849 0.00593036 0 0 0 0 0 
415 0.18502 0.499918 0.081823 0.228962 0.00427655 0 0 0 0 0 
416 0.562735 0.227227 0.00911004 0 0.200928 0 0 0 0 0 
417 0.418387 0.523413 0.0381884 0.0157749 0.00423597 0 0 0 0 0 
418 0.18502 0.499918 0.280962 0.0298228 0.00427655 0 0 0 0 0 
419 0.274976 0.642836 0.0578307 0.021302 0.00305468 0 0 0 0 0 
420 0.687645 0.162388 0.149304 0 0.000662929 0 0 0 0 0 
421 0.327437 0.604664 0.0445531 0.0184041 0.00494197 0 0 0 0 0 
422 0.103027 0.567008 0.294185 0.025852 0.00657926 0.00334837 0 0 0 0 
423 0.103027 0.767008 0.0941846 0.025852 0.00657926 0.00334837 0 0 0 0 
424 0.103027 0.767008 0.0941846 0.025852 0.00657926 0.00334837 0 0 0 0 
425 2.07932e-06 0.693711 0.252953 0.0533333 0 0 0 0 0 0 
426 0.103027 0.767008 0.0941846 0.025852 0.00657926 0.00334837 0 0 0 0 
427 0.0623576 0.83291 0.0810358 0.0236962 0 0 0 0 0 0 
428 0.18502 0.699917 0.0809625 0.0298228 0.00427655 0 0 0 0 0 
429 0.18502 0.699917 0.0809625 0.0298228 0.00427655 0 0 0 0 0 
430 0.381443 0.577704 0.0374493 0.00170217 4.30735e-05 0.00165914 0 0 0 0 
431 0.154184 0.749931 0.0674687 0.0248523 0.00356379 0 0 0 0 0 
432 0.384459 0.580315 0.0223229 0.0129033 0 0 0 0 0 0 
433 0.137282 0.732373 0.112162 0.0181819 0 0 0 0 0 0 
434 0.381893 0.577253 0.0374493 0.00170217 4.30735e-05 0.00165914 0 0 0 0 
435 0.556889 0.436066 0.00446462 0.00258065 0 0 0 0 0 0 
436 0.18502 0.699917 0.0809625 0.0298228 0.00427655 0 0 0 0 0 
437 0.192924 0.725597 0.0534638 0.0220849 0.00593036 0 0 0 0 0 
438 0.381443 0.577549 0.0376042 0.00170217 4.30735e-05 0.00165914 0 0 0 0 
439 0.18502 0.699917 0.0809625 0.0298228 0.00427655 0 0 0 0 0 
440 0.103027 0.767008 0.0941846 0.025852 0.00657926 0.00334837 0 0 0 0 
441 0.103027 0.767008 0.0941846 0.025852 0.00657926 0.00334837 0 0 0 0 
442 0.18502 0.699917 0.0809625 0.0298228 0.00427655 0 0 0 0 0 
443 0.192924 0.725597 0.0534638 0.0220849 0.00593036 0 0 0 0 0 
444 0.192924 0.725597 0.0534638 0.0220849 0.00593036 0 0 0 0 0 
445 0.192925 0.725595 0.0534647 0.0220849 0.00593036 0 0 0 0 0 
446 0.185021 0.699915 0.0809636 0.0298228 0.00427655 0 0 0 0 0 
447 0.484537 0.481419 0.0312078 0.00141847 3.58945e-05 0.00138262 0 0 0 0 
448 0.613401 0.256043 0.128429 0.00106386 2.69209e-05 0.00103696 0 0 0 0 
449 0.212773 0.705747 0.0534642 0.0220849 0.00593036 0 0 0 0 0 
450 0.0623576 0.63291 0.281035 0.0236962 0 0 0 0 0 0 
451 0.575054 0.37496 0.0362249 0.0099431 0.00253049 0.00128784 0 0 0 0 
452 0.381443 0.377707 0.237446 0.00170217 4.30735e-05 0.00165914 0 0 0 0 
453 0.18502 0.699917 0.0809625 0.0298228 0.00427655 0 0 0 0 0 
454 0.161026 0.61201 0.203613 0.0184092 0.00494197 0 0 0 0 0 
455 2.07932e-06 0.89341 0.0532539 0.0533333 0 0 0 0 0 0 
456 0.18502 0.499918 0.280962 0.0298228 0.00427655 0 0 0 0 0 
457 0.18502 0.499918 0.0809625 0.229823 0.00427655 0 0 0 0 0 
458 0.192924 0.525597 0.0578105 0.217738 0.00593036 0 0 0 0 0 
459 0.156228 0.696023 0.131835 0.00579799 0.00488733 0.00522878 0 0 0 0 
460 0.381443 0.577704 0.0374493 0.00170217 4.30735e-05 0.00165914 0 0 0 0 
461 0.0094484 0.986661 6.74559e-06 0 0.00388352 0 0 0 0 0 
462 0.0519647 0.860758 0.0675299 0.0197469 0 0 0 0 0 0 
463 4.2294e-07 0.814565 0.138375 0 0.0470589 0 0 0 0 0 
464 0.381443 0.577697 0.0374564 0.00170217 4.30735e-05 0.00165914 0 0 0 0 
465 0.154184 0.416598 0.234166 0.191488 0.00356389 0 0 0 0 0 
466 0 0.266662 0.466671 0 0.266666 0 0 0 0 0 
467 0.0623576 0.83291 0.0810358 0.0236962 0 0 0 0 0 0 
468 0.192924 0.525597 0.0534637 0.222085 0.00593036 0 0 0 0 0 
469 0.192924 0.725597 0.0534638 0.0220849 0.00593036 0 0 0 0 0 
470 0.00024158 0.933099 0.066659 0 0 0 0 0 0 0 
471 0.103027 0.766764 0.0944289 0.025852 0.00657926 0.00334837 0 0 0 0 
472 0.381443 0.377957 0.237196 0.00170217 4.30735e-05 0.00165914 0 0 0 0 
473 0.381443 0.577695 0.0374579 0.00170217 4.30735e-05 0.00165914 0 0 0 0 
474 4.2294e-07 0.614565 0.138375 0 0.247059 0 0 0 0 0 
475 0.0259823 0.930379 0.0337649 0.00987343 0 0 0 0 0 0 
476 0.484535 0.314753 0.197874 0.00141847 3.58946e-05 0.00138262 0 0 0 0 
477 0.103027 0.567057 0.294136 0.0258521 0.00657926 0.00334837 0 0 0 0 
478 0.16077 0.771331 0.0445531 0.0184041 0.00494197 0 0 0 0 0 
479 0.645969 0.290108 0.0449792 0.0165682 0.00237586 0 0 0 0 0 
480 0.103027 0.767008 0.0941846 0.025852 0.00657926 0.00334837 0 0 0 0 
481 0.305768 0.626333 0.0445531 0.0184041 0.00494197 0 0 0 0 0 
482 0.635148 0.356487 0.0075917 0 0.000773417 0 0 0 0 0 
483 0.315961 0.643289 0.0267423 0.0110425 0.00296518 0 0 0 0 0 
484 0.189383 0.604389 0.183865 0.0161575 0.00411204 0.00209273 0 0 0 0 
485 4.2294e-07 0.814565 0.138375 0 0.0470589 0 0 0 0 0 
486 0.276627 0.627488 0.0674687 0.0248523 0.00356379 0 0 0 0 0 
487 0.317869 0.648086 0.0312079 0.00141847 3.58945e-05 0.00138262 0 0 0 0 
488 0.192924 0.526547 0.252514 0.0220849 0.00593036 0 0 0 0 0 
489 0.103027 0.766058 0.0951345 0.025852 0.00657926 0.00334837 0 0 0 0 
490 0.192924 0.725597 0.0534638 0.0220849 0.00593036 0 0 0 0 0 
491 0.370577 0.578498 0.0334149 0.0138031 0.00370648 0 0 0 0 0 
492 0.192924 0.525597 0.0534637 0.0220849 0.20593 0 0 0 0 0 
493 0.192924 0.725597 0.0534638 0.0220849 0.00593036 0 0 0 0 0 
494 0.156228 0.696023 0.131835 0.00579799 0.00488733 0.00522878 0 0 0 0 
495 0.192924 0.725597 0.0534638 0.0220849 0.00593036 0 0 0 0 0 
496 0.103027 0.567008 0.294185 0.025852 0.00657926 0.00334837 0 0 0 0 
497 0.18502 0.699917 0.0809625 0.0298228 0.00427655 0 0 0 0 0 
498 0.142148 0.727887 0.094185 0.025852 0.00657926 0.00334837 0 0 0 0 
499 0.0623576 0.83291 0.0810358 0.0236962 0 0 0 0 0 0 
500 0.137282 0.732823 0.111712 0.0181819 0 0 0 0 0 0 
501 0.367224 0.581851 0.0334149 0.0138031 0.00370648 0 0 0 0 0 
502 0.103027 0.587666 0.233413 0.065965 0.00657926 0.00334837 0 0 0 0 
503 0.156228 0.696022 0.131835 0.00579799 0.00488733 0.00522878 0 0 0 0 
504 0.103027 0.767008 0.0941846 0.025852 0.00657926 0.00334837 0 0 0 0 
505 0.192924 0.725597 0.0534638 0.0220849 0.00593036 0 0 0 0 0 
506 0.381443 0.577704 0.0374493 0.00170217 4.30735e-05 0.00165914 0 0 0 0 
507 0.381443 0.577704 0.0374493 0.00170217 4.30735e-05 0.00165914 0 0 0 0 
508 0.381443 0.577704 0.0374493 0.00170217 4.30735e-05 0.00165914 0 0 0 0 
509 0.468946 0.522689 0.0075917 0 0.000773417 0 0 0 0 0 
510 0.0623576 0.83291 0.0810358 0.0236962 0 0 0 0 0 0 
511 0.160861 0.771239 0.0445531 0.0184041 0.00494197 0 0 0 0 0 
512 0.103027 0.767008 0.0941846 0.025852 0.00657926 0.00334837 0 0 0 0 
513 0.154184 0.749931 0.0674687 0.0248523 0.00356379 0 0 0 0 0 
514 0.185152 0.699786 0.0809625 0.0298228 0.00427655 0 0 0 0 0 
515 0.111592 0.782873 0.0941675 0.00414142 0.00349095 0.00373485 0 0 0 0 
516 0.278392 0.639421 0.0578304 0.021302 0.00305468 0 0 0 0 0 
517 0.317983 0.647973 0.0312078 0.00141847 3.58945e-05 0.00138262 0 0 0 0 
518 0.192924 0.725597 0.0534638 0.0220849 0.00593036 0 0 0 0 0 
519 0.484535 0.320097 0.192531 0.00141847 3.58946e-05 0.00138262 0 0 0 0 
520 0.18502 0.64757 0.13331 0.0298228 0.00427655 0 0 0 0 0 
521 0.413982 0.556825 0.0267615 0.00121583 3.07668e-05 0.0011851 0 0 0 0 
522 0.384459 0.43453 0.168107 0.0129033 0 0 0 0 0 0 
523 0.000289896 0.919719 0.0799908 0 0 0 0 0 0 0 
524 0.18502 0.499918 0.280962 0.0298228 0.00427655 0 0 0 0 0 
525 0.423514 0.375441 0.181035 0.0157749 0.00423597 0 0 0 0 0 
526 0.562735 0.427227 0.00911004 0 0.0009281 0 0 0 0 0 
527 0.156228 0.49605 0.331807 0.00579815 0.00488733 0.00522878 0 0 0 0 
528 0.488519 0.485947 0.0234058 0.00106386 2.69209e-05 0.00103696 0 0 0 0 
529 0.192924 0.725589 0.0534709 0.0220849 0.00593036 0 0 0 0 0 
530 0.327436 0.604664 0.0445531 0.0184041 0.00494197 0 0 0 0 0 
531 0.218631 0.656418 0.105203 0.0197469 0 0 0 0 0 0 
532 0.18502 0.545125 0.235755 0.0298228 0.00427655 0 0 0 0 0 
533 0.156228 0.496279 0.331578 0.00579799 0.00488733 0.00522878 0 0 0 0 
534 0.18502 0.699727 0.0811533 0.0298228 0.00427655 0 0 0 0 0 
535 4.2294e-07 0.813787 0.139153 0 0.0470589 0 0 0 0 0 
536 0.132157 0.785655 0.0578304 0.021302 0.00305468 0 0 0 0 0 
537 3.5245e-07 0.844157 0.116627 0 0.0392157 0 0 0 0 0 
538 0.0623576 0.63291 0.281036 0.0236962 0 0 0 0 0 0 
539 0.192924 0.725597 0.0534638 0.0220849 0.00593036 0 0 0 0 0 
540 0.381454 0.572242 0.0428998 0.00170217 4.30735e-05 0.00165914 0 0 0 0 
541 0.156228 0.696023 0.131835 0.00579799 0.00488733 0.00522878 0 0 0 0 
542 0.18502 0.699917 0.0809625 0.0298228 0.00427655 0 0 0 0 0 
543 0.156228 0.496023 0.131835 0.0188616 0.191824 0.00522878 0 0 0 0 
544 0.18502 0.699917 0.0809625 0.0298228 0.00427655 0 0 0 0 0 
545 0.18502 0.699917 0.0809625 0.0298228 0.00427655 0 0 0 0 0 
546 0.181227 0.737535 0.0588749 0.0161575 0.00411204 0.00209273 0 0 0 0 
547 0.168953 0.749611 0.0580897 0.0184041 0.00494197 0 0 0 0 0 
548 0.103027 0.767008 0.0941846 0.025852 0.00657926 0.00334837 0 0 0 0 
549 0.18502 0.699917 0.0809625 0.0298228 0.00427655 0 0 0 0 0 
550 0.103027 0.767008 0.0941846 0.025852 0.00657926 0.00334837 0 0 0 0 
551 0.192924 0.725597 0.0534638 0.0220849 0.00593036 0 0 0 0 0 
552 0.18502 0.69991 0.0809696 0.0298228 0.00427655 0 0 0 0 0 
553 0.192994 0.719114 0.0598758 0.0220849 0.00593036 0 0 0 0 0 
554 0.0519658 0.694091 0.234196 0.0197469 0 0 0 0 0 0 
555 0.146709 0.837578 0.0144036 0.00065468 1.65667e-05 0.00063813 0 0 0 0 
556 0.381443 0.577704 0.0374493 0.00170217 4.30735e-05 0.00165914 0 0 0 0 
557 0.0623576 0.63291 0.0810358 0.223696 0 0 0 0 0 0 
558 0.156228 0.696023 0.131835 0.00579799 0.00488733 0.00522878 0 0 0 0 
559 0.192924 0.525597 0.253464 0.0220849 0.00593036 0 0 0 0 0 
560 0.13019 0.580018 0.27653 0.00483166 0.00407277 0.00435732 0 0 0 0 
561 0.414708 0.556111 0.0267495 0.00121583 3.07668e-05 0.0011851 0 0 0 0 
562 0.18502 0.499918 0.0907934 0.219992 0.00427655 0 0 0 0 0 
563 0.137282 0.732821 0.111714 0.0181819 0 0 0 0 0 0 
564 0.192926 0.725595 0.0534638 0.0220849 0.00593036 0 0 0 0 0 
565 0.103027 0.567026 0.294167 0.025852 0.00657926 0.00334837 0 0 0 0 
566 0.164159 0.601425 0.21097 0.0185041 0.00494197 0 0 0 0 0 
567 0.16087 0.767677 0.0481068 0.0184041 0.00494197 0 0 0 0 0 
568 0.103027 0.567304 0.293888 0.025852 0.00657926 0.00334837 0 0 0 0 
569 0.0094484 0.986661 6.74559e-06 0 0.00388352 0 0 0 0 0 
570 0.137282 0.532823 0.311712 0.0181819 0 0 0 0 0 0 
571 0.18502 0.699917 0.0809625 0.0298228 0.00427655 0 0 0 0 0 
572 0.18502 0.699917 0.0809625 0.0298228 0.00427655 0 0 0 0 0 
573 0.103027 0.767008 0.0941846 0.025852 0.00657926 0.00334837 0 0 0 0 
574 0.156228 0.696023 0.131835 0.00579799 0.00488733 0.00522878 0 0 0 0 
575 2.07932e-06 0.89341 0.0532539 0.0533333 0 0 0 0 0 0 
576 0.0623576 0.83291 0.0810358 0.0236962 0 0 0 0 0 0 
577 0.0623576 0.633577 0.280368 0.0236962 0 0 0 0 0 0 
578 0.18502 0.699917 0.0809625 0.0298228 0.00427655 0 0 0 0 0 
579 0.320383 0.650262 0.0186024 0.0107527 0 0 0 0 0 0 
580 0.381443 0.377704 0.237449 0.00170217 4.30735e-05 0.00165914 0 0 0 0 
581 0.192924 0.725597 0.0534638 0.0220849 0.00593036 0 0 0 0 0 
582 0.331179 0.516455 0.140518 0.0118481 0 0 0 0 0 0 
583 0.251514 0.683504 0.0470923 0.012926 0.00328963 0.00167419 0 0 0 0 
584 0.631639 0.359995 0.00759216 0 0.000773417 0 0 0 0 0 
585 0.495577 0.453498 0.0334149 0.0138031 0.00370648 0 0 0 0 0 
586 0.252523 0.639173 0.0784872 0.0215434 0.00548272 0.00279031 0 0 0 0 
587 0.614418 0.311508 0.0740741 0 0 0 0 0 0 0 
588 0.18502 0.635926 0.144954 0.0298228 0.00427655 0 0 0 0 0 
589 0.18502 0.499918 0.280962 0.0298228 0.00427655 0 0 0 0 0 
590 0.468946 0.189356 0.340925 0 0.000773417 0 0 0 0 0 
591 0.154184 0.583265 0.0674687 0.191519 0.00356379 0 0 0 0 0 
592 0.32085 0.583265 0.0674687 0.0248523 0.00356379 0 0 0 0 0 
593 0.0519647 0.860758 0.0675299 0.0197469 0 0 0 0 0 0 
594 0.270287 0.606589 0.109862 0.00483166 0.00407277 0.00435732 0 0 0 0 
595 0.0858562 0.80584 0.0784872 0.0215434 0.00548272 0.00279031 0 0 0 0 
596 0.192924 0.525597 0.0540079 0.221541 0.00593036 0 0 0 0 0 
597 0.29651 0.413699 0.276529 0.00483166 0.00407277 0.00435732 0 0 0 0 
598 0.0623576 0.832907 0.0810386 0.0236962 0 0 0 0 0 0 
599 0.156228 0.496026 0.331832 0.00579799 0.00488733 0.00522878 0 0 0 0 
600 0.327437 0.604664 0.0445531 0.0184041 0.00494197 0 0 0 0 0 
601 0.252523 0.639173 0.0784872 0.0215434 0.00548272 0.00279031 0 0 0 0 
602 0.381443 0.577704 0.0374493 0.00170217 4.30735e-05 0.00165914 0 0 0 0 
603 0.426227 0.50879 0.0470923 0.012926 0.00328963 0.00167419 0 0 0 0 
604 0.320383 0.650262 0.0186024 0.0107527 0 0 0 0 0 0 
605 0.189392 0.72938 0.0588654 0.0161575 0.00411204 0.00209273 0 0 0 0 
606 0.16077 0.604664 0.21122 0.0184041 0.00494197 0 0 0 0 0 
607 0.18502 0.499918 0.0809625 0.229823 0.00427655 0 0 0 0 0 
608 0.192924 0.525597 0.253464 0.0220849 0.00593036 0 0 0 0 0 
609 0.0858562 0.639173 0.245154 0.0215434 0.00548272 0.00279031 0 0 0 0 
610 0.381443 0.377704 0.237449 0.00170217 4.30735e-05 0.00165914 0 0 0 0 
611 0.0623576 0.83291 0.0810358 0.0236962 0 0 0 0 0 0 
612 0.120578 0.828498 0.0334149 0.0138031 0.00370648 0 0 0 0 0 
613 0.196569 0.714859 0.0885102 6.19092e-05 0 0 0 0 0 0 
614 0.415336 0.425327 0.156906 0.00121583 3.07668e-05 0.0011851 0 0 0 0 
615 0.196569 0.714134 0.0892349 6.19092e-05 0 0 0 0 0 0 
616 0.13019 0.746686 0.109862 0.00483166 0.00407277 0.00435732 0 0 0 0 
617 0.0623576 0.63291 0.0827071 0.222025 0 0 0 0 0 0 
618 0.103027 0.567008 0.294184 0.025852 0.00657926 0.00334837 0 0 0 0 
619 0.154184 0.749931 0.0674687 0.0248523 0.00356379 0 0 0 0 0 
620 0.115638 0.812449 0.0506016 0.0186393 0.00267284 0 0 0 0 0 
621 0.534854 0.459569 0.00506113 0 0.000515611 0 0 0 0 0 
622 0.103027 0.767008 0.0941846 0.025852 0.00657926 0.00334837 0 0 0 0 
623 0 0 0.289641 0.710358 0 0 0 0 0 0 
624 0.423517 0.375426 0.0391307 0.156417 0.00550845 0 0 0 0 0 
625 0.0389735 0.895569 0.0506474 0.0148101 0 0 0 0 0 0 
626 0.468946 0.189706 0.340575 0 0.000773417 0 0 0 0 0 
627 0.381443 0.577704 0.0374493 0.00170217 4.30735e-05 0.00165914 0 0 0 0 
628 0.18502 0.499918 0.0809625 0.229823 0.00427655 0 0 0 0 0 
629 0.0623576 0.83291 0.0810358 0.0236962 0 0 0 0 0 0 
630 0 0 0.434461 0.565539 0 0 0 0 0 0 
631 0.211409 0.640841 0.131836 0.00579799 0.00488733 0.00522878 0 0 0 0 
632 0.185022 0.699916 0.0809627 0.0298228 0.00427655 0 0 0 0 0 
633 0.381443 0.577704 0.0374493 0.00170217 4.30735e-05 0.00165914 0 0 0 0 
634 0.18502 0.499918 0.0809625 0.229823 0.00427655 0 0 0 0 0 
635 0.114402 0.777353 0.0930933 0.0151516 0 0 0 0 0 0 
636 0.0623576 0.832843 0.0811027 0.0236962 0 0 0 0 0 0 
637 0.156228 0.49609 0.331768 0.00579799 0.00488733 0.00522878 0 0 0 0 
638 0.381443 0.377704 0.237449 0.00170217 4.30735e-05 0.00165914 0 0 0 0 
639 0.0623579 0.832642 0.0813033 0.0236962 0 0 0 0 0 0 
640 0.330479 0.595711 0.0737582 5.1591e-05 0 0 0 0 0 0 
641 0.192924 0.725597 0.0534638 0.0220849 0.00593036 0 0 0 0 0 
642 0.103027 0.567008 0.0944561 0.22558 0.00657951 0.00334837 0 0 0 0 
643 0.156228 0.696023 0.131835 0.00579799 0.00488733 0.00522878 0 0 0 0 
644 0.18502 0.699917 0.0809625 0.0298228 0.00427655 0 0 0 0 0 
645 3.5245e-07 0.845471 0.115312 0 0.0392157 0 0 0 0 0 
646 0.137282 0.732823 0.111712 0.0181819 0 0 0 0 0 0 
647 0 0.999999 0 0 0 0 0 0 0 0 
648 0 0.999999 0 0 0 0 0 0 0 0 
649 0.18502 0.499918 0.0809625 0.229823 0.00427655 0 0 0 0 0 
650 0.18502 0.499918 0.280962 0.0298228 0.00427655 0 0 0 0 0 
651 0.317869 0.4098 0.269494 0.00141847 3.58945e-05 0.00138262 0 0 0 0 
652 1.57953e-06 0.845444 0.115338 0 0.0392157 0 0 0 0 0 
653 0.352713 0.539042 0.0930933 0.0151516 0 0 0 0 0 0 
654 0.216441 0.690727 0.0672747 0.0184657 0.00469947 0.00239169 0 0 0 0 
655 0.192924 0.525597 0.0534637 0.222085 0.00593036 0 0 0 0 0 
656 0.103027 0.767007 0.0941852 0.025852 0.00657926 0.00334837 0 0 0 0 
657 0.192924 0.525597 0.0534638 0.222083 0.00593263 0 0 0 0 0 
658 0.103027 0.767008 0.0941846 0.025852 0.00657926 0.00334837 0 0 0 0 
659 0.156228 0.69568 0.132177 0.00579799 0.00488733 0.00522878 0 0 0 0 
660 0.156228 0.496372 0.331464 0.00581891 0.00488733 0.00522878 0 0 0 0 
661 0.635756 0.355873 0.00759772 0 0.000773417 0 0 0 0 0 
662 0.192924 0.725445 0.053615 0.0220849 0.00593036 0 0 0 0 0 
663 0.384459 0.380315 0.0223229 0.212903 0 0 0 0 0 0 
664 0.137282 0.732823 0.111712 0.0181819 0 0 0 0 0 0 
665 0.13019 0.581016 0.275532 0.00483166 0.00407277 0.00435732 0 0 0 0 
666 0.18502 0.699917 0.0809625 0.0298228 0.00427655 0 0 0 0 0 
667 0.132157 0.785655 0.0578304 0.021302 0.00305468 0 0 0 0 0 
668 0.267931 0.62652 0.0941813 0.00414142 0.00349095 0.00373485 0 0 0 0 
669 0.192924 0.725597 0.0534638 0.0220849 0.00593036 0 0 0 0 0 
670 0.192924 0.725593 0.0534674 0.0220849 0.00593036 0 0 0 0 0 
671 0.179352 0.751751 0.0455506 0.0184041 0.00494197 0 0 0 0 0 
672 0.192924 0.725597 0.0534638 0.0220849 0.00593036 0 0 0 0 0 
673 0.18502 0.499918 0.0809625 0.0298228 0.204276 0 0 0 0 0 
674 0.192924 0.525597 0.0534639 0.222085 0.00593036 0 0 0 0 0 
675 0.31788 0.648074 0.0312089 0.00141847 3.58945e-05 0.00138262 0 0 0 0 
676 0.137282 0.532823 0.311712 0.0181819 0 0 0 0 0 0 
677 0.0735911 0.833577 0.0672747 0.0184657 0.00469947 0.00239169 0 0 0 0 
678 0.192924 0.725595 0.0534656 0.0220849 0.00593036 0 0 0 0 0 
679 0.074401 0.84422 0.059017 0.0161575 0.00411204 0.00209273 0 0 0 0 
680 0.0861293 0.792223 0.0918309 0.0215434 0.00548272 0.00279031 0 0 0 0 
681 0.137282 0.732822 0.111713 0.0181819 0 0 0 0 0 0 
682 0.192924 0.525597 0.0534651 0.222083 0.00593036 0 0 0 0 0 
683 0.323854 0.642101 0.0312078 0.00141847 3.58945e-05 0.00138262 0 0 0 0 
684 0.103027 0.570433 0.290759 0.025852 0.00657926 0.00334837 0 0 0 0 
685 0.33613 0.589915 0.0739032 5.1591e-05 0 0 0 0 0 0 
686 0.278865 0.515223 0.185895 0.0157801 0.00423597 0 0 0 0 0 
687 0.0858688 0.639305 0.245009 0.0215436 0.00548272 0.00279031 0 0 0 0 
688 0.18502 0.699917 0.0809625 0.0298228 0.00427655 0 0 0 0 0 
689 0.103027 0.567008 0.294185 0.025852 0.00657926 0.00334837 0 0 0 0 
690 0.192924 0.5256 0.253461 0.0220849 0.00593036 0 0 0 0 0 
691 0.192924 0.725594 0.0534666 0.0220849 0.00593036 0 0 0 0 0 
692 0.18502 0.501165 0.279715 0.0298228 0.00427655 0 0 0 0 0 
693 0.18502 0.499918 0.0811108 0.229674 0.00427655 0 0 0 0 0 
694 0.32085 0.583265 0.0674687 0.0248523 0.00356379 0 0 0 0 0 
695 0.103027 0.767008 0.0941846 0.025852 0.00657926 0.00334837 0 0 0 0 
696 0.275014 0.521754 0.178874 0.021302 0.00305468 0 0 0 0 0 
697 0.0445412 0.880601 0.0579319 0.0169259 0 0 0 0 0 0 
698 0.103027 0.736539 0.124654 0.025852 0.00657926 0.00334837 0 0 0 0 
699 0.137282 0.732823 0.111712 0.0181819 0 0 0 0 0 0 
700 0.103027 0.767008 0.0941846 0.025852 0.00657926 0.00334837 0 0 0 0 
701 0.0094484 0.786661 6.74559e-06 0 0.203883 0 0 0 0 0 
702 0.192924 0.525597 0.253464 0.0220849 0.00593036 0 0 0 0 0 
703 0.103027 0.767008 0.0941846 0.025852 0.00657926 0.00334837 0 0 0 0 
704 0.18502 0.699917 0.0809625 0.0298228 0.00427655 0 0 0 0 0 
705 0.381443 0.577703 0.0374493 0.00170217 4.30735e-05 0.00165914 0 0 0 0 
706 0.484535 0.48142 0.0312078 0.00141847 3.58945e-05 0.00138262 0 0 0 0 
707 0.327439 0.604662 0.0445532 0.0184041 0.00494197 0 0 0 0 0 
708 0.381443 0.577704 0.0374493 0.00170217 4.30735e-05 0.00165914 0 0 0 0 
709 0.103027 0.767008 0.0941846 0.025852 0.00657926 0.00334837 0 0 0 0 
710 0.381443 0.577704 0.0374493 0.00170217 4.30735e-05 0.00165914 0 0 0 0 
711 0.38446 0.580314 0.0223229 0.0129033 0 0 0 0 0 0 
712 0.32085 0.583044 0.0676898 0.0248523 0.00356379 0 0 0 0 0 
713 0.182819 0.781224 0.0253008 0.00931963 0.00133642 0 0 0 0 0 
714 0.250841 0.713058 0.0261624 0.00718112 0.00182757 0.000930103 0 0 0 0 
715 0.18502 0.699917 0.0809625 0.0298228 0.00427655 0 0 0 0 0 
716 0.291577 0.350895 0.340479 0.0149114 0.00213827 0 0 0 0 0 
717 0.103027 0.767008 0.0941846 0.025852 0.00657926 0.00334837 0 0 0 0 
718 0 0 0.999999 0 0 0 0 0 0 0 
719 0.0623576 0.63291 0.281036 0.0236962 0 0 0 0 0 0 
720 0.213888 0.718213 0.0445531 0.0184041 0.00494197 0 0 0 0 0 
721 0.0858562 0.490661 0.393666 0.0215434 0.00548272 0.00279031 0 0 0 0 
722 0.327437 0.441465 0.207752 0.0184041 0.00494197 0 0 0 0 0 
723 0.16077 0.771331 0.0445531 0.0184041 0.00494197 0 0 0 0 0 
724 0.192924 0.725597 0.0534638 0.0220849 0.00593036 0 0 0 0 0 
725 0.272929 0.69789 0.0267498 0.00121583 3.07668e-05 0.0011851 0 0 0 0 
726 0.156228 0.696023 0.131835 0.00579799 0.00488733 0.00522878 0 0 0 0 
727 0.192924 0.725597 0.0534638 0.0220849 0.00593036 0 0 0 0 0 
728 0.156228 0.496023 0.331739 0.00589297 0.00488733 0.00522878 0 0 0 0 
729 0.561438 0.397708 0.0374493 0.00170217 4.30735e-05 0.00165914 0 0 0 0 
730 0.123032 0.747003 0.0941846 0.025852 0.00657926 0.00334837 0 0 0 0 
731 0.404902 0.554244 0.0374493 0.00170217 4.30735e-05 0.00165914 0 0 0 0 
732 0.738364 0.251598 0.00911004 0 0.0009281 0 0 0 0 0 
733 0.18502 0.699917 0.0809625 0.0298228 0.00427655 0 0 0 0 0 
734 0.192924 0.525851 0.25321 0.0220849 0.00593036 0 0 0 0 0 
735 0.192924 0.725597 0.0534638 0.0220849 0.00593036 0 0 0 0 0 
736 0.562735 0.427227 0.00911004 0 0.0009281 0 0 0 0 0 
737 0.103027 0.767008 0.0941846 0.025852 0.00657926 0.00334837 0 0 0 0 
738 0.192924 0.725597 0.0534638 0.0220849 0.00593036 0 0 0 0 0 
739 0.192924 0.525597 0.0534637 0.222085 0.00593036 0 0 0 0 0 
740 4.2294e-07 0.614565 0.338375 0 0.0470589 0 0 0 0 0 
741 0.0094484 0.986661 6.74559e-06 0 0.00388352 0 0 0 0 0 
742 0 0 0.999999 0 0 0 0 0 0 0 
743 0.103027 0.567008 0.0941846 0.025852 0.0132144 0.196713 0 0 0 0 
744 0.192924 0.725597 0.0534638 0.0220849 0.00593036 0 0 0 0 0 
745 0.317869 0.648086 0.0312078 0.00141847 3.58945e-05 0.00138262 0 0 0 0 
746 0.0735966 0.833571 0.0672747 0.0184657 0.00469947 0.00239169 0 0 0 0 
747 0.160624 0.687919 0.138195 0.00483166 0.00407277 0.00435732 0 0 0 0 
748 0.363225 0.439861 0.0506016 0.143639 0.00267284 0 0 0 0 0 
749 4.2294e-07 0.628885 0.324055 0 0.0470589 0 0 0 0 0 
750 0.18502 0.499918 0.280962 0.0298228 0.00427655 0 0 0 0 0 
751 0 0.266662 0.266671 0 0.466666 0 0 0 0 0 
752 0.154275 0.73861 0.0786984 0.0248523 0.00356379 0 0 0 0 0 
753 0.185022 0.699916 0.0809625 0.0298228 0.00427655 0 0 0 0 0 
754 0.18502 0.699917 0.0809625 0.0298228 0.00427655 0 0 0 0 0 
755 0.103027 0.567008 0.294185 0.025852 0.00657926 0.00334837 0 0 0 0 
756 0.381443 0.377704 0.237449 0.00170217 4.30735e-05 0.00165914 0 0 0 0 
757 0.103027 0.767008 0.0941846 0.025852 0.00657926 0.00334837 0 0 0 0 
758 0.296856 0.580019 0.109862 0.00483166 0.00407277 0.00435732 0 0 0 0 
759 0.18502 0.499918 0.280962 0.0298228 0.00427655 0 0 0 0 0 
760 0.381443 0.577704 0.0374493 0.00170217 4.30735e-05 0.00165914 0 0 0 0 
761 0.18502 0.699917 0.0809625 0.0298228 0.00427655 0 0 0 0 0 
762 0.192924 0.525597 0.0534637 0.0220849 0.20593 0 0 0 0 0 
763 0.577595 0.412367 0.00911004 0 0.0009281 0 0 0 0 0 
764 0.192924 0.725597 0.0534638 0.0220849 0.00593036 0 0 0 0 0 
765 0.192924 0.725523 0.0535367 0.0220849 0.00593036 0 0 0 0 0 
766 0.156228 0.696023 0.131835 0.00579799 0.00488733 0.00522878 0 0 0 0 
767 0.18502 0.699917 0.0809625 0.0298228 0.00427655 0 0 0 0 0 
768 0.31517 0.61693 0.0445531 0.0184041 0.00494197 0 0 0 0 0 
769 0.192925 0.725596 0.0534638 0.0220849 0.00593036 0 0 0 0 0 
770 0.16077 0.771331 0.0445531 0.0184041 0.00494197 0 0 0 0 0 
771 0.131029 0.745847 0.109862 0.00483166 0.00407277 0.00435732 0 0 0 0 
772 0.381443 0.377704 0.0374493 0.00170217 0.00509906 0.196603 0 0 0 0 
773 0.103027 0.767008 0.0941847 0.025852 0.00657926 0.00334837 0 0 0 0 
774 0.197526 0.720995 0.0534638 0.0220849 0.00593036 0 0 0 0 0 
775 0.298756 0.571279 0.0941846 0.025852 0.00657926 0.00334837 0 0 0 0 
776 0.154184 0.749931 0.0674687 0.0248523 0.00356379 0 0 0 0 0 
777 0.296857 0.413352 0.276529 0.00483166 0.00407277 0.00435732 0 0 0 0 
778 0.192947 0.665346 0.113691 0.0220849 0.00593036 0 0 0 0 0 
779 0.192924 0.725573 0.0534872 0.0220849 0.00593036 0 0 0 0 0 
780 0.327437 0.604664 0.0445531 0.0184041 0.00494197 0 0 0 0 0 
781 0.470227 0.488906 0.037463 0.00170217 4.30735e-05 0.00165914 0 0 0 0 
782 0.381456 0.57769 0.0374493 0.00170217 4.30735e-05 0.00165914 0 0 0 0 
783 0.0623576 0.632926 0.281019 0.0236962 0 0 0 0 0 0 
784 0.192924 0.725597 0.0534638 0.0220849 0.00593036 0 0 0 0 0 
785 0.192924 0.725597 0.0534638 0.0220849 0.00593036 0 0 0 0 0 
786 0.381443 0.577704 0.0374493 0.00170217 4.30735e-05 0.00165914 0 0 0 0 
787 4.2294e-07 0.614583 0.338357 0 0.0470589 0 0 0 0 0 
788 0.18502 0.499918 0.280944 0.0298408 0.00427655 0 0 0 0 0 
789 0 0.466659 0.266674 0 0.266666 0 0 0 0 0 
790 0.192924 0.725597 0.0534638 0.0220849 0.00593036 0 0 0 0 0 
791 0.156228 0.696023 0.131835 0.00579799 0.00488733 0.00522878 0 0 0 0 
792 0.103027 0.767008 0.0941846 0.025852 0.00657926 0.00334837 0 0 0 0 
793 0.156228 0.496023 0.322315 0.0153179 0.00488733 0.00522878 0 0 0 0 
794 0.18502 0.699705 0.0811747 0.0298228 0.00427655 0 0 0 0 0 
795 0.103027 0.567008 0.0941846 0.225852 0.00657926 0.00334837 0 0 0 0 
796 0.103027 0.567008 0.294184 0.0258526 0.00657926 0.00334837 0 0 0 0 
797 0.18502 0.558817 0.222063 0.029823 0.00427655 0 0 0 0 0 
798 0.156229 0.637124 0.190733 0.00579799 0.00488733 0.00522878 0 0 0 0 
799 0.156228 0.627995 0.199863 0.00579799 0.00488733 0.00522878 0 0 0 0 
800 0.193428 0.721594 0.0569618 0.0220849 0.00593036 0 0 0 0 0 
801 0.452969 0.505673 0.0379537 0.00170217 4.30735e-05 0.00165914 0 0 0 0 
802 0.544813 0.448017 0.00650717 0 0.000662929 0 0 0 0 0 
803 0.381443 0.577704 0.0374493 0.00170217 4.30735e-05 0.00165914 0 0 0 0 
804 0.000289896 0.919719 0.0799908 0 0 0 0 0 0 0 
805 0.0623576 0.832907 0.0810385 0.0236962 0 0 0 0 0 0 
806 0.156228 0.496705 0.331152 0.00579799 0.00488733 0.00522878 0 0 0 0 
807 0.381443 0.577025 0.0381283 0.00170217 4.30735e-05 0.00165914 0 0 0 0 
808 0.381443 0.577704 0.0374493 0.00170217 4.30735e-05 0.00165914 0 0 0 0 
809 0.558173 0.269788 0.169607 0.00121583 3.07668e-05 0.0011851 0 0 0 0 
810 0.18502 0.499918 0.280961 0.0298242 0.00427655 0 0 0 0 0 
811 0.562736 0.427222 0.00911383 0 0.0009281 0 0 0 0 0 
812 0.296857 0.413355 0.276526 0.00483166 0.00407277 0.00435732 0 0 0 0 
813 0.192924 0.725597 0.0534638 0.0220849 0.00593036 0 0 0 0 0 
814 0.381443 0.577704 0.0374493 0.00170217 4.30735e-05 0.00165914 0 0 0 0 
815 0.156228 0.696023 0.131835 0.00579799 0.00488733 0.00522878 0 0 0 0 
816 0.103027 0.764343 0.0968495 0.025852 0.00657926 0.00334837 0 0 0 0 
817 0.156228 0.498633 0.329224 0.00579799 0.00488733 0.00522878 0 0 0 0 
818 0.18502 0.699917 0.0809625 0.0298228 0.00427655 0 0 0 0 0 
819 0.4705 0.423965 0.0941675 0.00414142 0.00349095 0.00373485 0 0 0 0 
820 0.18502 0.499918 0.0809625 0.229823 0.00427655 0 0 0 0 0 
821 0.160774 0.770256 0.0456237 0.0184041 0.00494197 0 0 0 0 0 
822 0.156228 0.520509 0.307348 0.00579799 0.00488733 0.00522878 0 0 0 0 
823 0.192924 0.725597 0.0534638 0.0220849 0.00593036 0 0 0 0 0 
824 0.000289896 0.719742 0.279968 0 0 0 0 0 0 0 
825 0.0623576 0.832887 0.0810588 0.0236962 0 0 0 0 0 0 
826 0.0623576 0.63291 0.0810358 0.223696 0 0 0 0 0 0 
827 0.103027 0.567008 0.294185 0.025852 0.00657926 0.00334837 0 0 0 0 
828 0.103027 0.767 0.0941924 0.025852 0.00657926 0.00334837 0 0 0 0 
829 0.32085 0.583265 0.0674687 0.0248523 0.00356379 0 0 0 0 0 
830 0.000634041 0.949371 0.0499943 0 0 0 0 0 0 0 
831 0.192925 0.725596 0.0534638 0.0220849 0.00593036 0 0 0 0 0 
832 0.103027 0.767007 0.0941853 0.025852 0.00657926 0.00334837 0 0 0 0 
833 0.381443 0.377704 0.237449 0.00170217 4.30735e-05 0.00165914 0 0 0 0 
834 0.281068 0.610686 0.0930939 0.0151516 0 0 0 0 0 0 
835 0.137293 0.731493 0.113031 0.0181819 0 0 0 0 0 0 
836 0.18502 0.699917 0.0809625 0.0298228 0.00427655 0 0 0 0 0 
837 0.192924 0.525597 0.0534638 0.222085 0.00593036 0 0 0 0 0 
838 0.562735 0.427227 0.00911004 0 0.0009281 0 0 0 0 0 
839 0.192924 0.525597 0.253464 0.0220849 0.00593036 0 0 0 0 0 
840 0.192924 0.525597 0.0534637 0.222085 0.00593036 0 0 0 0 0 
841 2.07932e-06 0.69341 0.0532542 0.253333 0 0 0 0 0 0 
842 0.156228 0.696023 0.131835 0.00579799 0.00488733 0.00522878 0 0 0 0 
843 0.103027 0.767008 0.0941846 0.025852 0.00657926 0.00334837 0 0 0 0 
844 0.103027 0.767008 0.0941846 0.025852 0.00657926 0.00334837 0 0 0 0 
845 0.192924 0.725597 0.0534638 0.0220849 0.00593036 0 0 0 0 0 
846 0.00787366 0.988884 5.62133e-06 0 0.00323627 0 0 0 0 0 
847 0.18502 0.499918 0.280962 0.0298228 0.00427655 0 0 0 0 0 
848 0.192924 0.525597 0.253464 0.0220849 0.00593036 0 0 0 0 0 
849 0.18502 0.699294 0.0815861 0.0298228 0.00427655 0 0 0 0 0 
850 0.156228 0.696023 0.131835 0.00579799 0.00488733 0.00522878 0 0 0 0 
851 0.18502 0.699917 0.0809625 0.0298228 0.00427655 0 0 0 0 0 
852 0.18502 0.699917 0.0809625 0.0298228 0.00427655 0 0 0 0 0 
853 0.192924 0.525597 0.0544381 0.22111 0.00593036 0 0 0 0 0 
854 0.0623576 0.83291 0.0810358 0.0236962 0 0 0 0 0 0 
855 0.13019 0.746686 0.109862 0.00483166 0.00407277 0.00435732 0 0 0 0 
856 0.073591 0.833577 0.0672747 0.0184657 0.00469947 0.00239169 0 0 0 0 
857 0.245577 0.702456 0.034457 0.0138031 0.00370648 0 0 0 0 0 
858 0.114402 0.777353 0.0930933 0.0151516 0 0 0 0 0 0 
859 0.0858562 0.80584 0.0784872 0.0215434 0.00548272 0.00279031 0 0 0 0 
860 0.384459 0.380315 0.222323 0.0129033 0 0 0 0 0 0 
861 0.103027 0.767008 0.0941846 0.025852 0.00657926 0.00334837 0 0 0 0 
862 0.238402 0.736065 0.0234058 0.00106386 2.69209e-05 0.00103696 0 0 0 0 
863 0.381443 0.577704 0.0374493 0.00170217 4.30735e-05 0.00165914 0 0 0 0 
864 0.156228 0.696023 0.131835 0.00579799 0.00488733 0.00522878 0 0 0 0 
865 0.192924 0.725597 0.0534638 0.0220849 0.00593036 0 0 0 0 0 
866 0.103027 0.767008 0.0941846 0.025852 0.00657926 0.00334837 0 0 0 0 
867 2.07932e-06 0.89341 0.0532539 0.0533333 0 0 0 0 0 0 
868 0.0623576 0.83291 0.0810359 0.0236962 0 0 0 0 0 0 
869 0.176134 0.749991 0.0659173 0.002899 0.00244366 0.00261439 0 0 0 0 
870 0.103027 0.571168 0.257779 0.0580974 0.00657926 0.00334837 0 0 0 0 
871 0.148281 0.786261 0.0506474 0.0148101 0 0 0 0 0 0 
872 0.0519647 0.860758 0.0675299 0.0197469 0 0 0 0 0 0 
873 0.413688 0.545417 0.0374902 0.00170217 4.30735e-05 0.00165914 0 0 0 0 
874 0.192925 0.725596 0.0534638 0.0220849 0.00593036 0 0 0 0 0 
875 0.103027 0.767008 0.0941846 0.025852 0.00657926 0.00334837 0 0 0 0 
876 0.16077 0.771331 0.0445531 0.0184041 0.00494197 0 0 0 0 0 
877 0.192924 0.725597 0.0534638 0.0220849 0.00593036 0 0 0 0 0 
878 0.381443 0.57635 0.0388029 0.00170217 4.30735e-05 0.00165914 0 0 0 0 
879 0.562735 0.228596 0.207741 0 0.0009281 0 0 0 0 0 
880 0.18502 0.699492 0.0813884 0.0298228 0.00427655 0 0 0 0 0 
881 0.137282 0.732823 0.111712 0.0181819 0 0 0 0 0 0 
882 0.384459 0.580315 0.0223229 0.0129033 0 0 0 0 0 0 
883 0.103027 0.567008 0.0941846 0.0525388 0.179892 0.00334837 0 0 0 0 
884 0.381443 0.577627 0.037526 0.00170217 4.30735e-05 0.00165914 0 0 0 0 
885 0.327418 0.438406 0.21083 0.0184041 0.00494197 0 0 0 0 0 
886 0.137282 0.732431 0.112104 0.0181819 0 0 0 0 0 0 
887 0.135197 0.756558 0.0930933 0.0151516 0 0 0 0 0 0 
888 0.0623576 0.83291 0.0810358 0.0236962 0 0 0 0 0 0 
889 0.18502 0.699917 0.0809625 0.0298228 0.00427655 0 0 0 0 0 
890 0.166888 0.765213 0.0445531 0.0184041 0.00494197 0 0 0 0 0 
891 0.18502 0.582568 0.198311 0.0298228 0.00427655 0 0 0 0 0 
892 0.103028 0.684356 0.176836 0.025852 0.00657926 0.00334837 0 0 0 0 
893 0.381443 0.577703 0.0374499 0.00170217 4.30735e-05 0.00165914 0 0 0 0 
894 0.270732 0.599303 0.0941846 0.025852 0.00657926 0.00334837 0 0 0 0 
895 0.156228 0.696023 0.131835 0.00579799 0.00488733 0.00522878 0 0 0 0 
896 0.000289896 0.919719 0.0799908 0 0 0 0 0 0 0 
897 0.192924 0.725597 0.0534638 0.0220849 0.00593036 0 0 0 0 0 
898 0.192924 0.725597 0.0534638 0.0220849 0.00593036 0 0 0 0 0 
899 0.137282 0.732823 0.111712 0.0181819 0 0 0 0 0 0 
900 0.562735 0.427227 0.00911004 0 0.0009281 0 0 0 0 0 
901 0.163808 0.595715 0.240424 5.23478e-05 0 0 0 0 0 0 
902 0.381443 0.577704 0.0374493 0.00170217 4.30735e-05 0.00165914 0 0 0 0 
903 0.192924 0.725597 0.0534638 0.0220849 0.00593036 0 0 0 0 0 
904 0.192924 0.725597 0.0534638 0.0220849 0.00593036 0 0 0 0 0 
905 2.07932e-06 0.89341 0.0532539 0.0533333 0 0 0 0 0 0 
906 0.0623576 0.633359 0.280587 0.0236962 0 0 0 0 0 0 
907 0.18502 0.699468 0.0814116 0.0298228 0.00427655 0 0 0 0 0 
908 0.103027 0.767008 0.0941846 0.025852 0.00657926 0.00334837 0 0 0 0 
909 0.18502 0.699917 0.0809625 0.0298228 0.00427655 0 0 0 0 0 
910 0.192924 0.725597 0.0534638 0.0220849 0.00593036 0 0 0 0 0 
911 0.103027 0.767 0.0941921 0.025852 0.00657926 0.00334837 0 0 0 0 
912 0.16077 0.606759 0.209125 0.0184041 0.00494197 0 0 0 0 0 
913 0.185028 0.69991 0.0809625 0.0298228 0.00427655 0 0 0 0 0 
914 0.381443 0.577704 0.0374493 0.00170217 4.30735e-05 0.00165914 0 0 0 0 
915 0 0 0.999999 0 0 0 0 0 0 0 
916 0.192924 0.725597 0.0534638 0.0220849 0.00593036 0 0 0 0 0 
917 0.192924 0.725597 0.0534638 0.0220849 0.00593036 0 0 0 0 0 
918 0.156228 0.696023 0.131835 0.00579799 0.00488733 0.00522878 0 0 0 0 
919 0.381471 0.577676 0.0374493 0.00170217 4.30735e-05 0.00165914 0 0 0 0 
920 0.192924 0.725597 0.0534638 0.0220849 0.00593036 0 0 0 0 0 
921 0.18502 0.499918 0.280962 0.0298228 0.00427655 0 0 0 0 0 
922 0.192943 0.725578 0.0534638 0.0220849 0.00593036 0 0 0 0 0 
923 0.18502 0.699914 0.0809662 0.0298228 0.00427655 0 0 0 0 0 
924 0.192924 0.725597 0.0534638 0.0220849 0.00593036 0 0 0 0 0 
925 0.192924 0.725597 0.0534638 0.0220849 0.00593036 0 0 0 0 0 
926 2.07932e-06 0.89341 0.0532539 0.0533333 0 0 0 0 0 0 
927 0.114402 0.777353 0.0930934 0.0151516 0 0 0 0 0 0 
928 0.274614 0.700225 0.0159449 0.00921661 0 0 0 0 0 0 
929 0.192924 0.72547 0.0535899 0.0220849 0.00593036 0 0 0 0 0 
930 0.103027 0.767008 0.0941846 0.025852 0.00657926 0.00334837 0 0 0 0 
931 0.383182 0.38118 0.222651 0.0129871 0 0 0 0 0 0 
932 0.18502 0.499918 0.0817907 0.228995 0.00427655 0 0 0 0 0 
933 0.156228 0.696022 0.131835 0.00579799 0.00488733 0.00522878 0 0 0 0 
934 0.103027 0.567008 0.0941854 0.225851 0.00657926 0.00334837 0 0 0 0 
935 0.192924 0.725597 0.0534638 0.0220849 0.00593036 0 0 0 0 0 
936 0.381443 0.577704 0.0374493 0.00170217 4.30735e-05 0.00165914 0 0 0 0 
937 0.192924 0.725591 0.0534688 0.0220849 0.00593036 0 0 0 0 0 
938 0.18502 0.699917 0.0809625 0.0298228 0.00427655 0 0 0 0 0 
939 0.192924 0.725597 0.0534638 0.0220849 0.00593036 0 0 0 0 0 
940 0.18502 0.699917 0.0809625 0.0298228 0.00427655 0 0 0 0 0 
941 0.103027 0.567008 0.0941861 0.22585 0.00657926 0.00334837 0 0 0 0 
