4 0 100 4 1
1 1 100 4 0.667929
4 1 100 4 0.332071
2 2 100 4 1
3 3 100 4 1
3 4 100 4 0.00713252
4 4 100 4 0.992867
4 5 100 4 1
5 0 100 5 1
1 1 100 5 0.714286
2 1 100 5 0.285714
2 2 100 5 1
1 3 100 5 0.333333
2 3 100 5 0.333333
3 3 100 5 0.333333
2 4 100 5 0.500969
3 4 100 5 0.250485
4 4 100 5 0.248546
3 5 100 5 0.498065
4 5 100 5 0.501935
3 6 100 5 0.400014
4 6 100 5 0.200004
5 6 100 5 0.399981
2 7 100 5 0.000461007
3 7 100 5 0.00370412
4 7 100 5 0.664151
5 7 100 5 0.331683
2 8 100 5 0.0751448
3 8 100 5 0.264277
4 8 100 5 0.267075
5 8 100 5 0.393503
5 10 100 5 1
6 0 100 6 1
1 1 100 6 1
1 2 100 6 0.090436
2 2 100 6 0.77967
3 2 100 6 0.129816
4 2 100 6 7.84408e-05
2 3 100 6 0.428655
3 3 100 6 0.464358
4 3 100 6 0.106987
2 4 100 6 0.112717
3 4 100 6 0.558235
4 4 100 6 0.223315
5 4 100 6 0.105734
2 5 100 6 0.0256871
3 5 100 6 0.201076
4 5 100 6 0.56671
5 5 100 6 0.206526
2 6 100 6 0.0383513
3 6 100 6 0.208589
4 6 100 6 0.371081
5 6 100 6 0.254988
6 6 100 6 0.126991
3 7 100 6 1.04069e-05
4 7 100 6 0.284256
5 7 100 6 0.450031
6 7 100 6 0.265703
3 8 100 6 5.35971e-06
4 8 100 6 0.131655
5 8 100 6 0.501513
6 8 100 6 0.366827
1 9 100 6 4.88683e-06
2 9 100 6 3.62758e-06
5 9 100 6 0.215812
6 9 100 6 0.784179
1 10 100 6 0.145353
2 10 100 6 0.125412
3 10 100 6 0.0529367
4 10 100 6 0.0983408
5 10 100 6 0.14179
6 10 100 6 0.436168
2 11 100 6 1
2 12 100 6 0.0921747
3 12 100 6 0.00631647
4 12 100 6 0.000212486
5 12 100 6 0.00163394
6 12 100 6 0.899662
6 13 100 6 1
2 14 100 6 2.78022e-05
3 14 100 6 2.73735e-05
4 14 100 6 0.000476804
5 14 100 6 0.999468
6 16 100 6 1
6 23 100 6 1
1 0 100 7 0.00103941
6 0 100 7 0.979282
7 0 100 7 0.0196785
1 1 100 7 0.919688
2 1 100 7 1.02162e-06
3 1 100 7 0.0803027
7 1 100 7 7.88811e-06
1 2 100 7 0.00506366
2 2 100 7 0.832715
3 2 100 7 0.0541718
5 2 100 7 0.0537236
6 2 100 7 0.0543113
7 2 100 7 1.46176e-05
2 3 100 7 0.314551
3 3 100 7 0.684315
4 3 100 7 0.00113492
1 4 100 7 0.060924
2 4 100 7 0.0304638
3 4 100 7 0.243843
4 4 100 7 0.611226
5 4 100 7 0.000412344
6 4 100 7 0.0531315
2 5 100 7 0.131006
3 5 100 7 0.0547166
4 5 100 7 0.434875
5 5 100 7 0.379402
2 6 100 7 0.0219196
3 6 100 7 0.242492
4 6 100 7 0.0651365
5 6 100 7 0.484577
6 6 100 7 0.185874
1 7 100 7 5.41186e-06
2 7 100 7 0.034478
3 7 100 7 0.0538561
4 7 100 7 0.155337
5 7 100 7 0.216031
6 7 100 7 0.378308
7 7 100 7 0.161984
1 8 100 7 0.0620523
2 8 100 7 0.124107
3 8 100 7 0.0620523
4 8 100 7 0.0620609
5 8 100 7 0.12537
6 8 100 7 0.31617
7 8 100 7 0.248187
1 9 100 7 0.00993805
2 9 100 7 0.00188377
3 9 100 7 0.051031
4 9 100 7 0.0939793
5 9 100 7 0.111704
6 9 100 7 0.293748
7 9 100 7 0.437716
1 10 100 7 1.03859e-06
2 10 100 7 3.3965e-07
3 10 100 7 4.37865e-06
4 10 100 7 0.000626103
5 10 100 7 0.0306405
6 10 100 7 0.161041
7 10 100 7 0.807687
1 11 100 7 0.137462
2 11 100 7 0.000105793
3 11 100 7 0.143618
4 11 100 7 0.170457
5 11 100 7 0.135799
6 11 100 7 1.00299e-05
7 11 100 7 0.412549
4 12 100 7 0.000480701
6 12 100 7 0.507315
7 12 100 7 0.492204
2 13 100 7 4.02658e-06
6 13 100 7 2.18551e-06
7 13 100 7 0.999994
4 14 100 7 0.000391364
5 14 100 7 0.999609
6 15 100 7 1
7 17 100 7 1
7 0 100 8 0.368198
8 0 100 8 0.631802
1 1 100 8 0.90905
2 1 100 8 0.090946
5 1 100 8 4.05119e-06
1 2 100 8 0.0836176
2 2 100 8 0.916382
2 3 100 8 0.181145
3 3 100 8 0.632497
4 3 100 8 0.180575
5 3 100 8 0.00578305
2 4 100 8 0.26342
3 4 100 8 0.316278
4 4 100 8 0.262106
5 4 100 8 0.0527317
6 4 100 8 0.0527317
7 4 100 8 0.0527317
1 5 100 8 0.0664887
2 5 100 8 0.133454
3 5 100 8 0.333582
4 5 100 8 0.266265
5 5 100 8 0.200201
8 5 100 8 9.35388e-06
3 6 100 8 0.156408
4 6 100 8 0.37642
5 6 100 8 0.362872
6 6 100 8 0.10423
7 6 100 8 6.8853e-05
1 7 100 8 0.0910213
4 7 100 8 0.0928152
5 7 100 8 0.272079
6 7 100 8 0.453391
7 7 100 8 0.0906928
4 8 100 8 0.0583692
5 8 100 8 0.177256
6 8 100 8 0.414245
7 8 100 8 0.291768
8 8 100 8 0.0583622
2 9 100 8 0.0668465
3 9 100 8 0.0677188
4 9 100 8 0.0668499
5 9 100 8 0.19626
6 9 100 8 0.134146
7 9 100 8 0.334502
8 9 100 8 0.133677
2 10 100 8 0.000172667
3 10 100 8 0.00067742
4 10 100 8 0.00133674
5 10 100 8 0.0687798
6 10 100 8 0.132943
7 10 100 8 0.265319
8 10 100 8 0.530771
1 11 100 8 0.000644374
2 11 100 8 3.76189e-05
3 11 100 8 0.0620791
4 11 100 8 0.124232
5 11 100 8 0.0679368
6 11 100 8 0.200128
7 11 100 8 0.264675
8 11 100 8 0.280268
1 12 100 8 3.60138e-05
3 12 100 8 1.09458e-06
4 12 100 8 0.000483481
5 12 100 8 0.246252
6 12 100 8 0.000114759
7 12 100 8 0.497467
8 12 100 8 0.255646
2 13 100 8 5.32186e-05
3 13 100 8 0.000274746
4 13 100 8 0.0074095
5 13 100 8 0.000224426
6 13 100 8 0.247602
7 13 100 8 0.00241414
8 13 100 8 0.742022
7 14 100 8 0.29405
8 14 100 8 0.70595
2 16 100 8 1.50593e-05
3 16 100 8 1.2332e-05
4 16 100 8 2.9641e-06
5 16 100 8 2.10329e-05
6 16 100 8 7.04369e-05
7 16 100 8 0.0187093
8 16 100 8 0.981169
1 17 100 8 6.23839e-05
8 17 100 8 0.999938
9 0 100 9 1
1 1 100 9 0.866664
2 1 100 9 0.133336
1 2 100 9 0.0349155
2 2 100 9 0.965085
2 3 100 9 0.220418
3 3 100 9 0.779582
2 4 100 9 0.10198
3 4 100 9 0.490098
4 4 100 9 0.407921
1 5 100 9 0.13298
3 5 100 9 0.0794015
4 5 100 9 0.465171
5 5 100 9 0.322447
2 6 100 9 0.181791
3 6 100 9 0.0908878
4 6 100 9 0.27304
5 6 100 9 0.454272
6 6 100 9 9.44385e-06
3 7 100 9 0.068966
4 7 100 9 0.068966
5 7 100 9 0.275864
6 7 100 9 0.448275
7 7 100 9 0.137929
1 8 100 9 0.0531789
3 8 100 9 0.0789195
5 8 100 9 0.0789467
6 8 100 9 0.394351
7 8 100 9 0.236765
8 8 100 9 0.157839
4 9 100 9 0.0995312
5 9 100 9 0.0995312
6 9 100 9 0.104269
7 9 100 9 0.298539
8 9 100 9 0.298612
9 9 100 9 0.0995175
6 10 100 9 0.252288
7 10 100 9 0.302644
8 10 100 9 0.101202
9 10 100 9 0.343866
1 11 100 9 1.29072e-06
2 11 100 9 3.2274e-06
3 11 100 9 1.21088e-05
4 11 100 9 3.904e-05
5 11 100 9 0.070421
6 11 100 9 0.0241663
7 11 100 9 0.356319
8 11 100 9 0.549037
9 11 100 9 8.9703e-07
5 12 100 9 1.52432e-06
6 12 100 9 0.135732
7 12 100 9 0.17664
8 12 100 9 0.180529
9 12 100 9 0.507097
3 13 100 9 3.94429e-07
8 13 100 9 0.399927
9 13 100 9 0.600073
6 14 100 9 2.4945e-06
7 14 100 9 0.000972199
8 14 100 9 0.249299
9 14 100 9 0.749727
6 15 100 9 1.9595e-06
7 15 100 9 0.49323
8 15 100 9 0.00824391
9 15 100 9 0.498525
8 16 100 9 1
9 17 100 9 1
1 0 100 10 0.000225838
9 0 100 10 0.994886
10 0 100 10 0.00488778
1 1 100 10 0.875118
2 1 100 10 0.124878
10 1 100 10 3.84042e-06
2 2 100 10 0.876567
4 2 100 10 0.123433
2 3 100 10 0.438245
3 3 100 10 0.449404
4 3 100 10 0.112351
2 4 100 10 0.148548
3 4 100 10 0.563887
4 4 100 10 0.287565
1 5 100 10 0.260598
2 5 100 10 0.130299
3 5 100 10 0.143231
4 5 100 10 0.130299
5 5 100 10 0.335573
3 6 100 10 0.115521
4 6 100 10 0.31066
5 6 100 10 0.35408
6 6 100 10 0.219739
2 7 100 10 0.0337976
3 7 100 10 0.0750581
4 7 100 10 0.299984
5 7 100 10 0.300232
6 7 100 10 0.215868
7 7 100 10 0.0750598
3 8 100 10 0.195109
4 8 100 10 0.102647
5 8 100 10 0.367027
7 8 100 10 0.205294
8 8 100 10 0.102647
9 8 100 10 0.027275
1 9 100 10 0.0871733
5 9 100 10 0.0369951
6 9 100 10 0.43586
7 9 100 10 0.261221
8 9 100 10 0.0871733
9 9 100 10 0.0915777
1 10 100 10 3.50516e-06
2 10 100 10 0.062744
3 10 100 10 0.125487
4 10 100 10 0.188148
5 10 100 10 0.12139
6 10 100 10 0.125492
7 10 100 10 0.0627385
8 10 100 10 0.188515
9 10 100 10 0.062744
10 10 100 10 0.0627387
6 11 100 10 0.200032
7 11 100 10 0.400406
8 11 100 10 0.199567
9 11 100 10 0.0999925
10 11 100 10 0.100002
3 12 100 10 4.07516e-06
4 12 100 10 6.2403e-05
5 12 100 10 0.000118947
6 12 100 10 0.199856
7 12 100 10 0.303484
8 12 100 10 0.296025
9 12 100 10 0.100719
10 12 100 10 0.0997306
5 13 100 10 0.00253596
6 13 100 10 5.77305e-07
7 13 100 10 0.140226
8 13 100 10 0.428589
9 13 100 10 0.428647
10 13 100 10 2.43545e-06
6 14 100 10 2.02642e-07
7 14 100 10 0.0387775
8 14 100 10 0.107573
9 14 100 10 0.423917
10 14 100 10 0.429732
3 15 100 10 9.60323e-07
4 15 100 10 7.85419e-07
5 15 100 10 1.0635e-06
7 15 100 10 0.00267467
8 15 100 10 0.144163
9 15 100 10 0.27688
10 15 100 10 0.57628
5 16 100 10 8.24835e-06
6 16 100 10 0.00733214
7 16 100 10 0.287274
8 16 100 10 0.348062
9 16 100 10 0.17918
10 16 100 10 0.178144
4 17 100 10 0.00664191
5 17 100 10 0.246042
6 17 100 10 1.66622e-05
8 17 100 10 0.0115215
9 17 100 10 1.31354e-05
10 17 100 10 0.735765
5 18 100 10 0.000144162
6 18 100 10 0.333699
7 18 100 10 0.000912624
8 18 100 10 0.000297263
9 18 100 10 0.664947
10 19 100 10 1
10 20 100 10 1
11 0 100 11 1
1 1 100 11 0.923062
2 1 100 11 0.0769384
1 2 100 11 0.098891
2 2 100 11 0.592116
3 2 100 11 0.308993
1 3 100 11 0.0979048
2 3 100 11 0.378122
3 3 100 11 0.328028
4 3 100 11 0.195938
6 3 100 11 7.50179e-06
2 4 100 11 0.190448
3 4 100 11 0.333537
4 4 100 11 0.285608
5 4 100 11 0.190406
1 5 100 11 0.000164124
2 5 100 11 0.0172254
3 5 100 11 0.124177
4 5 100 11 0.613281
5 5 100 11 0.122507
6 5 100 11 0.122645
3 6 100 11 0.00139262
5 6 100 11 0.998607
3 7 100 11 0.169649
4 7 100 11 0.169683
6 7 100 11 0.339365
9 7 100 11 0.151609
10 7 100 11 0.169694
2 8 100 11 0.100052
3 8 100 11 0.0999942
4 8 100 11 0.0999942
5 8 100 11 0.299983
6 8 100 11 0.299983
7 8 100 11 0.0999942
3 9 100 11 0.0783904
5 9 100 11 0.235167
6 9 100 11 0.304776
7 9 100 11 0.381667
4 10 100 11 0.153844
6 10 100 11 0.153853
7 10 100 11 0.230769
8 10 100 11 0.461533
5 11 100 11 0.109813
6 11 100 11 0.109813
7 11 100 11 0.219621
8 11 100 11 0.329438
9 11 100 11 0.231316
6 12 100 11 0.134832
7 12 100 11 0.0159177
9 12 100 11 0.606606
10 12 100 11 0.242644
5 13 100 11 0.000112311
6 13 100 11 3.90926e-06
7 13 100 11 0.177319
8 13 100 11 0.205523
9 13 100 11 0.17713
10 13 100 11 0.262732
11 13 100 11 0.17718
6 14 100 11 3.06922e-07
7 14 100 11 1.98801e-05
8 14 100 11 0.100417
9 14 100 11 0.101161
10 14 100 11 0.399252
11 14 100 11 0.399149
6 15 100 11 0.00141102
7 15 100 11 0.163043
8 15 100 11 0.168025
9 15 100 11 0.172164
10 15 100 11 2.02737e-05
11 15 100 11 0.495337
5 16 100 11 2.23051e-06
6 16 100 11 3.34803e-05
7 16 100 11 0.00224719
8 16 100 11 0.115591
9 16 100 11 0.348422
10 16 100 11 0.355887
11 16 100 11 0.177817
9 17 100 11 0.00013422
10 17 100 11 0.501681
11 17 100 11 0.498185
9 18 100 11 5.16958e-05
10 18 100 11 0.501144
11 18 100 11 0.498804
11 19 100 11 1
11 20 100 11 1
1 0 100 12 0.160686
11 0 100 12 0.0301157
12 0 100 12 0.809198
1 1 100 12 0.764583
2 1 100 12 0.23516
3 1 100 12 0.000251582
12 1 100 12 5.23349e-06
1 2 100 12 0.113862
2 2 100 12 0.770718
3 2 100 12 0.1153
4 2 100 12 5.10906e-05
12 2 100 12 6.8633e-05
2 3 100 12 0.131599
3 3 100 12 0.742287
4 3 100 12 0.126114
2 4 100 12 0.00528451
3 4 100 12 0.552647
4 4 100 12 0.331539
5 4 100 12 0.110529
2 5 100 12 0.149266
3 5 100 12 0.0840973
4 5 100 12 0.278804
5 5 100 12 0.348504
6 5 100 12 0.139328
1 6 100 12 0.000885357
4 6 100 12 0.285394
5 6 100 12 0.285383
6 6 100 12 0.285533
9 6 100 12 0.142692
12 6 100 12 0.000113116
2 7 100 12 0.00343855
4 7 100 12 0.166085
6 7 100 12 0.332221
7 7 100 12 0.415213
10 7 100 12 0.0830426
3 8 100 12 0.0700082
5 8 100 12 0.23251
6 8 100 12 0.309966
7 8 100 12 0.23251
8 8 100 12 0.155006
1 9 100 12 4.38222e-05
2 9 100 12 0.00515111
4 9 100 12 0.248794
5 9 100 12 0.124402
8 9 100 12 0.373223
9 9 100 12 0.124401
12 9 100 12 0.123985
7 10 100 12 0.285963
9 10 100 12 0.428872
10 10 100 12 0.14289
11 10 100 12 0.142275
5 11 100 12 0.0719339
6 11 100 12 0.071934
7 11 100 12 0.143778
8 11 100 12 0.359581
9 11 100 12 0.0687901
10 11 100 12 0.143868
11 11 100 12 0.140116
8 12 100 12 0.248377
9 12 100 12 0.496494
10 12 100 12 0.12412
11 12 100 12 0.0069348
12 12 100 12 0.124074
7 13 100 12 0.11068
9 13 100 12 0.226034
10 13 100 12 0.332049
11 13 100 12 0.220575
12 13 100 12 0.110662
2 14 100 12 2.98958e-06
3 14 100 12 2.16111e-05
4 14 100 12 1.57539e-06
5 14 100 12 9.10014e-06
6 14 100 12 0.000817258
7 14 100 12 0.125587
8 14 100 12 0.12568
9 14 100 12 0.00161706
10 14 100 12 0.247572
11 14 100 12 0.377603
12 14 100 12 0.121088
3 15 100 12 1.64997e-07
4 15 100 12 0.0112858
5 15 100 12 0.0702302
6 15 100 12 0.0697829
7 15 100 12 0.00244378
8 15 100 12 0.0696574
9 15 100 12 0.141694
10 15 100 12 0.21096
11 15 100 12 0.0709187
12 15 100 12 0.353027
8 16 100 12 1.45805e-06
10 16 100 12 0.326011
11 16 100 12 0.345233
12 16 100 12 0.328755
6 17 100 12 9.89857e-07
7 17 100 12 2.35147e-06
8 17 100 12 9.42571e-07
9 17 100 12 2.53412e-05
10 17 100 12 0.00369518
11 17 100 12 0.996275
11 18 100 12 0.0749153
12 18 100 12 0.925085
11 19 100 12 1
12 20 100 12 1
4 0 100 13 0.290826
5 0 100 13 0.260772
12 0 100 13 0.434227
13 0 100 13 0.0141749
1 1 100 13 0.999999
13 1 100 13 1.1436e-06
2 2 100 13 0.915753
3 2 100 13 0.0842471
2 3 100 13 0.444444
3 3 100 13 0.444444
4 3 100 13 0.111111
2 4 100 13 0.000656819
3 4 100 13 0.582999
4 4 100 13 0.333057
5 4 100 13 0.0832867
3 5 100 13 0.0652884
4 5 100 13 0.477692
5 5 100 13 0.32644
6 5 100 13 0.0652884
8 5 100 13 0.0652912
2 6 100 13 0.00584944
4 6 100 13 0.0956787
5 6 100 13 0.610801
6 6 100 13 0.287671
5 7 100 13 0.331698
6 7 100 13 0.49658
8 7 100 13 0.171722
6 8 100 13 0.435079
7 8 100 13 0.338932
8 8 100 13 0.112977
9 8 100 13 0.113012
2 9 100 13 0.0661047
3 9 100 13 0.124592
6 9 100 13 0.188122
7 9 100 13 0.373777
8 9 100 13 0.186888
9 9 100 13 0.0605164
3 10 100 13 0.0661113
4 10 100 13 0.0661113
5 10 100 13 0.0661113
6 10 100 13 0.07596
7 10 100 13 0.137304
8 10 100 13 0.201983
9 10 100 13 0.254469
10 10 100 13 0.131946
11 10 100 13 3.17267e-06
4 11 100 13 0.0897772
6 11 100 13 0.0879278
7 11 100 13 0.262405
8 11 100 13 0.107439
9 11 100 13 0.272312
10 11 100 13 0.0901525
11 11 100 13 0.0899868
8 12 100 13 0.141017
9 12 100 13 0.295377
10 12 100 13 0.281572
11 12 100 13 0.282034
1 13 100 13 1.41791e-06
7 13 100 13 0.0743306
8 13 100 13 0.0802968
9 13 100 13 0.0805888
10 13 100 13 0.321456
11 13 100 13 0.283278
12 13 100 13 0.0797566
13 13 100 13 0.0802916
8 14 100 13 0.122958
9 14 100 13 0.00807048
10 14 100 13 0.42207
11 14 100 13 0.164568
12 14 100 13 0.282333
4 15 100 13 2.40695e-06
5 15 100 13 6.90673e-06
6 15 100 13 0.00116295
7 15 100 13 0.00105187
8 15 100 13 2.14693e-05
9 15 100 13 0.166809
10 15 100 13 1.37688e-06
11 15 100 13 0.586402
12 15 100 13 0.122496
13 15 100 13 0.122046
5 16 100 13 6.28879e-07
6 16 100 13 0.000313783
7 16 100 13 0.0663344
8 16 100 13 0.0827375
9 16 100 13 0.141621
10 16 100 13 0.133541
11 16 100 13 0.0360594
12 16 100 13 0.405371
13 16 100 13 0.134021
4 17 100 13 2.02945e-05
5 17 100 13 0.000709516
8 17 100 13 0.000950643
9 17 100 13 0.0203844
10 17 100 13 0.122293
11 17 100 13 0.13848
12 17 100 13 0.114123
13 17 100 13 0.603038
2 18 100 13 9.25416e-07
9 18 100 13 2.01707e-06
11 18 100 13 0.247067
12 18 100 13 0.502665
13 18 100 13 0.250266
4 19 100 13 0.00176062
11 19 100 13 2.69719e-05
12 19 100 13 0.335269
13 19 100 13 0.662944
4 20 100 13 3.45406e-07
5 20 100 13 9.58058e-07
6 20 100 13 0.00484133
7 20 100 13 0.067823
8 20 100 13 0.204358
9 20 100 13 0.110072
10 20 100 13 6.00554e-06
13 20 100 13 0.612899
13 21 100 13 1
9 22 100 13 3.70714e-05
10 22 100 13 0.999959
11 22 100 13 3.98807e-06
4 23 100 13 3.29673e-06
5 23 100 13 4.16504e-06
6 23 100 13 0.000256496
7 23 100 13 0.000132083
8 23 100 13 4.00769e-06
10 23 100 13 5.11026e-05
11 23 100 13 0.999362
12 23 100 13 0.000186925
5 24 100 13 3.41657e-06
6 24 100 13 0.00151991
7 24 100 13 0.00146911
8 24 100 13 3.55211e-05
11 24 100 13 0.0016249
12 24 100 13 0.995347
6 25 100 13 0.0706822
7 25 100 13 0.926926
8 25 100 13 3.14069e-05
9 25 100 13 0.00233165
11 25 100 13 2.90471e-05
13 26 100 13 1
1 0 100 14 0.000116575
4 0 100 14 1.78872e-05
13 0 100 14 0.643962
14 0 100 14 0.355903
1 1 100 14 0.888889
2 1 100 14 0.111111
1 2 100 14 7.71555e-06
2 2 100 14 0.999983
14 2 100 14 9.62872e-06
2 3 100 14 0.151171
3 3 100 14 0.84455
5 3 100 14 0.00427921
1 4 100 14 0.166057
3 4 100 14 0.333574
4 4 100 14 0.500361
14 4 100 14 7.94687e-06
2 5 100 14 0.166769
4 5 100 14 0.166646
5 5 100 14 0.666585
3 6 100 14 0.165352
4 6 100 14 0.238527
5 6 100 14 0.116436
6 6 100 14 0.479676
14 6 100 14 8.54969e-06
4 7 100 14 0.334495
5 7 100 14 0.332803
7 7 100 14 0.332701
4 8 100 14 0.162734
5 8 100 14 0.162734
6 8 100 14 0.325469
7 8 100 14 0.162689
9 8 100 14 0.162734
12 8 100 14 0.000708335
13 8 100 14 0.0229311
1 9 100 14 0.0838963
2 9 100 14 0.0834943
3 9 100 14 0.0836716
4 9 100 14 0.0835558
5 9 100 14 0.0835559
6 9 100 14 0.0835559
7 9 100 14 0.164045
8 9 100 14 0.334224
14 9 100 14 1.89018e-06
5 10 100 14 0.142857
6 10 100 14 0.142857
7 10 100 14 0.285714
9 10 100 14 0.428571
6 11 100 14 0.139627
7 11 100 14 0.284379
8 11 100 14 0.017421
10 11 100 14 0.279254
11 11 100 14 0.279254
12 11 100 14 6.6322e-05
6 12 100 14 0.12732
8 12 100 14 0.381954
10 12 100 14 0.254641
12 12 100 14 0.126706
13 12 100 14 0.109379
1 13 100 14 3.62835e-05
3 13 100 14 0.0113483
7 13 100 14 0.343863
8 13 100 14 0.644744
14 13 100 14 8.09824e-06
8 14 100 14 0.200002
9 14 100 14 0.400069
12 14 100 14 0.200002
14 14 100 14 0.199928
9 15 100 14 0.200593
10 15 100 14 0.401156
11 15 100 14 0.297931
12 15 100 14 6.9009e-06
13 15 100 14 0.100313
8 16 100 14 3.87996e-05
9 16 100 14 0.143389
10 16 100 14 0.162037
11 16 100 14 0.310696
12 16 100 14 0.239709
14 16 100 14 0.144129
2 17 100 14 4.53737e-07
4 17 100 14 4.73425e-07
8 17 100 14 3.47984e-06
9 17 100 14 0.242104
10 17 100 14 0.00436726
11 17 100 14 0.253505
12 17 100 14 0.254387
13 17 100 14 0.245633
1 18 100 14 5.37345e-07
8 18 100 14 1.01741e-06
9 18 100 14 2.30101e-05
10 18 100 14 0.000120342
11 18 100 14 0.000332546
12 18 100 14 0.238084
13 18 100 14 0.28
14 18 100 14 0.481439
4 19 100 14 2.50584e-05
9 19 100 14 0.000193114
10 19 100 14 0.244652
11 19 100 14 0.000234571
12 19 100 14 0.504134
13 19 100 14 0.250761
4 20 100 14 3.12367e-06
9 20 100 14 0.004307
10 20 100 14 0.0039389
11 20 100 14 0.207366
12 20 100 14 0.000143203
13 20 100 14 0.522997
14 20 100 14 0.261244
1 21 100 14 0.0204678
2 21 100 14 3.49432e-05
3 21 100 14 9.42977e-06
4 21 100 14 4.20722e-06
10 21 100 14 8.79885e-05
11 21 100 14 0.368316
12 21 100 14 3.70062e-05
13 21 100 14 0.000806756
14 21 100 14 0.610236
2 22 100 14 5.84267e-06
3 22 100 14 3.60002e-06
4 22 100 14 2.72616e-05
10 22 100 14 0.0031245
11 22 100 14 0.000365275
12 22 100 14 0.695123
14 22 100 14 0.30135
13 23 100 14 1
14 24 100 14 1
7 0 100 15 0.15097
15 0 100 15 0.84903
1 1 100 15 1
2 2 100 15 0.853318
3 2 100 15 0.146682
2 3 100 15 0.191027
3 3 100 15 0.486679
4 3 100 15 0.161541
6 3 100 15 0.160754
2 4 100 15 0.0909104
3 4 100 15 0.272724
4 4 100 15 0.363632
5 4 100 15 0.0909104
6 4 100 15 0.0909104
7 4 100 15 0.0909132
4 5 100 15 0.249999
5 5 100 15 0.500001
8 5 100 15 0.25
5 6 100 15 0.6
6 6 100 15 0.4
3 7 100 15 0.197235
4 7 100 15 0.199834
6 7 100 15 0.200736
7 7 100 15 0.199695
9 7 100 15 0.199762
12 7 100 15 0.00273846
6 8 100 15 0.1667
7 8 100 15 0.1667
8 8 100 15 0.333401
9 8 100 15 0.1667
10 8 100 15 0.166498
4 9 100 15 0.0140664
5 9 100 15 0.19714
7 9 100 15 0.591414
9 9 100 15 0.19714
10 9 100 15 0.000239032
6 10 100 15 0.2
7 10 100 15 0.2
8 10 100 15 0.2
10 10 100 15 0.2
11 10 100 15 0.2
8 11 100 15 0.499811
11 11 100 15 0.250095
12 11 100 15 0.250094
4 12 100 15 0.193519
6 12 100 15 0.208443
8 12 100 15 0.000314832
9 12 100 15 0.389279
13 12 100 15 0.208443
5 13 100 15 0.140202
7 13 100 15 0.140202
9 13 100 15 0.158772
10 13 100 15 0.280404
12 13 100 15 0.140202
14 13 100 15 0.140218
8 14 100 15 0.166667
10 14 100 15 0.333333
11 14 100 15 0.333333
13 14 100 15 0.166667
8 15 100 15 0.0833352
9 15 100 15 0.16667
10 15 100 15 0.0833352
11 15 100 15 0.16667
12 15 100 15 0.16667
13 15 100 15 0.16667
14 15 100 15 0.0833352
15 15 100 15 0.0833127
10 16 100 15 0.167055
11 16 100 15 0.167055
12 16 100 15 0.33182
14 16 100 15 0.167055
15 16 100 15 0.167015
11 17 100 15 0.198525
12 17 100 15 0.0346068
13 17 100 15 0.383732
14 17 100 15 0.192211
15 17 100 15 0.190925
12 18 100 15 0.406557
13 18 100 15 0.19146
14 18 100 15 0.401983
8 19 100 15 0.000222491
13 19 100 15 0.257642
14 19 100 15 0.246081
15 19 100 15 0.496055
13 20 100 15 2.98784e-05
14 20 100 15 0.505025
15 20 100 15 0.494945
15 21 100 15 1
1 0 100 16 3.1297e-05
8 0 100 16 0.000917455
15 0 100 16 0.660652
16 0 100 16 0.338399
1 1 100 16 0.992819
2 1 100 16 0.00718131
2 2 100 16 0.663832
3 2 100 16 0.336168
2 3 100 16 1
2 4 100 16 0.142622
3 4 100 16 0.571533
4 4 100 16 0.143262
14 4 100 16 0.142583
1 5 100 16 0.2
4 5 100 16 0.399998
5 5 100 16 0.200001
15 5 100 16 0.200001
3 6 100 16 0.000466884
4 6 100 16 0.499175
5 6 100 16 0.249883
6 6 100 16 0.249883
14 6 100 16 0.000592915
5 7 100 16 0.333333
7 7 100 16 0.333333
16 7 100 16 0.333333
5 8 100 16 0.152112
6 8 100 16 0.239581
7 8 100 16 0.304224
8 8 100 16 0.304084
5 9 100 16 0.291973
6 9 100 16 0.12408
9 9 100 16 0.583947
6 10 100 16 0.5
7 10 100 16 0.25
10 10 100 16 0.25
7 11 100 16 0.25
8 11 100 16 0.5
11 11 100 16 0.25
8 12 100 16 0.333333
9 12 100 16 0.333333
10 12 100 16 0.333333
9 13 100 16 0.333458
10 13 100 16 0.166729
11 13 100 16 0.166729
12 13 100 16 0.333084
12 14 100 16 0.485819
13 14 100 16 0.514181
10 15 100 16 0.23724
11 15 100 16 0.233951
12 15 100 16 0.23724
13 15 100 16 0.291569
10 16 100 16 0.211681
11 16 100 16 0.214615
13 16 100 16 0.362024
14 16 100 16 0.211681
11 17 100 16 0.333296
14 17 100 16 0.333297
15 17 100 16 0.112839
16 17 100 16 0.220569
12 18 100 16 0.50054
14 18 100 16 0.00117689
15 18 100 16 0.498283
13 19 100 16 4.48359e-06
14 19 100 16 9.08699e-05
15 19 100 16 0.000248931
16 19 100 16 0.999656
12 20 100 16 1.28302e-05
13 20 100 16 0.505401
14 20 100 16 0.494586
4 21 100 16 3.88054e-05
14 21 100 16 0.999961
14 22 100 16 4.24773e-05
15 22 100 16 0.999958
16 23 100 16 1
1 0 100 17 0.000509008
8 0 100 17 2.50159e-05
16 0 100 17 0.804903
17 0 100 17 0.194563
1 1 100 17 0.624876
2 1 100 17 0.250083
3 1 100 17 0.125041
2 2 100 17 0.666667
3 2 100 17 0.333333
3 3 100 17 0.333423
4 3 100 17 0.666577
3 4 100 17 0.11358
4 4 100 17 0.227159
5 4 100 17 0.318522
6 4 100 17 0.227159
7 4 100 17 0.11358
1 5 100 17 0.000348924
5 5 100 17 0.544163
8 5 100 17 0.455143
17 5 100 17 0.000344891
5 6 100 17 0.0625401
6 6 100 17 0.93746
2 7 100 17 0.25
7 7 100 17 0.5
9 7 100 17 0.25
3 8 100 17 0.185613
7 8 100 17 0.185685
8 8 100 17 0.443019
10 8 100 17 0.185684
1 9 100 17 0.000174612
7 9 100 17 1.66671e-05
8 9 100 17 0.000263227
9 9 100 17 0.999501
10 9 100 17 2.17179e-05
17 9 100 17 2.26486e-05
4 10 100 17 0.216739
8 10 100 17 0.133044
9 10 100 17 0.216739
10 10 100 17 0.216739
11 10 100 17 0.216739
5 11 100 17 0.110881
6 11 100 17 0.127953
7 11 100 17 0.12795
8 11 100 17 0.127953
9 11 100 17 0.127953
10 11 100 17 0.121402
11 11 100 17 0.127953
12 11 100 17 0.127953
13 11 100 17 2.19132e-06
10 12 100 17 0.196199
11 12 100 17 0.196198
12 12 100 17 0.196199
13 12 100 17 0.372053
14 12 100 17 0.039351
9 13 100 17 0.999882
16 13 100 17 0.000118
1 14 100 17 0.000214577
10 14 100 17 0.333127
11 14 100 17 0.317023
13 14 100 17 0.0327304
14 14 100 17 0.316901
17 14 100 17 4.49205e-06
11 15 100 17 0.26323
12 15 100 17 0.526147
13 15 100 17 0.000107792
14 15 100 17 0.210515
7 16 100 17 3.18402e-06
12 16 100 17 0.166938
13 16 100 17 0.499834
14 16 100 17 0.166612
15 16 100 17 0.166612
14 17 100 17 0.400009
15 17 100 17 0.400009
16 17 100 17 0.199981
15 18 100 17 0.500025
16 18 100 17 0.250032
17 18 100 17 0.249943
2 19 100 17 1.06627e-05
15 19 100 17 0.0012267
16 19 100 17 0.0263281
17 19 100 17 0.972435
15 20 100 17 0.0143482
16 20 100 17 0.535913
17 20 100 17 0.449739
17 22 100 17 1
11 0 100 18 0.931398
18 0 100 18 0.0686017
1 1 100 18 0.666666
2 1 100 18 0.333334
4 2 100 18 1
4 3 100 18 0.333333
5 3 100 18 0.333333
6 3 100 18 0.333333
2 4 100 18 0.5
5 4 100 18 0.5
7 5 100 18 1
14 6 100 18 1
7 7 100 18 0.333333
8 7 100 18 0.333333
9 7 100 18 0.333333
3 8 100 18 0.666666
10 8 100 18 0.333334
6 9 100 18 1
7 10 100 18 0.33422
9 10 100 18 0.33422
11 10 100 18 0.331559
8 11 100 18 0.333333
10 11 100 18 0.333333
12 11 100 18 0.333333
13 12 100 18 0.5
14 12 100 18 0.5
11 13 100 18 1
12 14 100 18 1
13 15 100 18 1
15 16 100 18 1
13 17 100 18 0.997227
16 17 100 18 0.00277256
16 18 100 18 1
17 19 100 18 1
8 20 100 18 1.83892e-06
9 20 100 18 3.40037e-05
10 20 100 18 6.13582e-07
11 20 100 18 6.55408e-07
13 20 100 18 0.00143816
14 20 100 18 0.335488
15 20 100 18 0.326494
18 20 100 18 0.336542
9 21 100 18 1.81207e-05
10 21 100 18 3.01543e-06
12 21 100 18 2.00986e-06
13 21 100 18 0.000197005
14 21 100 18 0.00266555
15 21 100 18 0.029679
16 21 100 18 0.967435
17 22 100 18 1
18 23 100 18 1
1 0 100 20 0.00105813
4 0 100 20 6.29597e-05
7 0 100 20 0.000610185
14 0 100 20 0.00151099
19 0 100 20 0.776894
20 0 100 20 0.219863
1 1 100 20 0.749932
2 1 100 20 0.250026
20 1 100 20 4.14986e-05
1 2 100 20 6.21327e-05
2 2 100 20 0.999838
20 2 100 20 9.98956e-05
1 3 100 20 0.320709
3 3 100 20 0.679291
4 4 100 20 0.999975
20 4 100 20 2.46808e-05
1 5 100 20 0.0179402
3 5 100 20 0.324637
5 5 100 20 0.648314
20 5 100 20 0.00910978
3 6 100 20 2.62366e-05
5 6 100 20 0.00137164
6 6 100 20 0.998602
2 7 100 20 0.171514
5 7 100 20 0.171514
6 7 100 20 0.144689
7 7 100 20 0.34077
8 7 100 20 0.171514
6 8 100 20 0.225313
7 8 100 20 0.396656
20 8 100 20 0.378032
6 9 100 20 0.155096
8 9 100 20 0.730088
9 9 100 20 0.114816
7 10 100 20 0.271336
9 10 100 20 0.728664
8 11 100 20 0.333333
10 11 100 20 0.666667
3 12 100 20 0.166667
4 12 100 20 0.166667
7 12 100 20 0.166667
9 12 100 20 0.166667
11 12 100 20 0.333333
5 13 100 20 0.125
8 13 100 20 0.125
10 13 100 20 0.25
11 13 100 20 0.125
12 13 100 20 0.375
6 14 100 20 0.249998
7 14 100 20 9.70025e-06
9 14 100 20 0.249998
10 14 100 20 0.249998
13 14 100 20 0.249998
1 15 100 20 0.11109
11 15 100 20 0.222226
12 15 100 20 0.111113
13 15 100 20 0.222226
14 15 100 20 0.222226
15 15 100 20 0.111113
20 15 100 20 4.89226e-06
13 16 100 20 0.0583665
14 16 100 20 0.235746
15 16 100 20 0.235746
16 16 100 20 0.235746
19 16 100 20 0.000660999
20 16 100 20 0.233733
2 17 100 20 0.249982
3 17 100 20 0.249982
12 17 100 20 0.249982
15 17 100 20 0.249982
19 17 100 20 7.04066e-05
4 18 100 20 0.17384
13 18 100 20 0.30464
14 18 100 20 0.17384
16 18 100 20 0.17384
17 18 100 20 0.17384
1 19 100 20 2.61117e-05
14 19 100 20 0.247947
15 19 100 20 0.248329
17 19 100 20 0.248329
18 19 100 20 0.248329
20 19 100 20 0.00704069
15 20 100 20 0.199998
16 20 100 20 0.200065
17 20 100 20 0.199998
18 20 100 20 0.199998
19 20 100 20 0.199942
5 21 100 20 0.125276
16 21 100 20 0.250511
17 21 100 20 0.250553
18 21 100 20 0.248407
20 21 100 20 0.125253
14 22 100 20 8.34968e-07
18 22 100 20 0.498226
19 22 100 20 0.501649
20 22 100 20 0.000124774
9 23 100 20 7.10774e-06
18 23 100 20 7.99994e-06
19 23 100 20 0.535153
20 23 100 20 0.464832
19 24 100 20 1
20 25 100 20 1
1 0 100 21 0.00354345
9 0 100 21 0.00390268
10 0 100 21 0.00126445
12 0 100 21 0.000566983
16 0 100 21 0.00360547
20 0 100 21 0.613332
21 0 100 21 0.373785
1 1 100 21 0.50105
2 1 100 21 0.49894
21 1 100 21 9.22058e-06
1 2 100 21 0.383419
2 2 100 21 0.410993
3 2 100 21 0.205497
21 2 100 21 9.13001e-05
1 3 100 21 0.100209
4 3 100 21 0.899747
21 3 100 21 4.35536e-05
3 4 100 21 0.999989
21 4 100 21 1.06839e-05
4 5 100 21 0.75
5 5 100 21 0.25
1 6 100 21 0.004914
6 6 100 21 0.49674
7 6 100 21 0.496994
9 6 100 21 4.79859e-05
21 6 100 21 0.0013039
5 7 100 21 0.666667
8 7 100 21 0.333333
6 8 100 21 1
7 9 100 21 0.500038
8 9 100 21 6.11443e-06
9 9 100 21 0.499956
1 10 100 21 0.000221526
6 10 100 21 0.318538
8 10 100 21 0.33759
10 10 100 21 0.318111
12 10 100 21 2.06998e-05
16 10 100 21 0.000136924
21 10 100 21 0.0253822
7 11 100 21 0.202657
8 11 100 21 0.189368
9 11 100 21 0.405316
11 11 100 21 0.202658
9 12 100 21 0.332345
10 12 100 21 0.333769
12 12 100 21 0.333768
21 12 100 21 0.000117997
1 13 100 21 2.81662e-06
5 13 100 21 0.201844
7 13 100 21 0.201844
9 13 100 21 7.74651e-06
10 13 100 21 0.403688
21 13 100 21 0.192613
8 14 100 21 0.124999
11 14 100 21 0.375001
13 14 100 21 0.125
14 14 100 21 0.125
15 14 100 21 0.125
16 14 100 21 0.125
12 15 100 21 0.401034
13 15 100 21 0.598966
13 16 100 21 6.28693e-06
14 16 100 21 0.499997
17 16 100 21 0.499997
12 17 100 21 0.999526
16 17 100 21 0.000358328
21 17 100 21 0.00011562
18 18 100 21 0.521295
21 18 100 21 0.478705
13 19 100 21 0.00641552
14 19 100 21 0.497946
19 19 100 21 0.495638
9 20 100 21 0.000164914
12 20 100 21 4.67719e-05
15 20 100 21 0.995175
19 20 100 21 0.00461305
15 21 100 21 0.499959
20 21 100 21 0.175685
21 21 100 21 0.324355
14 22 100 21 0.200184
15 22 100 21 0.200184
16 22 100 21 0.599629
21 22 100 21 3.00791e-06
8 23 100 21 2.76095e-06
15 23 100 21 0.00016592
16 23 100 21 8.18472e-06
17 23 100 21 0.999766
18 23 100 21 5.55917e-05
20 23 100 21 1.41757e-06
13 24 100 21 4.9102e-05
14 24 100 21 0.000257498
15 24 100 21 0.000631308
16 24 100 21 0.0077175
17 24 100 21 0.253493
18 24 100 21 0.521526
19 24 100 21 0.216326
14 25 100 21 0.000350275
15 25 100 21 1.39002e-05
16 25 100 21 1.9619e-06
18 25 100 21 0.460431
19 25 100 21 0.539203
3 26 100 21 0.00804931
8 26 100 21 0.00472946
17 26 100 21 0.000866859
18 26 100 21 0.000272269
19 26 100 21 2.13297e-05
20 26 100 21 0.984894
21 26 100 21 0.00116648
19 27 100 21 0.148675
20 27 100 21 0.851233
21 27 100 21 9.15718e-05
19 28 100 21 0.999223
20 28 100 21 0.000776902
20 29 100 21 1
21 30 100 21 1
1 0 100 22 0.126668
8 0 100 22 0.147185
9 0 100 22 0.00422215
11 0 100 22 0.188683
12 0 100 22 0.0132978
14 0 100 22 0.0132978
16 0 100 22 0.0132978
18 0 100 22 0.157725
21 0 100 22 0.0307396
22 0 100 22 0.304883
1 1 100 22 0.498851
2 1 100 22 0.5006
11 1 100 22 0.000391856
16 1 100 22 9.7802e-05
22 1 100 22 5.92574e-05
2 2 100 22 0.311741
3 2 100 22 0.311737
4 2 100 22 0.31174
13 2 100 22 0.0647759
17 2 100 22 6.27827e-06
2 3 100 22 0.285723
3 3 100 22 0.428601
4 3 100 22 0.285638
13 3 100 22 1.53202e-05
15 3 100 22 2.20169e-05
1 4 100 22 0.399804
3 4 100 22 0.200017
4 4 100 22 0.200152
5 4 100 22 0.200017
22 4 100 22 8.93874e-06
5 5 100 22 0.5
6 5 100 22 0.5
4 6 100 22 0.260375
6 6 100 22 0.260375
7 6 100 22 0.260375
11 6 100 22 0.218874
5 7 100 22 0.666667
8 7 100 22 0.333333
1 8 100 22 0.167076
2 8 100 22 0.167076
5 8 100 22 0.167076
7 8 100 22 0.167076
9 8 100 22 0.167051
22 8 100 22 0.164643
6 9 100 22 0.4
7 9 100 22 0.2
8 9 100 22 0.2
10 9 100 22 0.2
1 10 100 22 0.2
6 10 100 22 0.2
7 10 100 22 0.2
9 10 100 22 0.2
11 10 100 22 0.2
1 11 100 22 5.3315e-05
7 11 100 22 0.330584
8 11 100 22 0.66589
22 11 100 22 0.0034734
7 12 100 22 0.00353292
10 12 100 22 0.498189
12 12 100 22 0.498189
22 12 100 22 8.83605e-05
8 13 100 22 0.199212
9 13 100 22 0.200233
10 13 100 22 0.200233
11 13 100 22 0.200075
12 13 100 22 8.08924e-06
13 13 100 22 0.200233
18 13 100 22 3.06944e-06
22 13 100 22 2.81884e-06
9 14 100 22 0.25
12 14 100 22 0.5
14 14 100 22 0.25
10 15 100 22 0.464528
11 15 100 22 0.0709386
15 15 100 22 0.464528
16 15 100 22 5.96696e-06
13 16 100 22 0.442528
22 16 100 22 0.557472
9 17 100 22 0.0462351
11 17 100 22 0.317922
14 17 100 22 0.317922
17 17 100 22 0.317922
1 18 100 22 5.36499e-06
8 18 100 22 3.04646e-06
11 18 100 22 4.15359e-05
12 18 100 22 0.249882
14 18 100 22 0.250007
16 18 100 22 9.6619e-06
18 18 100 22 0.250015
19 18 100 22 0.250007
22 18 100 22 2.87727e-05
10 19 100 22 0.00779647
13 19 100 22 0.327031
15 19 100 22 0.327031
16 19 100 22 0.0111179
17 19 100 22 0.327024
10 20 100 22 0.163373
13 20 100 22 0.167345
14 20 100 22 0.167286
15 20 100 22 0.167192
16 20 100 22 0.334724
18 20 100 22 7.65955e-05
22 20 100 22 2.19127e-06
15 21 100 22 0.259424
17 21 100 22 0.259424
20 21 100 22 0.259424
22 21 100 22 0.221729
11 22 100 22 6.16153e-05
16 22 100 22 0.499926
18 22 100 22 8.22544e-06
21 22 100 22 0.499997
22 22 100 22 6.89947e-06
1 23 100 22 1.00234e-05
17 23 100 22 0.467086
18 23 100 22 0.467086
22 23 100 22 0.0658179
1 24 100 22 8.82357e-07
8 24 100 22 7.6936e-06
11 24 100 22 1.19801e-05
12 24 100 22 0.402752
13 24 100 22 0.000237465
14 24 100 22 6.02767e-05
16 24 100 22 0.000143014
18 24 100 22 0.596543
22 24 100 22 0.000244058
12 25 100 22 0.000740561
13 25 100 22 0.0447119
15 25 100 22 4.27765e-06
16 25 100 22 2.26594e-06
17 25 100 22 2.60616e-05
18 25 100 22 0.000358053
19 25 100 22 0.715899
20 25 100 22 0.238258
16 26 100 22 1.06364e-06
18 26 100 22 3.39088e-06
20 26 100 22 0.999996
12 27 100 22 6.73825e-05
13 27 100 22 0.169752
14 27 100 22 1.69247e-05
17 27 100 22 0.2091
18 27 100 22 8.85971e-07
21 27 100 22 0.621062
22 27 100 22 1.38906e-06
2 28 100 22 0.000899069
3 28 100 22 0.0559563
4 28 100 22 0.035603
13 28 100 22 0.00156493
14 28 100 22 9.68835e-05
15 28 100 22 0.00389993
16 28 100 22 0.897885
17 28 100 22 0.00103218
21 28 100 22 0.00306242
13 29 100 22 8.04376e-05
14 29 100 22 0.351736
17 29 100 22 4.63021e-06
18 29 100 22 0.351763
22 29 100 22 0.296416
15 31 100 22 0.500098
16 31 100 22 1.91986e-06
19 31 100 22 0.4999
16 32 100 22 0.878509
19 32 100 22 2.51335e-05
20 32 100 22 0.121466
20 33 100 22 1
9 34 100 22 1
11 35 100 22 0.999022
12 35 100 22 4.55288e-05
17 35 100 22 2.92602e-05
19 35 100 22 0.000575506
20 35 100 22 0.000328179
19 37 100 22 2.65651e-06
20 37 100 22 0.999997
21 39 100 22 1
22 40 100 22 1
9 0 100 23 0.978184
13 0 100 23 0.0135703
22 0 100 23 0.000882782
23 0 100 23 0.0073626
18 1 100 23 1
19 2 100 23 1
20 3 100 23 1
9 4 100 23 0.860141
23 4 100 23 0.139859
5 5 100 23 1
21 6 100 23 1
1 7 100 23 0.500569
23 7 100 23 0.499431
2 8 100 23 0.25
4 8 100 23 0.25
6 8 100 23 0.25
7 8 100 23 0.25
3 9 100 23 0.5
8 9 100 23 0.5
10 10 100 23 1
11 11 100 23 1
9 12 100 23 0.999846
13 12 100 23 0.000154148
12 13 100 23 1
9 14 100 23 0.00428231
13 14 100 23 0.995705
23 14 100 23 1.31332e-05
14 15 100 23 1
9 16 100 23 1
15 17 100 23 1
16 18 100 23 1
17 19 100 23 1
21 20 100 23 1
15 21 100 23 0.0075683
18 21 100 23 0.992432
9 22 100 23 1
19 23 100 23 1
21 25 100 23 1
22 26 100 23 0.999991
23 26 100 23 9.13791e-06
24 0 100 24 1
1 1 100 24 1
7 2 100 24 1
10 3 100 24 1
2 4 100 24 1
3 5 100 24 1
4 6 100 24 1
5 7 100 24 1
5 8 100 24 1
6 9 100 24 1
7 10 100 24 1
8 11 100 24 1
23 12 100 24 1
9 13 100 24 1
7 14 100 24 1
10 15 100 24 1
10 16 100 24 1
11 17 100 24 1
12 18 100 24 1
23 19 100 24 1
13 20 100 24 1
15 21 100 24 1
16 22 100 24 0.333333
17 22 100 24 0.333333
18 22 100 24 0.333333
18 23 100 24 1
19 24 100 24 1
14 25 100 24 1
20 26 100 24 1
20 27 100 24 6.72675e-05
21 27 100 24 0.999933
10 28 100 24 3.80827e-05
22 28 100 24 0.999962
23 29 100 24 1
24 30 100 24 1
1 0 100 27 0.644393
11 0 100 27 0.0334084
12 0 100 27 0.0455807
14 0 100 27 0.010527
26 0 100 27 0.0267389
27 0 100 27 0.239352
2 1 100 27 0.667364
3 1 100 27 0.332636
3 2 100 27 1
4 3 100 27 0.666732
5 3 100 27 0.333268
1 4 100 27 0.99983
27 4 100 27 0.00017029
5 5 100 27 0.500074
6 5 100 27 0.499926
1 6 100 27 1
6 7 100 27 1
7 8 100 27 1
1 9 100 27 0.999966
27 9 100 27 3.41686e-05
8 10 100 27 0.666464
9 10 100 27 0.333536
8 11 100 27 1
10 12 100 27 1
9 13 100 27 0.5
11 13 100 27 0.5
10 14 100 27 0.500098
12 14 100 27 0.499902
11 15 100 27 0.499928
13 15 100 27 0.500072
12 16 100 27 0.499986
14 16 100 27 0.500014
1 17 100 27 0.141519
15 17 100 27 0.432303
17 17 100 27 0.426178
1 18 100 27 0.0288779
16 18 100 27 0.485561
18 18 100 27 0.485561
14 19 100 27 0.499963
15 19 100 27 0.500037
13 20 100 27 0.494501
19 20 100 27 0.505499
16 21 100 27 1
17 22 100 27 1
18 23 100 27 1
1 24 100 27 4.06927e-05
27 24 100 27 0.999959
19 25 100 27 0.333333
20 25 100 27 0.333333
25 25 100 27 0.333333
21 26 100 27 0.5
26 26 100 27 0.5
22 27 100 27 0.51208
23 27 100 27 0.48792
23 28 100 27 1
1 29 100 27 0.000193502
20 29 100 27 2.30551e-06
24 29 100 27 0.500958
27 29 100 27 0.498846
20 30 100 27 0.49987
24 30 100 27 0.499051
25 30 100 27 0.00107674
26 30 100 27 2.23798e-06
1 31 100 27 0.1286
13 31 100 27 2.17527e-05
21 31 100 27 0.864235
22 31 100 27 1.57638e-06
27 31 100 27 0.00714176
13 32 100 27 1.97045e-05
21 32 100 27 5.6432e-06
22 32 100 27 0.999851
23 32 100 27 1.65534e-05
24 32 100 27 0.000107622
1 33 100 27 0.00357437
13 33 100 27 0.0080803
14 33 100 27 5.45882e-05
23 33 100 27 0.98827
25 33 100 27 2.12532e-05
23 34 100 27 2.39376e-05
24 34 100 27 0.00152418
25 34 100 27 0.998452
26 36 100 27 1
1 0 100 28 0.21378
8 0 100 28 0.2658
27 0 100 28 0.114002
28 0 100 28 0.406418
2 1 100 28 1
1 2 100 28 0.499425
3 2 100 28 0.50057
28 2 100 28 5.34245e-06
1 3 100 28 0.999185
28 3 100 28 0.000815363
2 4 100 28 0.333333
3 4 100 28 0.333333
4 4 100 28 0.333333
1 5 100 28 4.3355e-05
4 5 100 28 0.99755
28 5 100 28 0.00240701
5 6 100 28 1
1 7 100 28 0.489965
5 7 100 28 0.510023
28 7 100 28 1.1748e-05
5 8 100 28 0.00600733
6 8 100 28 0.993993
6 9 100 28 0.5
7 9 100 28 0.5
7 10 100 28 0.785804
8 10 100 28 0.214196
8 11 100 28 0.999986
28 11 100 28 1.41669e-05
8 12 100 28 0.333408
9 12 100 28 0.666592
10 13 100 28 1
11 14 100 28 1
12 15 100 28 1
9 16 100 28 0.000672041
13 16 100 28 0.999328
14 17 100 28 0.333333
18 17 100 28 0.333333
19 17 100 28 0.333333
15 18 100 28 0.35212
16 18 100 28 0.352123
28 18 100 28 0.295758
1 19 100 28 0.000923486
10 19 100 28 0.875728
28 19 100 28 0.123348
11 20 100 28 0.5
17 20 100 28 0.5
8 21 100 28 8.12271e-05
12 21 100 28 0.999919
13 22 100 28 0.350157
17 22 100 28 0.350157
28 22 100 28 0.299687
26 23 100 28 1
18 24 100 28 0.5
20 24 100 28 0.5
1 25 100 28 0.00015637
28 25 100 28 0.999844
19 26 100 28 1
22 27 100 28 1
14 28 100 28 0.25
20 28 100 28 0.25
21 28 100 28 0.25
23 28 100 28 0.25
15 29 100 28 0.5
21 29 100 28 0.5
15 30 100 28 9.38424e-07
16 30 100 28 0.333125
17 30 100 28 0.000245679
21 30 100 28 9.38424e-07
22 30 100 28 0.333128
23 30 100 28 0.000366305
24 30 100 28 0.333131
25 30 100 28 2.30746e-06
25 31 100 28 1
17 32 100 28 0.00107199
23 32 100 28 0.332022
24 32 100 28 0.332367
25 32 100 28 0.116516
26 32 100 28 9.97211e-05
27 32 100 28 0.217922
28 32 100 28 9.85924e-07
24 33 100 28 4.45885e-05
25 33 100 28 0.998662
26 33 100 28 0.00129311
17 34 100 28 1.20628e-05
19 34 100 28 3.28192e-06
24 34 100 28 2.49914e-05
25 34 100 28 0.00437908
26 34 100 28 0.995581
26 35 100 28 1
27 36 100 28 0.999996
28 36 100 28 4.19662e-06
29 0 100 29 1
1 1 100 29 1
2 2 100 29 1
3 4 100 29 1
3 5 100 29 1
4 7 100 29 1
5 8 100 29 1
7 9 100 29 1
7 11 100 29 1
28 12 100 29 1
6 14 100 29 1
11 15 100 29 1
11 16 100 29 2.99039e-05
12 16 100 29 0.99997
13 18 100 29 1
28 19 100 29 1
14 20 100 29 1
14 21 100 29 1
15 22 100 29 1
16 23 100 29 1
17 25 100 29 1
18 26 100 29 1
19 27 100 29 1
20 28 100 29 1
21 29 100 29 1
28 30 100 29 1
6 31 100 29 0.230873
7 31 100 29 0.0712292
8 31 100 29 1.77407e-05
21 31 100 29 0.00115174
22 31 100 29 0.231116
23 31 100 29 0.231062
24 31 100 29 0.225856
25 31 100 29 0.00869401
7 32 100 29 0.011836
8 32 100 29 0.988164
6 33 100 29 9.56772e-05
7 33 100 29 0.01096
9 33 100 29 0.987299
24 33 100 29 4.09874e-05
25 33 100 29 0.000142077
26 33 100 29 0.00146198
6 34 100 29 2.95959e-05
7 34 100 29 0.000664137
8 34 100 29 0.000130016
9 34 100 29 4.27311e-05
23 34 100 29 0.000242182
24 34 100 29 0.0130092
25 34 100 29 0.10417
26 34 100 29 0.88101
27 34 100 29 0.000702406
10 35 100 29 0.500441
25 35 100 29 1.02485e-06
26 35 100 29 6.0228e-05
27 35 100 29 0.499497
6 36 100 29 1.0491e-05
7 36 100 29 1.87619e-05
22 36 100 29 2.55803e-06
23 36 100 29 1.43979e-05
24 36 100 29 0.00941083
25 36 100 29 0.988703
26 36 100 29 0.000562237
27 36 100 29 0.00127795
28 37 100 29 1
29 38 100 29 1
1 0 100 30 0.00726651
15 0 100 30 0.988422
29 0 100 30 0.000529065
30 0 100 30 0.00378269
2 1 100 30 1
3 2 100 30 1
1 3 100 30 0.924399
15 3 100 30 0.0755374
30 3 100 30 6.41e-05
4 4 100 30 1
5 5 100 30 1
8 6 100 30 0.333333
10 6 100 30 0.333333
11 6 100 30 0.333333
6 7 100 30 0.5
7 7 100 30 0.5
9 9 100 30 1
11 12 100 30 1
1 13 100 30 0.999984
30 13 100 30 1.56889e-05
12 14 100 30 1
15 15 100 30 1
13 16 100 30 0.5
14 16 100 30 0.5
16 17 100 30 1
17 18 100 30 1
18 19 100 30 1
19 20 100 30 1
1 21 100 30 0.000249121
30 21 100 30 0.999751
15 22 100 30 1
20 23 100 30 1
19 24 100 30 0.99993
30 24 100 30 6.96758e-05
19 26 100 30 1
20 27 100 30 0.199999
21 27 100 30 0.2
22 27 100 30 0.2
23 27 100 30 0.2
24 27 100 30 0.2
19 28 100 30 7.11415e-05
30 28 100 30 0.999929
15 29 100 30 1
25 30 100 30 1
26 31 100 30 1
24 32 100 30 3.82125e-06
27 32 100 30 0.999884
28 32 100 30 0.000112396
28 33 100 30 1
24 34 100 30 7.83944e-06
28 34 100 30 0.999992
29 35 100 30 0.999998
30 35 100 30 2.13183e-06
1 0 100 33 0.0226245
8 0 100 33 0.937821
16 0 100 33 0.0105568
19 0 100 33 0.000925285
32 0 100 33 0.00648013
33 0 100 33 0.0215924
3 3 100 33 0.526265
5 3 100 33 0.473735
4 4 100 33 1
7 6 100 33 1
3 7 100 33 0.25
5 7 100 33 0.25
6 7 100 33 0.25
9 7 100 33 0.25
4 8 100 33 1
10 9 100 33 0.5
11 9 100 33 0.5
1 10 100 33 0.0001649
8 10 100 33 0.999678
33 10 100 33 0.000157378
12 11 100 33 1
13 12 100 33 1
14 13 100 33 1
8 14 100 33 1
15 15 100 33 0.500091
30 15 100 33 0.499909
31 16 100 33 1
24 17 100 33 1
16 18 100 33 1
2 19 100 33 0.5
17 19 100 33 0.5
8 20 100 33 0.999952
33 20 100 33 4.80937e-05
18 21 100 33 1
19 22 100 33 1
20 23 100 33 1
1 24 100 33 0.999987
33 24 100 33 1.30525e-05
21 25 100 33 0.500376
22 25 100 33 0.499624
13 26 100 33 0.0167614
22 26 100 33 0.983239
23 27 100 33 1
8 28 100 33 1
30 29 100 33 1
31 30 100 33 1
24 31 100 33 1
25 32 100 33 1
26 33 100 33 1
8 34 100 33 1.13892e-05
33 34 100 33 0.999989
27 35 100 33 1
28 36 100 33 1
29 37 100 33 1
32 38 100 33 1
9 39 100 33 0.000110731
10 39 100 33 4.2098e-05
11 39 100 33 4.59204e-05
14 39 100 33 0.013262
22 39 100 33 3.70444e-05
23 39 100 33 0.642893
29 39 100 33 0.198744
30 39 100 33 0.144865
9 40 100 33 0.000661927
10 40 100 33 0.000617266
14 40 100 33 0.0998921
15 40 100 33 0.31336
29 40 100 33 0.0149505
30 40 100 33 0.569574
31 40 100 33 0.000943562
8 41 100 33 1
14 42 100 33 3.01028e-06
29 42 100 33 0.99999
30 42 100 33 6.64712e-06
32 44 100 33 0.999993
33 44 100 33 6.9245e-06
