0 6 0.585847
0 263 0.162764
0 271 0.251389
2 2 0.5
2 3 0.5
3 520 1
4 42 0.49889
4 137 0.50111
5 64 0.000918127
5 78 0.909834
5 158 0.0892474
6 354 1
7 12 0.991436
7 109 0.00856417
8 5 1
9 4 0.507372
9 6 0.492628
10 7 0.5
10 9 0.5
11 8 0.25
11 672 0.25
11 757 0.25
11 832 0.25
12 263 0.801346
12 271 0.198654
13 10 0.235931
13 16 0.509124
13 468 0.254562
13 475 0.000382213
14 216 0.000169595
14 271 0.965555
14 870 0.034275
15 10 0.0353012
15 11 1.27022e-05
15 17 0.482343
15 963 0.482343
16 11 0.799999
16 17 0.200001
17 6 0.95393
17 38 2.91093e-05
17 263 0.0460406
18 13 0.5
18 595 0.5
19 14 0.5
19 596 0.5
20 15 1
21 18 1
22 19 1
23 263 0.150215
23 271 0.849785
24 20 1
25 21 0.321806
25 26 0.678194
26 22 0.499999
26 554 0.500001
27 6 0.150606
27 140 0.849328
27 271 6.56955e-05
28 21 0.0487079
28 198 0.951292
29 11 1
30 23 0.151018
30 24 0.151018
30 109 0.0957982
30 430 0.151018
30 889 0.149114
30 890 0.151018
30 980 0.151018
31 25 1
32 26 1
33 27 1
34 28 0.500266
34 29 0.499734
35 29 0.000263062
35 48 0.499868
35 878 0.499868
36 30 0.5
36 41 0.5
37 211 0.499968
37 600 0.000222877
37 1044 0.49981
38 31 0.996919
38 32 0.00308083
39 32 0.499226
39 33 0.500774
40 6 1.1791e-05
40 34 0.999968
40 860 1.9836e-05
41 35 0.571892
41 38 0.142162
41 438 0.142973
41 508 0.142973
42 36 1
43 37 0.499997
43 129 0.499997
43 625 6.05805e-06
44 38 1
45 39 1
46 40 1
47 5 0.00636186
47 42 2.1185e-05
47 43 0.993617
48 263 0.183777
48 321 0.404014
48 387 0.00953088
48 715 0.402678
49 43 0.999959
49 605 4.14737e-05
50 44 0.970901
50 117 0.00799698
50 519 0.0211016
51 45 1
52 46 0.666898
52 333 0.333102
53 47 1
54 49 1
55 12 1
56 50 0.770803
56 234 0.150277
56 263 0.0789201
57 51 0.712807
57 222 0.287193
58 25 0.363636
58 217 0.545455
58 869 0.0909091
59 52 1
60 53 1
61 54 1
62 55 1
63 56 0.500004
63 63 0.499996
64 61 1
65 57 0.5
65 126 0.5
66 18 0.25
66 58 0.75
67 59 1
68 60 0.742612
68 1054 0.257388
69 60 1
70 19 1
71 83 0.111111
71 125 0.888889
72 62 0.611816
72 78 0.388184
73 12 0.0142971
73 216 0.000484034
73 271 0.983858
73 1044 0.00136054
74 64 0.23539
74 73 0.411941
74 158 0.293899
74 162 0.0587699
75 65 1
76 66 1
77 67 0.499992
77 79 1.69065e-05
77 498 0.499992
78 69 0.333333
78 70 0.333333
78 71 0.333333
79 697 0.5
79 722 0.5
80 68 1
81 72 0.499987
81 80 0.499987
81 90 2.57167e-05
82 74 0.5
82 87 0.5
83 75 1
84 76 1
85 77 1
86 79 0.999188
86 90 0.000812257
87 117 0.665837
87 283 0.334163
88 78 0.999644
88 160 6.69055e-05
88 529 0.000289493
89 81 0.799998
89 659 2.87926e-06
89 990 0.199999
90 82 0.5
90 226 0.5
91 84 1
92 85 1
93 78 0.0523534
93 86 0.947647
94 88 0.829716
94 90 0.170284
95 40 1
96 89 1
97 616 0.999929
97 617 7.07169e-05
98 90 0.209258
98 91 0.26358
98 92 0.263581
98 93 0.263581
99 94 0.75
99 169 0.25
100 95 0.6
100 96 0.4
101 97 0.5
101 106 0.5
102 98 1
103 610 0.332788
103 861 0.665812
103 889 0.00139908
104 371 1
105 99 0.336538
105 100 0.336538
105 101 0.326924
106 102 1
107 101 0.0148205
107 103 0.00121114
107 170 0.983968
108 103 1
109 104 0.998366
109 434 0.00163369
110 105 0.5
110 107 0.499999
111 36 0.499977
111 108 0.500023
112 35 0.399993
112 36 1.8133e-05
112 109 0.199996
112 181 0.399993
113 110 1
114 111 0.959104
114 712 0.0408963
115 38 0.5
115 112 0.5
116 135 1
117 410 1
118 244 0.253003
118 710 0.506063
118 840 0.240934
119 102 0.333338
119 115 0.666662
120 115 2.09748e-05
120 116 0.999979
121 113 1
122 114 0.5
122 117 0.5
123 171 0.330985
123 172 0.669015
124 118 1
125 119 0.997202
125 120 0.00279786
126 120 0.499666
126 121 0.500334
127 121 0.000138512
127 122 0.999861
128 117 0.999356
128 283 0.000125667
128 933 0.000518735
129 123 1
130 124 1
131 127 0.5
131 128 0.5
132 34 0.308386
132 129 0.691614
133 130 1
134 131 0.666644
134 782 0.333318
134 837 3.82314e-05
135 132 0.500156
135 133 0.499837
135 134 6.61203e-06
136 133 0.000318789
136 134 0.499833
136 505 0.49984
136 506 8.0696e-06
137 436 1
138 263 0.997739
138 271 0.00226118
139 135 1
140 136 1
141 263 1
142 138 1
143 139 0.959778
143 140 0.0402215
144 141 0.762743
144 910 0.237257
145 142 0.5
145 304 0.5
146 143 1
147 144 1
148 145 1
149 146 1
150 141 0.528126
150 150 0.471874
151 69 1.12001e-05
151 147 0.749993
151 1123 0.249996
152 148 1
153 149 0.903784
153 150 0.0962158
154 150 2.73791e-05
154 910 0.999973
155 434 0.999986
155 1098 1.39671e-05
156 151 0.995152
156 1031 0.00484836
157 152 0.5
157 154 0.5
158 153 1
159 155 1
160 67 0.666502
160 156 0.333251
160 541 0.000246788
161 157 1
162 159 0.500008
162 160 0.499993
163 161 1
164 162 0.0013363
164 163 0.998664
165 20 1
166 164 0.178441
166 218 0.821559
167 164 0.115987
167 165 0.884013
168 52 0.00234743
168 167 0.498972
168 168 0.49868
169 166 1
170 263 0.607597
170 691 0.196493
170 821 0.195911
171 168 0.000585102
171 335 0.999415
172 170 0.0938853
172 216 0.906115
173 169 1
174 171 0.00237188
174 172 0.997628
175 51 0.64417
175 220 1.20779e-06
175 222 0.107376
175 234 0.248453
176 12 0.0023431
176 216 0.997657
177 63 1
178 173 0.499998
178 1042 0.500002
179 174 1
180 175 1
181 176 1
182 48 1
183 177 1
184 178 1
185 179 0.5
185 182 0.5
186 180 0.224316
186 194 0.775684
187 28 0.883043
187 180 0.116957
188 183 0.5
188 184 0.5
189 140 0.000177332
189 366 0.999823
190 185 1.29606e-05
190 581 0.499994
190 721 0.499994
191 656 1
192 185 1
193 186 0.333353
193 187 0.333353
193 188 0.333295
194 188 8.63851e-05
194 189 0.00491727
194 1055 0.499101
194 1056 0.495895
195 189 1
196 190 1
197 173 0.4
197 191 0.2
197 192 0.2
197 193 0.2
198 192 1
199 195 1
200 173 0.4
200 191 0.2
200 193 0.2
200 196 0.2
201 197 1
202 199 0.5
202 200 0.5
203 201 1
204 202 1
205 71 1
206 203 1
207 204 1
208 206 1
209 992 1
210 205 0.333333
210 219 0.333333
210 220 0.333333
211 207 0.25
211 208 0.25
211 209 0.25
211 792 0.25
212 210 1
213 211 8.82259e-05
213 212 0.999912
214 117 0.571394
214 129 6.08751e-05
214 343 0.428545
215 213 0.5
215 214 0.5
216 215 1
217 221 1
218 223 0.500001
218 224 0.499999
219 225 1
220 228 1
221 227 1
222 229 1
223 230 1
224 231 1
225 169 1
226 232 0.5
226 233 0.5
227 230 0.433993
227 238 0.285368
227 263 0.00102772
227 502 0.144977
227 520 0.134634
228 230 0.00182305
228 238 0.00121316
228 263 0.996759
228 520 0.000205014
229 234 8.09314e-06
229 235 0.160249
229 263 0.160334
229 545 0.182965
229 553 0.49639
229 606 5.26106e-05
230 236 1
231 237 0.33287
231 867 0.334261
231 868 0.33287
232 378 0.5
232 412 0.5
233 242 1
234 242 0.000633797
234 243 0.666244
234 791 0.333122
235 244 1
236 245 0.500011
236 605 0.499989
237 245 7.52406e-06
237 590 0.999992
238 246 0.666667
238 772 0.333333
239 247 1
240 248 0.199974
240 378 0.199974
240 546 0.399947
240 579 0.199974
240 588 0.000131526
241 239 0.25
241 249 0.25
241 250 0.25
241 251 0.25
242 222 0.284989
242 541 0.715011
243 240 1
244 253 1
245 241 0.499609
245 254 0.249804
245 378 0.000782753
245 938 0.249804
246 252 1
247 412 0.2
247 413 0.8
248 10 0.250046
248 238 0.249862
248 255 0.250045
248 256 0.250046
249 257 1
250 258 0.493688
250 260 0.329101
250 366 0.177212
251 10 0.500003
251 282 0.499997
252 116 1
253 259 1
254 261 0.000225277
254 262 0.999775
255 261 1
256 35 0.333333
256 264 0.333333
256 265 0.333333
257 109 1
258 266 0.5
258 357 0.5
259 267 0.500168
259 268 0.499832
260 277 0.333333
260 287 0.666667
261 241 0.5
261 748 0.5
262 268 1
263 269 1
264 270 1
265 271 1
266 272 0.5
266 275 0.5
267 276 1
268 273 0.5
268 278 0.5
269 274 0.5
269 279 0.5
270 280 0.499997
270 281 0.499997
270 282 6.20129e-06
271 283 1
272 284 0.666667
272 453 0.333333
273 285 1
274 286 1
275 34 0.249109
275 37 0.691891
275 259 0.0241278
275 617 0.0348715
276 288 0.5
276 289 0.5
277 290 1
278 291 1
279 292 1
280 293 0.503568
280 295 0.496432
281 294 0.4
281 296 0.2
281 561 0.4
282 297 0.333333
282 358 0.666667
283 295 0.0146528
283 387 0.985347
284 298 0.333333
284 302 0.333333
284 454 0.333333
285 299 0.666517
285 303 0.333259
285 440 0.000223831
286 300 1
287 301 0.583334
287 625 0.416666
288 452 1
289 305 1
290 306 1
291 307 1
292 308 1
293 309 1
294 310 1
295 311 1
296 289 0.333333
296 315 0.333333
296 316 0.333333
297 312 0.5
297 313 0.5
298 344 0.000321247
298 480 0.999679
299 314 0.25
299 481 0.75
300 482 0.333371
300 483 0.333371
300 484 0.333257
301 441 0.66659
301 484 0.000114396
301 1026 0.333295
302 317 0.668092
302 420 0.331908
303 318 0.332598
303 319 0.665196
303 715 0.00220663
304 320 1
305 321 1.10874e-05
305 815 0.999989
306 260 0.199999
306 322 0.2
306 323 0.2
306 324 0.2
306 325 0.2
307 326 1
308 327 1
309 519 0.666772
309 723 0.333228
310 328 1
311 329 1
312 330 0.499999
312 331 0.500001
313 263 0.199999
313 332 0.800001
314 334 0.656757
314 429 0.328379
314 648 0.0148644
315 336 1
316 337 0.667167
316 344 0.332833
317 338 0.5
317 339 0.5
318 341 1
319 340 1
320 238 0.0523658
320 342 0.947634
321 6 0.0556304
321 160 0.94437
322 405 0.362484
322 421 0.287024
322 503 0.350126
322 838 0.000366212
323 140 0.3323
323 345 0.33385
323 346 0.33385
324 37 0.496473
324 140 7.04848e-05
324 371 0.503279
324 554 0.000177011
325 347 0.333333
325 370 0.333333
325 392 0.333333
326 351 0.666667
326 382 0.333333
327 230 0.500643
327 348 0.499357
328 348 0.00275425
328 349 0.997246
329 350 1
330 286 1
331 352 1
332 353 1
333 355 0.5
333 356 0.5
334 238 0.333331
334 359 0.666669
335 111 0.987507
335 360 0.0124929
336 360 0.496817
336 361 0.503183
337 362 1
338 321 0.5
338 363 0.5
339 364 1
340 365 1
341 367 1
342 140 0.333216
342 368 0.333393
342 369 0.333391
343 370 1
344 371 0.742117
344 749 0.257883
345 372 1
346 173 0.5
346 373 0.5
347 305 0.333333
347 319 0.333333
347 374 0.333333
348 375 0.5
348 709 0.5
349 376 1
350 377 0.998334
350 670 0.00166594
351 15 0.500785
351 378 0.499215
352 379 0.500074
352 380 0.499926
353 380 0.000295048
353 381 0.999705
354 271 7.61298e-06
354 584 0.999992
355 373 1
356 383 1
357 260 0.000148572
357 384 0.999851
358 385 1
359 386 1
360 388 0.666667
360 990 0.333333
361 389 1
362 43 0.0294834
362 321 0.485258
362 390 0.485258
363 391 1
364 234 1
365 234 0.406664
365 393 0.593336
366 840 0.0456293
366 841 0.954371
367 393 1
368 119 1
369 394 0.5
369 395 0.5
370 396 0.499983
370 903 0.499983
370 904 3.43272e-05
371 397 1
372 445 1
373 399 1
374 401 1
375 402 1
376 398 0.5
376 400 0.5
377 34 0.499997
377 403 0.500003
378 317 1
379 404 1
380 406 1
381 407 0.5
381 408 0.5
382 409 0.666667
382 478 0.333333
383 244 5.58749e-05
383 411 0.999944
384 414 0.941619
384 750 0.0583812
385 415 0.515996
385 726 0.257998
385 750 0.226006
386 416 1
387 418 1
388 417 0.5
388 419 0.5
389 422 0.499872
389 423 0.500128
390 424 1
391 422 0.000595564
391 544 0.000271128
391 545 0.999133
392 425 0.5
392 936 0.5
393 241 0.499999
393 431 0.500001
394 241 0.249999
394 426 0.25
394 427 0.25
394 428 0.25
395 35 0.5
395 407 0.5
396 432 0.5
396 433 0.5
397 435 0.999896
397 436 0.000103887
398 436 0.0061146
398 437 0.993885
399 263 0.520182
399 689 0.479807
399 898 1.1135e-05
400 399 0.333407
400 439 0.333408
400 440 0.333184
401 442 1
402 443 1
403 444 1
404 263 0.249573
404 445 0.750427
405 446 1
406 447 0.999987
406 448 1.28451e-05
407 449 1
408 450 0.5
408 451 0.5
409 448 1
410 452 0.997853
410 461 0.00214674
411 455 1
412 456 1
413 457 1
414 458 1
415 459 0.333812
415 460 0.333812
415 461 0.332376
416 124 0.25
416 463 0.25
416 464 0.25
416 465 0.25
417 35 0.965335
417 826 0.0346653
418 466 0.5
418 467 0.5
419 469 0.500067
419 476 0.499933
420 469 0.499929
420 470 0.500071
421 354 1
422 462 0.5
422 471 0.5
423 472 1
424 473 1
425 474 0.500376
425 475 0.499624
426 477 1
427 479 1
428 485 1
429 436 1
430 486 1
431 487 1
432 488 1
433 489 0.997753
433 490 0.00224682
434 490 1
435 263 8.71524e-06
435 641 0.22222
435 660 0.666661
435 707 0.11111
436 491 1
437 492 1
438 51 0.000774021
438 493 0.999226
439 494 1
440 495 1
441 496 1
442 497 1
443 441 1
444 499 1
445 10 1
446 500 1
447 501 1
448 117 0.456587
448 283 0.543413
449 503 1
450 113 0.499999
450 504 0.500001
451 40 5.89456e-05
451 905 0.999941
452 506 0.499996
452 507 0.500004
453 509 1
454 263 0.323203
454 271 0.338145
454 510 0.338652
455 511 1
456 512 0.5
456 513 0.5
457 514 0.333333
457 515 0.333333
457 516 0.333333
458 517 0.335766
458 518 0.335766
458 519 0.328468
459 521 1
460 522 1
461 523 1
462 524 1
463 525 1
464 34 3.53898e-05
464 526 0.999965
465 35 0.400015
465 263 0.199969
465 265 0.200008
465 527 0.200008
466 528 0.5
466 529 0.5
467 530 1
468 531 0.333333
468 532 0.333333
468 533 0.333333
469 35 1
470 534 1
471 535 0.99878
471 536 0.00121982
472 536 0.499705
472 537 0.500295
473 369 0.999957
473 537 4.29783e-05
474 332 0.25
474 538 0.25
474 540 0.25
474 542 0.25
475 543 0.875
475 1043 0.125
476 156 0.5
476 539 0.5
477 220 0.500055
477 544 0.499945
478 123 1
479 837 1
480 547 1
481 327 0.884946
481 870 0.115054
482 548 0.997221
482 647 0.00125199
482 648 0.0015266
483 549 0.525608
483 553 0.00149428
483 554 0.472897
484 550 0.249995
484 551 0.749986
484 644 1.85856e-05
485 552 1
486 35 0.790301
486 271 0.209699
487 555 1
488 556 0.50119
488 557 0.49881
489 557 0.0047268
489 558 0.995273
490 559 1
491 160 0.5
491 677 0.5
492 560 0.25
492 562 0.25
492 563 0.25
492 564 0.25
493 565 1
494 566 1
495 567 1
496 12 0.5
496 568 0.5
497 569 1
498 271 1
499 570 1
500 571 1
501 445 0.506617
501 572 0.493383
502 553 0.427558
502 554 0.0956322
502 573 0.47681
503 574 1
504 575 1
505 576 1
506 577 1
507 578 1
508 580 1
509 583 0.5
509 617 0.5
510 582 1
511 585 0.500137
511 617 0.499863
512 586 1
513 587 1
514 588 1
515 173 0.333333
515 589 0.666667
516 371 0.000101906
516 678 0.999898
517 371 0.50007
517 600 0.49993
518 591 1
519 631 0.508146
519 632 0.491854
520 592 0.792557
520 593 0.207443
521 593 0.0046476
521 948 0.497657
521 1059 0.497695
522 593 0.421605
522 594 0.578395
523 597 1
524 241 0.5
524 598 0.5
525 10 0.499975
525 445 1.16878e-05
525 872 0.500013
526 599 1
527 354 0.499983
527 445 0.500017
528 354 5.04527e-05
528 445 5.28426e-06
528 452 0.000165913
528 659 0.500227
528 860 0.499551
529 20 0.999964
529 600 3.6017e-05
530 601 1
531 602 0.815635
531 603 0.184365
532 603 0.43629
532 604 0.56371
533 606 0.500157
533 607 0.499843
534 607 0.00095335
534 608 0.999047
535 541 0.00387505
535 609 0.996125
536 611 0.666667
536 1015 0.333333
537 613 0.996072
537 1103 0.00392768
538 612 0.5
538 614 0.5
539 615 1
540 616 0.0265437
540 617 0.973456
541 618 1
542 619 1
543 620 0.25415
543 621 0.25415
543 622 0.23755
543 623 0.25415
544 624 1
545 625 1
546 10 2.48023e-05
546 622 0.673753
546 873 0.326222
547 34 0.507905
547 999 0.492096
548 626 1
549 627 1
550 628 1
551 629 1
552 617 3.51598e-05
552 630 0.999965
553 617 0.968925
553 632 0.0310752
554 633 0.333334
554 634 0.333334
554 1108 0.333332
555 635 1
556 636 1
557 637 0.333333
557 638 0.333333
557 639 0.333333
558 640 1
559 642 0.5
559 643 0.5
560 645 0.666667
560 646 0.333333
561 644 0.4989
561 651 0.498934
561 924 0.00216614
562 158 0.338512
562 647 0.33846
562 648 0.323027
563 649 1
564 650 1
565 652 0.500022
565 653 0.499978
566 653 2.96479e-05
566 654 0.32902
566 657 0.335642
566 658 0.335309
567 654 0.504636
567 655 0.494873
567 658 0.000490842
568 541 0.499629
568 661 0.500371
569 156 1
570 662 0.5
570 663 0.5
571 664 1
572 38 1
573 665 1
574 666 1
575 667 1
576 668 1
577 669 0.500836
577 670 0.499164
578 673 1
579 674 1
580 675 0.5
580 676 0.5
581 671 1
582 762 0.75
582 767 0.25
583 719 0.750001
583 794 0.249999
584 678 0.0232851
584 723 0.976715
585 679 1
586 680 1
587 681 0.99875
587 731 0.00124984
588 146 0.7576
588 681 0.2424
589 682 0.5
589 685 0.5
590 683 0.5
590 686 0.5
591 684 0.5
591 742 0.25
591 744 0.25
592 687 1
593 688 0.5
593 820 0.5
594 52 0.134943
594 690 0.862502
594 821 0.00255469
595 275 0.5
595 822 0.5
596 283 0.332728
596 692 0.333636
596 693 0.333636
597 117 0.00103023
597 283 9.71687e-06
597 823 0.49948
597 824 0.49948
598 694 0.999986
598 695 1.37111e-05
599 688 0.500003
599 695 0.499997
600 763 1
601 764 1
602 700 1
603 271 1
604 701 1
605 702 1
606 385 0.666667
606 581 0.333333
607 696 0.333333
607 697 0.333333
607 703 0.333333
608 339 0.5
608 698 0.5
609 705 0.666667
609 706 0.333333
610 699 0.5
610 704 0.5
611 708 1
612 372 0.75
612 850 0.25
613 711 1
614 284 0.34353
614 529 0.343441
614 712 0.312988
614 716 4.10413e-05
615 712 0.00361265
615 713 0.996387
616 714 1
617 117 0.331511
617 716 0.334224
617 717 0.334264
618 718 0.5
618 720 0.5
619 724 1
620 725 1
621 117 0.666665
621 141 0.333335
622 389 1
623 727 0.333334
623 728 0.333334
623 729 0.333333
624 42 0.00294855
624 117 0.333077
624 997 0.333077
624 1000 0.330879
624 1001 1.90104e-05
625 730 1
626 362 0.250131
626 731 0.249606
626 732 0.500263
627 25 1
628 304 0.333333
628 733 0.333333
628 734 0.333333
629 735 1
630 736 0.433296
630 737 0.439387
630 738 0.127318
631 736 0.0191444
631 738 0.980856
632 739 1
633 283 1
634 740 0.333333
634 741 0.333333
634 743 0.333333
635 745 1
636 453 0.000334225
636 746 0.999666
637 453 0.499916
637 747 0.500084
638 92 0.5
638 751 0.5
639 755 0.00133319
639 756 0.998667
640 754 1.98243e-05
640 777 0.99998
641 752 1
642 753 0.333484
642 754 0.333477
642 755 0.333039
643 758 1
644 759 1
645 760 1
646 674 1
647 761 1
648 765 1
649 766 0.333333
649 768 0.333333
649 769 0.333333
650 770 0.5
650 771 0.5
651 773 0.422641
651 774 0.577359
652 774 7.7706e-05
652 775 0.999922
653 773 0.965504
653 774 0.0344964
654 776 0.999975
654 777 2.47969e-05
655 778 0.333333
655 779 0.333333
655 780 0.333333
656 781 1
657 688 0.333332
657 782 3.55132e-06
657 783 0.333332
657 784 0.333332
658 25 1
659 323 0.00170871
659 785 0.998291
660 323 0.499555
660 786 0.500393
660 787 5.23827e-05
661 786 3.62474e-05
661 787 0.999964
662 141 0.999244
662 787 0.000755968
663 788 0.333333
663 789 0.333333
663 790 0.333333
664 793 1
665 795 0.334
665 800 0.334
665 801 0.332001
666 796 1
667 797 0.333333
667 802 0.333333
667 1112 0.333333
668 263 0.475263
668 805 0.524737
669 798 1
670 117 1.84715e-05
670 799 0.999982
671 796 0.527847
671 801 0.0031591
671 837 0.468994
672 18 1
673 625 0.25
673 796 0.25
673 803 0.25
673 804 0.25
674 806 0.333333
674 807 0.333333
674 808 0.333333
675 69 0.499982
675 809 0.500018
676 810 0.5
676 811 0.5
677 812 0.333333
677 825 0.666667
678 813 1
679 814 0.234917
679 827 0.765083
680 129 0.480929
680 814 0.519071
681 816 1
682 817 0.333332
682 818 0.333334
682 819 0.333334
683 826 1
684 37 0.495681
684 501 0.504319
685 828 0.000961212
685 829 0.999039
686 707 0.328238
686 829 0.339393
686 830 0.328238
686 959 5.4832e-06
686 1111 0.00412514
687 828 0.666562
687 833 0.333438
688 831 1
689 301 0.5
689 747 0.5
690 834 0.500004
690 835 0.499996
691 835 1.43553e-05
691 836 0.999986
692 838 0.498436
692 839 0.501564
693 259 0.333217
693 838 0.333368
693 842 0.333416
694 172 1
695 843 1
696 844 0.702418
696 845 0.297582
697 845 0.000114686
697 846 0.66659
697 1024 0.333295
698 568 0.867794
698 845 0.132206
699 853 1
700 855 1
701 594 0.25
701 790 0.25
701 848 0.25
701 849 0.25
702 34 0.5
702 847 0.5
703 851 1
704 852 1
705 853 1
706 854 1
707 860 1
708 856 1
709 857 1
710 858 1
711 859 1
712 568 0.998681
712 860 0.00131946
713 486 1
714 862 0.9
714 900 0.1
715 863 1
716 864 0.570669
716 898 0.429331
717 714 1
718 862 0.5
718 865 0.5
719 173 0.5
719 866 0.5
720 405 0.407706
720 867 0.592294
721 36 0.513997
721 109 0.486003
722 870 0.494743
722 871 0.505256
723 874 1
724 875 1
725 399 1
726 876 1
727 877 1
728 697 0.499881
728 723 0.000237441
728 879 0.499881
729 880 1
730 880 1
731 881 1
732 399 0.026976
732 881 0.962603
732 883 0.0104206
733 882 1
734 883 0.499682
734 884 0.500318
735 885 1
736 886 1
737 887 1
738 888 1
739 14 0.333333
739 520 0.333333
739 595 0.333333
740 891 0.5
740 892 0.5
741 893 1
742 894 0.5
742 895 0.5
743 109 0.196536
743 896 0.201336
743 897 0.201336
743 898 0.199456
743 899 0.201336
744 901 1
745 902 1
746 486 0.666675
746 991 0.333325
747 904 0.503136
747 905 0.496864
748 554 0.266524
748 625 0.2488
748 924 0.484676
749 554 0.481436
749 843 0.518564
750 616 0.5
750 906 0.5
751 40 0.25
751 907 0.25
751 908 0.25
751 909 0.25
752 910 0.516166
752 947 0.483834
753 109 1
754 911 1
755 428 0.5
755 835 0.5
756 54 0.5
756 912 0.5
757 913 1
758 914 1
759 915 0.5
759 916 0.5
760 301 1
761 917 1
762 453 0.25
762 918 0.25
762 919 0.25
762 920 0.25
763 921 1
764 554 1
765 835 0.999635
765 921 0.000364529
766 922 1
767 923 1
768 140 0.931131
768 921 0.0688688
769 263 1
770 925 1
771 905 1
772 263 0.200307
772 905 0.196644
772 926 0.201016
772 927 0.201016
772 928 0.201016
773 929 1
774 271 1
775 271 1
776 244 0.5
776 930 0.5
777 856 0.5
777 932 0.5
778 439 0.767894
778 870 0.232106
779 439 0.000117479
779 871 0.999883
780 958 1
781 439 0.0015077
781 870 0.998369
781 931 0.000123511
782 931 1
783 933 0.499979
783 934 0.500021
784 935 1
785 937 1
786 939 1
787 554 0.500023
787 941 0.499977
788 940 0.499976
788 941 4.6163e-05
788 942 0.499978
789 40 1
790 943 1
791 944 1
792 857 1
793 924 0.0232465
793 945 0.488377
793 946 0.488377
794 610 0.00106001
794 948 0.99894
795 949 0.333333
795 950 0.333333
795 951 0.333333
796 18 0.5
796 952 0.5
797 953 0.586335
797 954 0.413665
798 954 0.227497
798 955 0.772503
799 956 0.74619
799 957 0.25381
800 536 0.982768
800 957 0.0172323
801 536 0.00391109
801 957 0.996089
802 959 0.499996
802 1012 0.500004
803 160 1
804 959 1
805 252 0.999987
805 389 1.33852e-05
806 389 0.500846
806 960 0.499154
807 960 0.00338378
807 961 0.996616
808 962 1
809 160 0.5
809 964 0.5
810 965 0.5
810 966 0.5
811 967 0.999981
811 968 1.90461e-05
812 968 0.499995
812 969 0.500005
813 970 1
814 971 1
815 972 1
816 34 0.000270995
816 815 0.0128782
816 973 0.986851
817 815 0.496716
817 974 0.503284
818 975 1
819 40 0.748901
819 326 3.32101e-05
819 982 0.251066
820 976 0.333333
820 977 0.333333
820 978 0.333333
821 189 0.498392
821 979 0.498406
821 1056 0.00320177
822 327 0.532603
822 982 0.467397
823 981 1
824 983 0.500029
824 984 0.499971
825 984 0.000114821
825 985 0.999885
826 986 0.333333
826 988 0.333333
826 989 0.333333
827 156 0.5
827 987 0.5
828 827 0.999961
828 991 3.89673e-05
829 996 1
830 40 0.24932
830 993 0.500453
830 1008 0.250227
831 994 1
832 995 1
833 997 0.5
833 998 0.5
834 905 1
835 1000 0.00655552
835 1001 0.993445
836 1002 1
837 1003 0.333333
837 1004 0.333333
837 1005 0.333333
838 1006 1
839 407 0.5
839 1007 0.5
840 1009 0.333333
840 1010 0.333333
840 1011 0.333333
841 990 0.333333
841 1013 0.333334
841 1014 0.333334
842 1016 1
843 1017 1
844 1018 1
845 1019 1
846 1022 1
847 858 0.5
847 1023 0.5
848 1020 0.5
848 1021 0.5
849 333 0.00310844
849 865 0.996892
850 1025 1
851 409 1
852 1027 1
853 19 0.333876
853 1029 0.333876
853 1031 0.332249
854 1028 1
855 1030 1
856 1032 1
857 520 0.00277137
857 1033 0.997229
858 1034 1
859 1035 1
860 1036 0.5
860 1037 0.5
861 1038 1
862 18 0.75
862 856 0.25
863 663 1
864 1039 1
865 105 1
866 1040 1
867 1041 1
868 1043 1
869 40 0.199211
869 128 0.199211
869 1044 0.00394415
869 1102 0.398422
869 1106 0.199211
870 315 0.075366
870 1044 0.457572
870 1045 0.467062
871 1046 0.682578
871 1103 0.317422
872 1047 0.5
872 1075 0.5
873 315 0.999656
873 1045 0.000344073
874 1048 1
875 1049 1
876 1050 0.5
876 1083 0.5
877 1051 1
878 31 0.993277
878 1052 0.00672266
879 860 0.501679
879 1052 0.498321
880 1053 0.997875
880 1054 0.00212531
881 1057 1
882 1058 1
883 948 0.258625
883 1046 0.22412
883 1060 0.258627
883 1061 0.258627
884 1062 0.999617
884 1063 0.000383285
885 1063 0.500366
885 1064 0.499578
885 1098 5.60289e-05
886 948 0.998047
886 1064 0.00195341
887 1065 1
888 1066 1
889 1067 1
890 1068 0.509348
890 1073 0.490652
891 1069 0.630221
891 1070 0.369779
892 1070 0.292414
892 1071 0.707586
893 1072 1
894 1065 0.77268
894 1073 0.22732
895 1074 1
896 534 1
897 1076 1
898 1077 1
899 1078 1
900 1079 1
901 35 0.333333
901 1080 0.333333
901 1081 0.333333
902 1087 1
903 952 1
904 1082 1
905 1084 1
906 513 0.499438
906 1085 0.500562
907 498 0.997759
907 513 0.00224083
908 1086 1
909 498 1
910 1088 1
911 1089 0.999962
911 1090 3.76623e-05
912 1091 0.669471
912 1111 0.330529
913 1090 1
914 1092 1
915 1093 0.5
915 1094 0.5
916 1095 1
917 1096 1
918 1097 1
919 1098 1
920 1093 1
921 1064 0.5
921 1099 0.5
922 1059 1
923 396 0.999982
923 1059 1.84934e-05
924 1100 1
925 1101 1
926 1104 1
927 1105 1
928 1107 1
929 34 0.000630117
929 1109 0.99937
930 1110 1
931 1113 0.00206367
931 1120 0.498969
931 1121 0.498967
932 1113 0.332413
932 1114 0.333794
932 1115 0.333793
933 1116 1
934 992 0.333334
934 1117 0.333333
934 1118 0.333334
935 1119 1
936 1122 1
937 14 0.999975
937 69 2.54437e-05
938 1124 1
939 1125 1
940 1126 1
941 35 0.333332
941 1102 0.333334
941 1127 0.333334
